一种服务器备用电源及服务器电源	0.328635 -0.712027 -1.425405 -2.479352 3.604351 -0.005743 0.293046 -2.431364 1.293743 -0.580301 -1.579114 -2.124257 2.469023 0.103409 0.416527 0.293604 -1.384104 -0.689004 -0.380786 -0.332958 0.561409 1.861233 0.080481 -0.998947 1.301713 0.281687 -0.046045 -2.392401 1.051335 0.646268 0.602689 -0.401545
一种基于多维度生理信息的心脏健康监护系统	0.476909 -0.081641 -1.701668 -1.724491 0.412035 0.800190 -0.261180 -0.119271 1.674254 1.487973 -0.124428 -0.390290 -0.795238 -0.326476 -0.766503 1.667178 0.081891 -0.198519 -1.098992 -1.872260 0.320800 0.904927 -0.271025 0.418596 0.143881 -0.097065 0.135924 0.022390 -1.538525 1.217983 0.081836 -0.023845
一种消除直流失调电压全差分运算放大器电路	-0.095456 0.288621 -2.915378 -1.868981 -0.313272 2.869669 -2.566139 -2.253030 -1.432828 2.640760 0.781486 -0.446170 1.038277 -1.762155 1.547653 -0.401630 -0.307732 -1.996450 0.950925 -2.387948 0.216794 -2.750743 1.311946 1.235526 -3.264305 1.337862 -1.896665 -2.023325 -2.107728 -0.335312 -0.448455 0.604734
引脚编码模式选择系统	0.201454 1.867698 -0.085316 -0.148409 -0.302522 -0.138839 -0.604890 1.797545 -1.338126 -2.542591 0.176776 0.779867 -1.386067 0.773918 1.127532 0.279102 1.673441 1.691003 0.861449 -2.469839 -1.557064 -1.685411 -1.029047 0.483246 0.768892 -1.424109 0.443276 0.441366 0.451853 -1.065457 -0.334034 -0.728162
立式磨专用齿轮油、加工方法和装置	-0.960079 -0.032591 0.995445 1.795228 -0.157225 1.093691 0.244014 -0.920374 1.620342 1.326030 -0.700295 -0.835673 -0.326512 0.193883 0.914856 -0.700165 -1.213827 0.266522 -0.702353 1.476208 1.281674 0.419744 -0.293165 1.840564 -1.090406 -0.049720 -0.441258 0.368304 0.019010 0.825617 0.441012 0.971025
一种备电保护的控制方法、系统及相关组件	0.531854 1.134226 0.350061 -0.538090 -0.283136 -0.044788 0.517107 1.268182 -1.334094 -1.136248 0.470444 -0.127590 -0.256667 0.852104 1.805167 -0.761457 0.371513 0.698365 0.168057 -0.422223 -1.161654 -1.648105 -0.999095 0.156474 1.489780 -2.057981 -0.242155 0.316544 0.471447 -1.238083 0.527980 -0.246814
基于运算放大器的低噪声精密放大电路及其性能改进方法	1.035289 -1.417197 0.048702 -2.412993 1.184592 -0.964568 -0.294345 0.348294 3.546803 -1.722797 -0.986414 -3.889602 1.660159 2.743153 3.658544 -1.003634 -2.855206 1.230283 -0.860107 2.906900 -2.622402 -2.357991 -0.514750 1.842675 0.066993 -2.918295 1.382478 0.137901 0.059029 0.948285 1.766762 0.210879
一种基于ECG信号的睡眠自动分期方法	-0.877233 1.501412 0.374752 1.363756 0.486471 1.416319 -0.710835 -0.333331 -0.516954 1.368602 0.037498 -0.356694 -0.642642 -0.566927 0.435018 -0.519332 1.100509 -0.287789 -0.525521 0.637571 -0.394538 -0.580845 0.894710 -0.000202 0.483502 -1.389700 1.255861 0.026009 0.035232 0.332549 -0.303285 0.388882
单端转差分放大器和射频接收机	-0.570601 -0.612959 -1.161134 -1.942989 -1.969611 0.107561 -3.510903 -0.115188 1.297798 0.869579 0.511576 -0.417464 -0.602814 -2.223602 1.759521 0.135845 -0.929015 -0.058319 -1.989766 -3.752335 -0.754090 -0.817747 -0.550174 1.084384 -2.077686 0.545049 -0.937403 0.588486 -1.639742 1.879617 0.239026 -0.682852
润滑油基础油、含有该润滑油基础油的润滑油组合物和使用了该润滑油组合物的无级变速器	-0.984160 1.535060 -2.046013 2.390201 -0.972001 -2.094700 -0.135037 0.469939 1.106530 3.820961 -0.349715 -1.996044 -0.399666 -1.982462 3.862696 -2.108689 -3.138034 -0.556833 -0.106496 3.517750 -0.801280 -0.836471 0.734981 3.495962 -2.892560 -2.497036 -0.441651 0.452069 -2.874421 3.156912 0.126514 1.616978
配合二氟甲烷制冷剂使用的冷冻机油组合物及其应用	-4.742784 1.741998 0.579699 1.330987 -1.186788 1.635026 -2.151325 1.652617 0.817065 1.287200 2.691634 -1.890039 -1.407021 -1.303667 -0.271656 -0.959673 -0.348497 0.114785 1.359544 0.776173 -0.507165 -0.902886 -0.878984 2.626343 -2.015147 0.950271 0.107792 0.162058 1.687740 0.243399 -0.416159 0.363411
一种可控增益带通滤波放大电路及自动增益控制方法	0.282179 -1.372081 -1.604462 -2.895398 -0.937932 -2.438163 -1.893180 1.088494 -0.574074 0.294137 1.615626 0.499813 -0.169975 -0.225700 1.147988 0.718832 -1.935917 1.376989 -0.628220 1.034939 -0.047651 -1.084304 0.573887 0.047028 -1.694585 -0.114901 -0.442922 -0.458520 0.202355 1.794819 -0.847751 0.066857
超宽带低噪声放大器	0.216835 -0.234907 -3.701757 -0.967696 1.502061 0.891394 -0.667920 -0.258226 0.748478 1.929853 0.378197 -1.740716 1.842197 -0.414343 1.189618 -1.097685 -0.661262 0.369005 0.030507 0.930592 0.200835 0.684377 -0.656681 2.189857 -3.779096 -1.093201 -1.165281 -0.407897 -0.207193 0.856776 0.193723 1.319232
D类功率放大器电路	0.550728 -0.315450 -3.653986 1.970271 1.710161 -2.005342 -2.299793 1.614479 -2.022695 -6.145560 1.534584 0.776215 -2.341450 -0.600470 4.573230 -2.217196 -3.544842 1.109139 3.502216 2.682958 1.464124 3.833994 -0.529017 0.457900 -2.170254 0.009474 -1.592435 -0.973204 -0.924557 -0.557568 -1.280574 -4.783520
粘度指数改进剂组合物和润滑油组合物	-0.461596 0.598971 0.767644 0.838060 0.175315 -2.074987 0.411997 -0.559674 0.780879 2.110334 -0.274826 -2.719593 0.209557 0.465737 2.231752 -1.214085 -1.983007 1.588479 1.137393 0.414613 -2.149889 1.311278 -0.074970 0.219927 -2.335528 -1.345347 -1.700287 -1.748334 0.291222 1.356887 2.540748 0.570254
一种心电图的诊断结论自动诊断方法及系统	-2.225894 1.433069 1.030820 -0.001598 -0.923640 0.275957 -0.519422 0.456114 1.221215 1.858926 1.056564 0.744763 -1.044436 0.578836 -2.172925 0.500891 -0.606703 -0.070483 -0.059474 -1.154264 -2.275118 -0.897333 -0.030483 0.130348 2.113997 -0.531891 0.577042 -1.195298 -1.563575 0.244162 -0.582407 -1.195052
基于形态学滤波和小波阈值的心电异常判别系统及方法	1.834299 -1.307891 0.436617 -1.345417 0.696717 -0.021390 0.919212 0.210276 1.310258 2.484167 -0.111898 -0.080822 -0.201277 1.148194 1.365887 -0.518263 -0.293590 0.110569 1.200411 0.103770 -0.766010 1.484034 0.342116 -1.389259 0.415075 1.586399 -0.271119 -1.212989 -2.360165 0.691566 2.511827 -0.358971
安全控制器	0.199105 0.524879 -0.557729 0.265488 -0.928380 -0.230471 -0.040534 0.247411 -1.346807 -0.764059 0.574082 0.960168 -0.063005 -0.148915 -0.148284 0.210868 0.212492 -0.214966 -0.158886 -0.263111 0.085464 -1.582573 -0.363261 -0.201972 -0.217539 -0.180393 -0.315692 0.543955 0.203542 -0.088526 -0.630071 -0.449614
基于图卷积神经网络和迭代阈值收缩算法的心脏跨膜电位重建方法	2.537652 0.849412 -1.764800 1.374391 0.993290 2.139814 -1.545423 -1.811406 0.550272 1.506003 -1.094214 -0.042820 1.868964 -0.521064 -1.420320 1.820286 1.706768 -0.164085 0.230542 1.014369 0.944697 0.713988 0.118341 0.479603 -0.961977 -1.781275 -1.823069 0.728122 1.882452 -1.081498 0.170303 0.281889
一种分类方法、系统、电子设备及存储介质	-0.348120 -0.258912 -0.508229 0.637883 -0.122613 -1.667642 0.017708 0.451692 -0.756982 -1.262150 1.690980 -1.113364 -0.456983 -0.466301 0.959255 0.857578 0.977238 0.543395 -1.035041 0.310879 -2.129757 -2.482668 -0.016714 -0.661556 0.180397 -0.636244 0.890254 -0.543474 1.763183 -0.075128 -0.198589 -0.228339
一种降低计算机主板待机功耗的控制方法、电路及其系统	0.257075 2.170192 -0.383814 -1.183882 -0.366682 -0.100220 -1.151656 0.267476 -0.795295 0.211095 -2.457083 -0.426962 0.217200 0.626818 1.316310 -0.127230 0.787000 -0.822091 0.502454 -2.060472 1.153563 0.232765 0.067844 0.549157 -0.004586 -2.562324 -0.295747 -2.570658 0.538994 -0.829720 0.942607 0.392422
一种快速筛选具有临床诊断价值的心电图的方法与装置	0.903441 0.672808 -0.286444 1.819309 -0.439747 0.259319 0.184539 -0.612423 -2.059977 -1.209598 0.961233 0.803101 1.328210 -1.298868 -0.117381 1.948198 1.249999 0.928231 -0.133067 -0.942263 -2.048769 -0.089287 -2.306636 -1.084948 1.062572 0.028083 -0.721056 -0.681983 0.147850 -0.460325 -1.155291 -0.363784
用于润滑脂和润滑剂应用的聚烯烃组合物	-0.747668 2.556756 1.054786 0.673015 -0.112899 2.239621 2.588743 2.194811 -2.060365 0.486795 0.090261 -0.035904 -0.624441 1.102482 -3.212156 -1.628378 -1.946949 -0.395461 0.200133 0.473816 0.128468 0.068620 -1.029351 0.365655 0.091621 -2.190073 -1.138518 0.072377 -0.711457 1.259869 -1.981631 0.429857
一种用于心电数据分析的反混淆叠加方法及装置	1.193557 1.447948 -0.547386 -0.256437 -0.991790 0.800791 0.815751 -0.415385 -0.874715 -0.026890 0.198063 0.833614 0.522902 0.642824 -0.365773 0.969761 1.140286 -0.305837 0.039465 -0.362784 -1.208328 0.318401 0.718246 0.120648 -0.054921 -0.178828 -1.295112 0.336265 -0.274609 0.910763 -0.493228 -0.891232
一种多车型通用无级变速箱油及其制备方法	1.534109 1.862686 1.258810 3.493520 0.088902 0.868682 1.772544 0.998983 -0.574182 -0.923531 1.793407 -1.326480 -1.591631 1.581185 -0.118939 -0.459883 -1.466429 -2.734430 -0.670253 1.786387 2.685709 0.783893 0.584935 1.292628 0.082852 -2.036509 1.517181 1.598270 0.781571 0.555857 -0.638546 1.890464
一种棒状阀杆密封剂组合物及其制备方法	-1.032337 0.434179 -0.891463 -1.733184 -1.305395 0.308835 -0.784957 0.829337 2.069589 1.917063 0.108700 -1.556040 -0.517431 -1.064624 0.768416 0.108926 -2.732405 0.338592 -1.529720 -1.969414 -1.152852 2.161001 1.085181 -0.072339 -3.379465 -1.212150 -0.698616 -2.195728 -1.294003 4.157018 -0.149917 1.443183
基于金字塔型卷积层的心电信号深度神经网络建模方法	-1.972344 -3.589162 0.335972 0.831034 0.911436 0.764742 -1.308033 -1.384224 0.388684 -1.678693 -0.231402 -1.990461 2.800283 -3.185731 -1.997256 -0.321687 -0.672969 -0.344775 0.948380 1.858041 0.405375 3.284954 -0.770552 -1.546613 -0.075379 2.213427 1.948691 -0.000022 2.172498 -4.924958 1.446154 0.723542
一种多视角转换的心电信号数据增强方法	-1.491355 0.058277 -1.864379 1.109795 0.217125 0.162227 -3.661009 -0.702682 -0.098970 -1.349188 1.044650 -0.108757 0.431994 -1.902462 -0.019229 1.150647 -2.097559 -3.929233 1.872365 3.519354 0.951777 -0.242577 -0.032144 2.779237 -2.933864 2.802370 1.154668 -1.322770 0.482488 1.384025 -1.307991 0.980561
缺失导联的心电数据的分类处理方法、装置及存储介质	0.347024 -1.232551 3.259536 0.435382 -0.466802 0.190896 0.186018 -0.520316 -0.634450 -0.625106 0.625812 0.694174 -1.244392 -0.257751 -2.241441 0.448315 0.684896 0.956269 1.122506 -1.325124 -0.647269 -0.016293 -0.630125 0.302988 -0.261783 0.946774 -0.636296 0.768522 0.293275 0.731102 0.487959 -1.712395
皂氨酯润滑脂及其制备方法	-1.422097 -1.171955 0.284672 -4.232353 0.108364 -3.578797 -1.681516 -0.364973 2.505582 3.988530 0.708560 -2.927662 0.855992 -3.165497 -0.080317 -0.327909 -2.350302 1.510876 -3.988159 -1.437237 -1.196801 4.054196 0.580366 1.393871 -3.488135 -1.295453 -2.348334 -0.762621 2.630854 2.966574 2.128179 -0.051505
基于碳量子点的电流变材料的制备方法及电流变材料	-3.832510 -1.852622 -2.953511 0.421988 -0.400005 -0.744555 1.557826 4.514710 -1.663153 -2.798544 0.688733 -4.803880 0.595738 0.283906 0.393565 -1.991476 -2.376283 2.387188 -4.166026 1.793332 1.156991 -1.188683 -2.804659 -0.280558 -2.509104 -2.419888 -0.665316 1.416397 -0.357406 1.062153 0.197656 2.698077
一种亲水型户外和潮湿地区离心泵专用油及其制备方法	-1.568399 -0.115578 -1.391506 2.903888 -1.462968 -0.961511 0.012065 2.216278 -1.888540 -4.087834 -0.506894 -0.687020 -0.607504 -1.065063 1.333970 -2.533474 -1.081780 0.859139 -3.737034 0.358104 -2.200699 -2.979367 1.421596 -1.260614 -3.181481 -2.735845 0.511542 0.560712 2.583293 2.149910 -3.095870 1.946112
VPX供电设备	-0.970983 -1.890578 -0.647563 -2.333609 0.413412 -0.438837 -2.797972 0.092637 1.270377 0.282488 1.126855 0.180603 0.933226 -2.299976 2.453359 0.499441 -0.194404 1.945541 0.794187 -2.015048 -0.530963 -2.099971 -0.167331 1.364125 -1.353337 -0.558532 0.899198 -0.679639 0.946146 2.163610 0.435629 0.237279
一种新型金属切削液及其制备方法	-0.372225 -2.369783 1.521059 1.045923 1.443492 -0.241542 -1.218883 1.005268 -0.250991 -0.737067 -1.205257 -1.728151 -1.574180 -2.368131 0.181233 -0.555338 -1.287179 1.709977 -0.309962 1.265944 0.052846 -1.034245 -0.621931 0.366698 -1.636012 0.526652 0.792078 -0.637305 4.370087 0.650512 0.534919 -0.599783
基于多尺度卷积和密集连接网络的心电信号质量评估方法	-0.272020 0.987374 0.562918 -0.466889 -0.355633 1.378118 0.303549 -0.421077 1.177191 -0.207244 0.135979 -0.954233 0.039249 0.243283 0.091451 0.648404 -0.963270 1.183907 -1.920707 1.013092 -0.781725 1.068843 0.264776 0.176127 -1.125012 -0.310587 -0.772310 0.299374 -2.710378 1.186682 0.050692 0.265079
融合深度和医学特征的基于序列标注的多导联心电信号分类方法	-0.175106 -3.012118 1.895069 -1.731563 0.562101 -1.733786 1.371497 -1.857960 0.267764 -0.322352 -1.275794 1.367588 -0.083399 1.955762 -2.458903 -0.279536 0.422639 -2.139938 0.077220 0.266548 2.904836 1.232957 0.442929 -2.235472 3.116250 0.387507 -1.364546 1.384811 -1.698363 -1.870524 2.243967 -0.786340
UPS使用寿命的预测方法、设备及计算机可读存储介质	0.036168 0.030097 -0.765860 0.281640 0.507460 -1.148085 0.041526 -0.156103 -1.781262 0.619288 0.464627 -0.775560 0.208779 0.128348 -0.390847 -1.292005 -1.044412 -0.059050 1.166045 -0.255284 -0.777045 -1.483073 0.132225 1.373205 -0.513885 -1.769179 -0.154452 -1.951489 1.200281 0.749736 -0.036937 0.200714
心脏信号中噪声信号的检测	-1.552843 -0.249876 -1.284066 0.202173 -1.663091 0.548377 0.206364 -0.418380 -3.110952 -2.145085 -1.371317 0.748403 -0.995162 -3.060769 2.509449 -2.774572 -0.852091 -0.994625 1.492439 2.306054 -0.961115 1.976217 2.474798 -0.244526 -1.061808 -0.395653 0.100505 2.690416 -0.673721 0.350132 -0.789342 0.166388
一种低功耗超宽带低温低噪声放大器	-0.065436 0.011949 1.575385 0.131763 -2.987028 0.916689 1.287230 0.178902 -1.450121 1.740880 1.327085 -0.267676 -1.925184 -1.053897 -2.082139 0.653370 0.310106 0.172894 0.449707 -0.341709 0.134299 0.685196 -0.396284 0.598537 0.552364 0.814351 -0.723452 -1.551279 -1.354602 0.939473 0.573843 0.516249
一种电源冷冗余配置方法及装置	3.951243 0.373985 -1.934109 1.651567 0.439293 4.317083 3.466690 -0.384637 -3.219412 0.654333 1.263642 -0.854675 4.371104 0.640231 -0.112190 1.316763 1.516122 0.516439 -2.907254 2.065963 1.603208 3.811445 1.020992 -3.821001 -2.946828 -4.713877 -5.479830 0.991861 -2.298933 2.053199 1.761209 -0.015848
服务器进入功耗封顶后实现整机功耗回调的方法、系统	0.118013 -1.187551 -0.547938 0.097360 0.570992 -0.681044 -2.489268 -0.382674 1.456059 0.400653 -0.696855 -0.386642 -0.307315 -2.628370 1.835947 0.122898 -0.724929 -0.520844 0.273997 -0.521623 -0.692009 0.050978 0.340328 -0.278823 0.002602 -0.763203 -0.015689 0.463972 -0.656733 0.728406 0.640082 0.541174
一种频段可重构的宽带低噪声放大器	-0.607650 -0.960467 0.030826 1.806916 -0.557089 0.736693 -0.615147 0.391613 -0.960336 -0.569730 0.637308 -0.270439 -0.432448 -0.650967 1.244349 -1.218525 0.287847 -0.322294 1.409655 -0.455917 -0.800787 0.577677 1.106520 0.015812 -0.678008 -0.823002 0.839132 1.215389 0.498216 0.475399 -0.224049 -0.122229
一种信号采集系统	0.038119 1.199726 -1.728254 -0.440956 0.003999 -0.000154 0.078703 -0.172447 0.303684 -0.086590 0.295061 0.295867 -0.256215 0.038426 0.592181 0.266221 0.704491 -0.528438 -0.210482 -0.588607 0.758611 -1.782992 0.020276 0.351763 0.442528 -0.658270 0.149621 0.077247 0.920532 -0.193178 -0.578480 0.253931
一种服务器电源模块的均流方法、装置和系统	-0.236392 1.012100 1.430667 3.857354 -1.020221 2.590198 -0.750834 0.020698 -2.028385 -4.046218 1.150446 -1.085429 -0.721858 2.894731 0.763533 -1.780088 -3.233597 -1.482747 1.339450 0.715752 2.702531 1.433948 1.645452 -0.138722 -4.031214 1.881073 -0.188961 -2.620526 2.228415 -2.553843 -0.938065 4.525939
节能型长寿命低灰分柴油机油组合物	-1.823079 -0.218995 0.789016 -0.514366 0.148404 -0.416082 -2.273296 -1.194192 1.295439 3.529477 -0.158268 -2.360306 -1.277587 -1.239156 2.485682 -2.178824 -3.101844 0.144271 0.365495 -0.977080 -2.034994 1.864891 -0.167790 1.427536 -2.408068 -0.693926 0.431927 -2.501844 0.009628 3.618738 1.523885 2.294495
一种宽带放大电路	-0.200398 -2.276990 1.161500 0.031179 -0.663346 -0.540870 -1.294474 1.226514 -1.329840 -0.962951 0.074655 -1.706723 0.823504 -1.304914 1.608785 -0.490155 0.302099 1.006867 -0.545530 -0.645735 0.090727 -0.425900 0.752890 -0.392607 -1.840714 -0.441748 0.835859 0.794627 1.953412 1.452350 1.194698 -0.765402
基于新型生成对抗网络的心电信号增强方法	-2.710209 -1.687646 1.420434 -0.330881 0.039982 0.998157 0.489775 0.671725 1.708429 2.185456 -0.560448 -1.523233 1.212788 1.810024 -0.397859 0.475223 0.471118 0.795365 1.477539 -0.258715 0.241265 -0.757612 -2.765518 1.149476 1.246229 1.921492 0.007105 1.094848 1.169084 -1.002911 0.402773 0.645880
聚亚烷基二醇润滑剂组合物	0.234648 -0.144730 -0.108050 -0.658766 -0.087700 -2.587665 0.176267 2.009442 -3.127544 1.870448 0.610422 -1.769234 -1.091557 -1.056979 1.976709 -1.281296 -2.638496 -0.055135 1.609910 -1.062284 -3.436846 -1.458483 1.503748 0.178593 -1.310712 -2.421634 1.880791 -0.494543 1.930990 4.014675 -0.485436 1.327924
使用酯基础油料提高传动系统和工业齿轮润滑流体液的粘度指数和效率	-1.849550 -0.576033 0.903536 0.918682 0.421284 1.037781 1.990846 2.388403 -1.218915 -6.828495 -1.888648 -2.914728 -1.637653 0.175657 0.576088 -3.841623 -2.444622 1.001076 -2.910685 2.653165 2.764068 5.850832 -1.013553 0.345754 0.553504 2.395414 0.747403 1.428769 3.663834 -7.398681 -1.460805 1.317296
一种具有可调装置的医用护膝带	-0.002259 -0.564953 -1.400782 -1.101323 -1.692738 -2.262183 -1.338498 1.319225 -0.946926 -0.600620 0.633904 1.227081 -0.967699 -2.587329 2.235380 -1.428162 -0.498845 -1.334994 -0.051821 0.705165 -1.699707 -1.857100 0.039741 0.368061 0.114520 -1.262836 0.382648 1.343893 -2.800204 0.377389 -2.675488 0.416692
一种对心电信号数据进行颤动波识别的方法和装置	0.940216 2.082107 -3.328953 -0.978903 0.109429 -2.701779 -0.813053 1.795466 -0.251628 -0.381313 0.557624 0.278127 -2.223010 -0.606363 -0.238275 1.055758 0.416282 1.250136 1.734042 -3.775656 -3.091961 -3.578972 0.535039 1.392630 0.562508 -0.662941 -0.602594 -0.962665 -0.999046 -0.759541 -1.248492 0.776604
处理心电信号的方法、心电信号监测设备和存储介质	2.032756 -0.701644 0.223194 -0.263112 1.471440 -0.514585 0.408351 -0.502979 1.188136 -0.532787 -0.680255 1.782035 0.499225 -0.215269 0.165484 1.031491 0.037311 -0.144751 2.930682 3.643229 -0.341576 -0.657404 -0.457378 -0.293760 -0.660359 1.305939 1.485018 0.093500 2.434468 0.630233 0.361184 0.643902
一种基于深度学习的心电信号分类方法、装置及存储介质	0.083759 -0.490106 0.338363 -0.302036 1.336045 -0.776626 0.625745 -0.303376 2.339505 0.188860 0.240839 -0.416217 2.008252 -1.601249 -0.404058 0.943698 -1.503043 -1.226104 0.369252 1.757261 1.063363 0.103551 -0.625323 0.606198 1.312702 -0.553746 0.375141 -0.153446 -0.512839 -0.396145 0.177486 0.880106
一种用于大排量重型摩托车的润滑油及其制备方法	-1.854736 2.414274 0.069087 -0.366555 -0.496730 -2.853801 2.779864 0.739927 -0.394167 2.405320 1.710816 -2.813335 0.393766 -2.356961 1.325627 0.864468 -4.243156 0.920016 -1.127949 -1.360716 -1.444724 1.270380 -0.692665 3.269063 -1.388414 -2.842417 0.073877 -2.843932 -0.070795 4.128262 0.503180 2.414814
一种公路车辆齿轮油及其制备方法	0.253489 -0.091101 -1.330620 0.517603 -0.724981 -1.280163 -0.663172 1.181694 0.002765 1.567616 -3.914188 0.247173 -0.027019 -2.507783 -1.282041 -1.845666 -2.126990 -0.422752 -3.274478 1.951383 2.384140 3.524440 0.219575 1.297481 1.411947 -0.479840 -0.131387 -1.305243 1.074997 -1.273477 0.358754 2.169314
一种大数据多中心联合控制系统	-1.466995 -3.550887 1.013129 -0.222966 0.062189 -0.401794 -0.739051 -1.325944 0.690699 0.347216 0.651533 -1.344565 -0.009075 -0.693918 -0.903147 1.419615 1.221774 0.223823 -0.185888 -0.295446 -1.100005 -3.070344 -0.466404 -2.110300 -3.086224 0.424724 1.053565 0.390090 2.616768 3.970794 0.009350 0.138899
一种基于CNN神经网络的急性心肌梗死定时期自动判别系统	-0.352401 0.641484 0.597603 -0.607025 -0.360808 1.041769 1.342701 0.548593 -0.462787 2.001047 0.982901 0.343600 0.094646 -0.030327 1.197164 -0.878369 -2.244367 0.662681 -0.150514 -1.067335 -1.067264 -1.743299 0.032624 0.514214 -0.968489 -0.550772 -0.417985 -0.002939 -1.640664 -0.961708 -1.387623 0.388129
一种心电信号处理方法及装置	0.264494 -0.954017 1.310725 -1.076997 0.674255 -0.599397 1.561485 -0.257199 0.854249 0.869777 -0.978338 0.077728 0.334595 0.217423 -0.933739 0.275401 -0.544822 0.700173 1.001551 0.076351 0.481694 1.359929 -1.212797 0.238799 0.993182 0.087655 -0.512521 -1.266182 -0.543122 0.019453 2.079382 0.793444
润滑油基础油的制备方法	2.002348 -1.270931 -0.038691 1.157410 0.647391 0.204056 1.549266 0.593902 2.498785 1.571004 -1.496475 -1.650351 1.448114 0.017545 1.923843 -0.819811 -0.782960 -0.170828 -2.969015 -0.201800 2.549970 3.222826 -0.206854 0.798027 -1.533025 -0.923195 -0.555228 1.107396 1.664972 -0.000522 2.524365 0.418347
一种冗余电源智能控制装置	0.841647 5.972502 1.697308 -0.385573 -3.734403 -2.128643 3.672210 -0.842507 -3.004043 -0.421180 0.554224 3.318321 0.114762 1.250163 0.210381 0.269034 -1.024309 -2.501967 1.732855 -1.440065 4.117472 -1.914996 -0.986526 2.485214 3.608148 -1.068328 0.343203 -2.384212 5.089931 0.813039 -3.636002 0.909953
一种提高电源模块与主板兼容性的电路结构	-0.937322 2.778868 0.736839 -0.488875 -2.181761 0.951491 -0.812247 1.254822 -1.632922 -1.593883 1.917445 1.975002 -0.879537 -0.674446 1.786894 0.543142 0.935930 -0.053259 -0.344081 1.336006 0.423992 -3.540127 -0.081421 0.606782 1.943805 -1.842645 -0.408272 2.233693 -0.236625 -1.688466 -2.425514 -0.353781
通用型节能环保重负荷润滑油及其制备方法	-0.978858 -0.470234 0.459024 0.300641 0.429163 0.791838 1.164776 -1.705268 0.341059 4.599493 -0.490666 -2.625722 -1.063589 -2.665314 3.366880 -1.405891 -2.967671 -0.762558 -2.522255 1.779059 0.926031 2.604469 0.840845 2.077840 -3.391565 -1.694838 -0.816087 1.709903 0.702662 0.901807 0.835937 1.506966
一种用于润滑油的星形分散型黏度指数改进剂及其制备方法	-0.130063 1.575218 0.929421 -1.226402 -2.197078 1.846371 1.429847 -1.029284 -1.529744 -0.741482 1.219574 0.785347 -3.218436 0.245611 3.475751 -1.391484 -3.434327 -2.110352 -0.193062 2.788366 2.001758 0.687258 -2.408262 2.647565 0.426867 -2.592328 -1.113937 0.274809 -1.540283 0.763234 1.550102 1.677550
一种心电图识别方法、装置、存储介质及电子设备	-1.189064 -1.821136 1.783887 2.119600 0.648613 1.959760 -0.933112 0.060870 0.075836 -4.233537 -0.587075 -1.059733 1.559694 -1.761379 -1.321913 0.389867 0.687880 -2.093364 0.015478 -3.676243 -1.333993 1.400865 -2.376846 0.252203 1.149473 3.657425 0.261238 -0.614711 0.818451 -2.283465 -0.638391 0.388026
电源管理方法、电子设备、存储介质及系统	-0.334243 -0.230009 -0.411508 -2.066190 1.124885 2.150597 0.629519 -0.605118 -0.745271 0.528422 1.388734 0.031250 0.956021 1.084229 0.154498 -0.509589 0.843568 -0.784042 0.819428 -1.103890 1.483054 -1.777684 0.213471 0.204963 0.376500 -0.374718 -0.955048 0.003713 0.250197 -0.041322 -1.022795 1.613440
一种氧化石墨烯水基纳米润滑剂及其制备方法	2.047648 1.444815 -2.037789 0.590958 -3.293156 -1.641469 1.460306 -0.846691 -2.000543 -5.710163 -1.405122 -2.411129 0.116723 -2.289444 2.060990 -2.617871 -1.528813 1.818095 -5.203180 0.496506 -4.455439 0.600899 -1.203539 -0.384463 -2.726367 -2.050320 -0.082946 -0.594430 -0.224222 0.568540 2.052079 -0.095824
一种基于导联分组的12导联心电信号多标签分类方法	0.078213 -1.209481 -0.247161 -1.419475 -0.034232 -1.155478 -1.524385 1.509865 -0.938818 -0.907424 -0.755620 -1.152777 1.636403 0.444215 -0.928594 0.156775 -1.000781 0.655160 -0.245218 0.336906 -0.673650 1.648346 0.607164 -1.085396 -2.190821 0.071533 0.442669 -2.286554 2.000399 0.270562 0.629622 -0.309334
一种心电波形信号的波形识别方法、装置及设备	0.827215 -0.538785 -1.228129 -1.408585 -1.028735 -0.287619 0.292365 1.060409 -0.069911 -2.295094 1.599268 0.237706 -0.546667 -0.828176 2.118064 1.391258 -0.376520 1.243522 -0.571426 -1.217087 -1.303652 -0.578441 -0.279242 -1.014584 -0.353388 -1.694637 -0.520415 1.002581 0.016467 1.597118 0.367225 -1.525765
一种统一存储系统的供电控制方法、装置、设备及介质	0.237064 0.148457 0.111927 -2.333754 -1.418611 1.797274 0.893431 0.467029 -0.764360 -1.023473 1.364901 0.131995 -0.213473 0.517096 2.166822 0.301695 0.228915 2.222694 -1.548639 -0.689540 -1.177715 0.278436 0.111546 -0.850493 -0.822420 -1.096590 -1.576383 0.245843 -1.411054 -0.048818 0.444848 -0.725635
一种星载甚低频前置放大器	0.409314 -0.973180 -0.575195 0.029720 0.648111 -0.244288 0.292744 1.100567 -0.783346 -0.562425 0.338564 -1.117375 -1.454061 0.436059 0.949585 0.395196 0.088237 0.072852 1.541301 0.629611 0.948584 -1.050163 -0.135712 -1.114210 -1.311686 0.608202 1.273967 -0.798703 2.236972 -0.530555 0.394107 -0.488504
一种基于ResNet-50和迁移学习的心电信号质量分析方法及装置	0.267052 0.130774 -1.689311 -1.133548 2.018266 -0.551654 0.459815 0.133501 2.015168 0.129191 -0.837450 -1.628239 2.821766 -2.131463 -1.237417 -0.917082 -2.759119 -0.083067 1.887526 -0.841082 -2.078241 0.124935 -1.220602 3.353011 0.506427 -0.316086 -0.081150 -0.996790 0.306634 0.421934 2.528088 2.974251
检测模型的训练装置、方法及心电数据处理方法、装置	0.805043 1.886768 -0.140558 0.485603 -1.210680 0.416186 0.805657 0.541881 -1.813663 -1.373135 0.957751 1.705934 -0.386815 0.613415 -0.558855 0.482988 0.389942 0.805146 1.203295 0.116874 -0.677916 -0.562446 -0.634691 -0.388399 -0.770523 0.023814 -0.650902 -1.413210 -0.213693 0.540282 -0.381520 -0.737487
用于基于时间序列和心内及身体表面心电图（ECG）信号形态的心跳分类的装置和方法	0.240019 -0.038807 -0.710303 -0.187585 -0.327664 0.457408 -0.310098 -0.587945 -2.020420 -1.373105 0.769404 -0.781222 0.023623 0.628957 -0.537505 0.087720 0.290859 0.230882 -0.848471 -0.754936 -1.989630 -2.811411 1.261988 1.193401 -1.621336 0.848492 0.957284 -1.124420 -0.238776 1.907165 -0.228842 0.243124
润滑油组合物	-4.085590 1.331644 1.578328 2.771755 0.363514 -1.682953 -2.922665 -0.293736 -0.918567 -0.286659 -1.210981 -2.559500 -1.509838 -2.289400 3.853098 -2.057889 -1.618500 -0.002878 -3.513382 -1.451115 -1.136029 -0.058290 -2.700294 2.355354 -2.649808 -4.579820 -0.733311 -0.048390 4.636975 0.544733 0.589874 1.072540
一种适用于声波多普勒测量流速的处理电路	0.493445 1.745537 -1.121927 0.207144 -1.182918 1.895232 0.183529 0.105547 -1.367261 -2.825556 0.478246 0.747519 0.632871 0.968956 0.192952 0.911405 0.587592 0.514574 -0.626592 0.217369 0.484793 -2.382126 -2.335515 -0.764247 1.573243 -2.062364 0.343326 0.662399 1.554727 -0.891673 -0.541506 -0.013969
一种BBU掉电保护实现方法及系统	-0.433749 -0.826057 -0.107640 -0.770332 -0.389112 -0.321188 -0.953188 0.140987 0.752764 0.264444 0.450906 -0.038820 0.296898 -0.418122 1.264867 -0.240887 -0.536316 1.161359 -0.761499 -0.369373 -1.250480 -0.361949 -0.248472 -0.213981 -0.820688 0.448107 0.120046 -0.018848 1.018470 0.498733 0.504694 -0.093813
一种可生物降解环保型发动机润滑油及其制备方法	-1.136329 -4.819865 2.270996 1.658283 0.462162 1.015519 -0.233574 -2.720828 -0.339719 3.288037 -4.404926 -2.526839 -0.826294 -3.900247 0.371639 -1.980298 -1.043394 -3.026811 0.786463 1.806008 4.414270 6.723128 0.600645 -2.557643 -0.454814 4.165562 -0.256502 0.612251 1.985496 -3.539225 -0.182448 2.713054
低噪声放大电路以及低噪声放大器	0.597401 0.468013 -0.152673 2.037495 1.966205 -0.642867 1.387671 -0.059498 -0.111931 -1.309200 1.489689 1.153046 -1.809615 1.896085 -1.524334 -0.835889 -2.098087 0.100340 0.961856 0.565635 0.495899 1.237636 -0.507695 0.131733 1.679342 0.260391 0.507076 -1.371331 0.288497 -1.780309 -0.639641 0.160422
一种75W-90黏度级别城轨齿轮箱专用油组合物	-1.889178 -1.681287 0.891767 0.295203 0.885442 0.746592 1.548939 -0.329722 -0.702895 1.727680 0.497295 -2.731151 -0.371673 -1.941962 1.546423 -1.343657 -0.711566 0.568717 -1.791340 2.048711 1.179561 1.356666 -0.220895 1.099495 -1.596661 -0.441800 -0.967446 0.854052 2.682888 0.329793 -0.235895 1.255951
一种带有稳压电源的电脑支架	-1.272748 -1.094111 0.065515 -2.812487 0.272762 0.594670 0.108510 -0.699286 0.965296 -0.773624 1.063747 -0.562912 0.820491 -0.274204 0.640577 1.018067 0.258500 1.802168 -2.188778 -1.795264 -1.562330 0.355859 0.015482 -0.537592 0.448764 0.624787 -0.123426 0.373104 -2.603068 1.376136 1.095634 -0.800023
一种高通用性的心电数据压缩感知系统、终端和存储介质	-1.418284 0.129349 -1.133660 -0.131027 -0.416659 2.166839 -1.321722 2.086341 -0.623168 -0.265210 0.717971 -0.172351 0.650109 0.004959 1.216912 -0.073643 -1.073341 -0.356508 1.993913 -2.000248 -2.312474 0.365867 -0.500912 -0.358216 2.039701 -0.178686 -0.103219 -1.045032 1.254896 -2.097737 -0.141018 -0.889395
一种心电信号数据的分类方法和装置	0.051650 1.664808 -0.640130 -1.186963 -0.865832 0.738744 -1.714597 -0.094920 1.813920 0.273758 -0.409326 0.636550 -0.291750 -0.526517 0.396584 1.241047 0.965595 0.413345 -0.240268 -1.092144 -1.858387 -0.294827 0.243979 1.187698 0.968006 -1.803005 -0.645355 1.381644 -1.713810 -0.270593 -0.619880 0.295534
酚类衍生物及其制备方法、用途	-0.685174 -1.274437 0.493901 -1.956761 -2.237256 -1.410968 -1.639388 2.239214 0.225447 1.562447 1.239108 -1.986475 0.590213 -3.769702 2.731671 -0.691930 -2.242848 -0.194131 -2.500302 -1.614839 -1.042178 0.803302 0.539210 1.045398 -2.509037 -3.098922 -0.812888 1.520274 2.107822 1.859451 1.910725 1.549571
一种基于心跳间期的睡眠呼吸暂停自动检测方法及装置	0.308350 -0.789385 -0.182323 -0.896977 1.437906 -0.875658 0.051296 0.169851 0.571996 0.260182 0.846159 -0.263886 1.324006 -0.420038 1.371322 0.898391 -0.506580 0.850442 2.121120 0.886913 -0.993590 -0.350974 -0.133049 -0.205343 -1.819018 -0.183629 -0.012324 -0.478541 -0.090783 0.941872 1.166716 0.458609
润滑油组合物、和润滑油组合物的使用方法	-1.252582 -0.802237 1.379447 -2.281341 0.475262 -2.931675 -0.153276 -0.286518 0.961891 1.727931 1.057864 -2.463220 -1.693613 -1.029712 1.188753 -0.147952 -3.697090 0.325817 -3.996348 0.073587 -0.040244 2.076120 -1.182375 0.470082 -0.878710 -3.197604 -2.241517 -0.629221 3.191696 0.135777 -0.043818 0.227491
一种结合希尔伯特曲线和集成学习的心电磁信号分类方法	-0.314699 0.990138 0.394407 1.101718 0.308773 1.654681 0.393985 -0.701954 1.498846 -0.938381 -0.538906 0.780235 1.983254 0.413177 0.016966 1.979590 0.610143 0.859603 1.539585 2.190816 0.705154 1.424642 -1.895434 0.191637 0.418061 0.805164 -0.802034 -0.899748 -1.362230 0.859003 1.154913 0.302450
一种双电源电压跨导校准低功耗的低噪声放大器	-2.369835 -0.275936 1.005246 -1.663734 -0.065361 -0.658824 -1.873820 -2.104408 0.304773 1.002241 0.813496 0.714801 1.064665 -0.323161 -0.246395 0.131807 -0.495546 -0.383695 1.558899 -1.566222 -0.050849 -1.721249 -0.041644 1.586498 -1.294568 -2.389856 0.478178 -0.274641 -0.704443 0.138040 0.307789 0.291971
一种动态心电图数据分析方法	-1.008611 2.334175 -0.770788 0.588015 -0.412881 -0.520070 0.151692 0.599314 -0.437464 0.261065 0.326099 0.703295 0.737416 -0.426988 -1.917606 1.025830 -0.224330 0.028670 0.712226 -1.300115 0.188280 0.209636 0.213897 0.258637 0.803429 -0.801316 -0.035326 -2.026605 -0.710325 0.748236 -1.007155 -0.110531
基于多模型集成的心电信号危急值的预测方法及装置	1.059529 1.075289 0.068634 1.910127 -0.718717 -1.436342 0.180373 0.304414 -2.232909 -0.013728 -0.657407 1.390794 0.045653 0.840311 -1.743396 0.399923 -0.010535 -1.034138 -0.183366 1.414076 1.669666 -1.352638 1.015091 -0.328268 0.014646 -1.814823 0.034014 -0.192487 -0.213532 -2.711134 -2.794112 -0.687737
一种基于多模态注意力融合的高血压老年人活动分析方法	0.489838 -0.989740 -1.000778 -1.295535 -0.374442 -0.506689 -2.298505 -0.501057 1.768654 1.025219 -0.796641 0.538507 -1.038110 -0.704691 0.373917 -0.210167 0.086547 0.889406 0.457893 -2.241148 -1.014182 0.714209 0.325666 0.979786 -0.315210 -1.518840 -0.695855 -0.294024 -1.236818 0.464843 1.196078 0.034812
一种酯类化合物及其制备方法、用途	-2.777155 0.186971 -1.492752 2.235910 2.703351 0.465530 -1.501309 0.027707 2.781043 4.811135 1.627571 -2.170857 0.063228 -4.920205 2.823459 -2.738024 -1.401568 -0.180184 0.515297 -2.895697 -2.932981 1.857773 0.468983 2.860436 -1.128488 -1.946924 -1.683771 2.011104 -3.753017 2.897863 1.262589 1.206064
一种清水混凝土用改性油性脱模剂及其制备方法	0.711463 -0.579277 -1.795024 -1.264240 -0.295483 1.050176 1.361002 2.295266 0.477399 1.749983 0.462931 -2.151049 -1.032289 1.804501 0.884953 -2.005791 -0.195666 -0.947672 -0.991484 -1.629810 -1.024400 -1.396063 0.276981 0.043168 0.162303 -0.268586 1.159316 0.778453 -0.877234 0.151848 1.921996 0.500069
高氧化稳定性的气缸润滑油组合物	0.054502 0.637453 1.603860 0.392266 -0.006057 -1.489538 0.635686 0.904826 1.498196 3.295735 -1.218004 -2.316439 -0.531290 0.102844 -0.884095 -0.923292 -2.406661 -0.455076 -0.503483 0.252044 -0.648087 0.823362 1.239094 0.882688 -0.637743 -0.897426 -0.466646 -0.198369 -0.558763 1.624192 0.462488 0.949151
超低温重负荷车辆齿轮油组合物	-1.583691 2.640105 0.320909 -0.137665 -1.860698 2.597452 -0.521916 1.264735 1.190174 2.838301 -0.861962 -1.433238 2.078470 -0.509688 -1.047355 -0.535307 -1.134392 -1.628014 -2.106391 -0.299781 0.954868 3.038475 -0.147488 1.491911 -1.360772 -1.654142 -2.753950 1.770525 0.755116 1.042469 -0.495854 0.389174
一种包含共模反馈电路的低噪声全差分放大器	-0.124989 0.900158 -2.324069 0.491652 2.313972 -1.273719 -0.533487 -0.428547 0.437053 -0.041030 -1.665271 -1.485060 -1.279422 -0.704632 -0.967538 1.005520 1.523090 -1.576507 0.420553 -1.537964 1.321367 0.347679 -0.286957 -2.581918 -1.042911 -1.700543 2.376996 -2.927792 1.477870 1.592478 -0.563553 -1.281431
一种零间隙无级变速器用牵引油	-1.960807 -1.033799 -0.033315 1.180617 0.552003 0.908712 -2.218892 -1.101411 -0.258381 2.657655 -2.706339 -1.120940 0.202458 -2.030281 -1.068469 -0.956690 -1.050329 -1.162698 0.920189 1.964493 1.827217 1.650450 -0.069751 1.108646 -0.466620 -2.260043 -0.632411 0.447598 1.465988 1.255593 -0.402846 1.190597
一种心电数据处理方法及装置	0.824132 0.423641 -0.743871 -1.231265 -0.530445 -2.319266 -0.153777 0.448847 0.493846 -1.284010 -0.710868 -0.966711 2.160181 1.356620 1.293441 -0.144112 -0.554281 2.063637 0.158841 -0.479100 -0.457496 -0.942390 -1.488983 -0.448085 -0.876604 -1.820454 -0.501177 -1.117527 0.228539 -1.188881 0.890271 1.356275
存储介质的供电系统及方法	2.432033 1.880882 2.988473 2.146069 -2.405651 0.987523 3.345011 -0.176036 -0.343370 -1.509573 -0.655873 1.819068 -0.494613 -0.600993 -2.152804 -0.272016 0.161006 -0.167348 1.288479 2.975653 2.810043 2.550740 -1.669250 1.496045 1.338575 2.041952 0.005613 0.768757 2.482844 0.234863 -3.467090 -0.437878
一种润滑油及其制备方法	-2.394408 1.633510 -0.904537 -2.397972 -3.187750 -0.755666 -0.912340 2.205642 -3.737844 1.612482 -0.409492 -0.030967 -1.588308 -0.241043 1.469410 1.697955 -0.154741 0.716675 -5.106533 -3.380851 -0.480858 -1.302585 -0.241470 2.522931 -3.605472 -0.754691 -0.656351 -1.763617 -3.663029 6.197136 -1.449398 -0.103331
掉电保护方法、装置、电源监控组件以及服务器	-0.058049 -0.366956 0.469279 -0.470820 -0.549134 0.129910 -1.513573 0.186254 0.911721 0.254563 -0.507982 0.193436 -0.040870 0.294086 0.686272 0.898285 0.269642 0.480694 0.991663 -0.327949 -0.105576 -0.747522 -0.385815 0.422220 0.584940 0.150567 0.089913 -1.297649 -0.068077 0.340654 -0.622311 0.602050
一种GPU服务器的电源冗余控制系统、方法及介质	-0.129806 -1.003769 0.553109 -1.024393 1.127175 0.624143 -1.334808 -1.009713 1.662706 0.630896 0.574840 1.140093 0.479788 -1.937459 -0.620589 1.008719 0.014140 -0.054248 0.348225 -1.660545 0.960561 0.270345 -0.892637 -0.740355 -0.172611 0.271457 -0.614721 0.573807 -0.270691 0.227923 1.227242 -1.141998
一种基于多元递归网络的心脏疾病识别方法	-0.295797 -1.383830 0.084597 0.578428 -0.695159 -0.300569 -0.397751 -1.061757 0.041594 1.539758 0.680290 0.328878 0.170955 -1.011983 -1.092858 0.804840 1.281561 -0.247193 0.589788 -1.110900 -0.277072 0.772253 0.405547 0.247954 0.474323 0.086187 -0.156315 0.397947 0.690549 -0.542625 0.906831 -0.516482
一种供电电源和服务器	0.421869 0.117784 0.671470 -0.181170 0.484061 -0.271108 -0.966257 -0.701481 2.230221 -0.869231 -2.672652 1.275903 -0.202560 -2.056487 0.476698 1.191237 0.099492 0.181773 -0.590052 0.636512 2.209929 0.696660 -0.333271 -0.604608 -0.271076 1.167213 0.520488 0.732098 3.678788 -0.655960 0.119806 0.248048
重构心源性猝死风险因子的系统及方法	-1.070257 -1.930324 1.757609 0.124877 1.163582 -0.127097 -0.755802 -0.803576 -0.435505 1.259544 1.712759 -1.771396 0.797595 1.585586 -1.243428 0.067972 -0.759731 -2.488502 -0.256478 -0.249635 0.519746 1.060785 -2.201993 -1.793371 0.853113 -0.760540 -0.981079 -2.632024 -1.009207 0.688846 0.019949 0.153898
一种基于Kernel-CNN的心电信号识别分类方法	-0.580992 0.921645 -0.924535 0.810166 0.254282 1.566890 -0.387025 -0.627643 0.783447 0.223169 -0.506566 -0.538763 -0.636184 1.164050 -1.762086 0.556642 -0.721340 -1.127820 1.740280 1.132184 1.599753 0.010393 0.806037 1.005131 -0.652281 0.093229 0.485880 0.143828 -1.159197 -0.624452 0.618185 0.275508
一种基于旁路模式的低噪声放大器电路	0.269324 0.999216 -0.601231 1.807780 0.347189 0.460611 -0.364420 -0.632784 0.382194 1.275441 -2.150836 -1.391558 -0.600316 -1.694465 -0.979847 1.150635 -0.526757 -1.243099 -0.024080 -0.015894 -1.765393 0.200867 -0.876753 0.990769 -0.299226 -0.177625 -0.352904 -0.922578 -0.182599 1.739899 -0.016380 0.424409
运算放大器	0.792409 -1.121108 -1.181910 -1.665044 -0.297334 0.351068 -1.712177 -0.775274 -0.490385 -0.942097 0.441133 -0.373088 -1.301110 -1.607628 4.143354 1.544291 2.907177 0.158754 -1.291603 0.955545 1.773828 -2.365402 1.539793 0.400853 -1.599460 -1.754079 1.528711 1.211138 1.780863 2.513653 -0.696300 -0.204666
一种心搏组合特征散点图生成方法、终端设备及存储介质	0.463730 1.181819 -0.659567 0.472313 0.675038 -0.866316 1.247106 0.273261 -0.404261 -0.587677 0.365044 -0.176324 1.102829 0.413304 -0.000102 -0.239243 0.112576 0.223359 0.641820 0.059014 -0.340121 0.208278 -0.199300 -0.489627 0.028297 -0.744515 -0.415159 -0.707711 -0.057828 -0.693157 -0.222361 0.267919
基于CNN神经网络的急性心肌梗死定性自动判别系统	-0.335293 0.940308 0.819416 -0.294839 -0.601949 0.904594 1.392938 0.360582 -0.094554 1.274710 0.314037 0.807278 0.003917 0.205804 0.693200 -0.426845 -2.569999 0.010076 0.166573 -0.446120 -0.623525 -1.669429 -0.223513 0.353236 -0.707989 -0.034454 -0.383129 0.440168 -1.643162 -1.400044 -2.032544 0.241929
一种应用于包络跟踪电源调制器的降频采样与控制电路	-2.274644 0.581978 -1.498713 0.632682 -1.827839 -1.107693 -1.507307 0.140978 -0.936638 -1.644912 0.359351 0.504127 1.355939 -1.857332 2.348875 1.801067 -0.454514 1.448889 1.010750 -0.012541 -0.426307 -2.462500 0.488600 -0.744511 -1.452261 2.436743 0.859361 -1.325601 2.451596 0.685912 -1.227289 -1.814734
一种空气压缩机油组合物及其制备方法	-2.105107 1.806581 0.314974 0.178293 -1.574487 -0.079113 -0.205873 0.074542 0.423143 2.107547 -0.140091 -1.158976 -0.413368 -1.888515 1.589027 0.185340 -2.427988 0.548259 -0.935936 -1.464873 0.807182 0.288469 0.712618 2.196002 -0.715626 -0.943393 -0.309437 -0.173879 -0.224366 2.045562 0.445027 1.563418
一种基于物联网的建筑结构应变无线监测系统	0.462701 -0.179700 -0.213141 -0.510508 -0.078024 0.240510 -0.535163 0.090340 -0.281866 0.256106 -0.579470 -0.313203 0.525201 -0.592365 -0.165286 -0.067927 -0.021390 0.015717 0.094655 0.369701 -0.129255 -0.389906 -0.017892 -0.176548 -0.340101 -0.581867 -0.313135 0.068613 0.187897 0.840368 -0.314424 -0.216368
一种服务器对外供电符合受限制电源的系统	0.328305 0.772955 -0.899218 -0.063156 0.176993 0.538788 1.103251 0.001804 -2.187660 -2.847043 0.406288 2.462093 0.701128 -0.057506 2.108830 0.686508 2.204546 0.881662 0.300528 -1.774487 -0.386871 -1.987938 -2.824706 0.917125 2.043868 -0.964100 -0.835645 0.378104 -0.566769 -1.921484 -1.457603 -0.758783
一种工业齿轮箱清洗油组合物	-0.626453 -0.864943 0.214319 0.006149 1.701840 1.922959 -0.142551 -0.291842 0.034928 0.135469 0.431228 -1.162771 0.326151 0.312350 0.272560 -2.351927 -2.499985 -0.486745 -0.883693 -0.239165 1.803118 4.896255 -1.682218 -0.262396 0.143955 -0.273885 -0.824715 0.376528 2.184659 -1.522746 1.618942 0.039530
一种基于多通道动态监测的呼吸指数提取系统及工作方法	-0.254460 -0.219837 4.461686 -0.606336 -1.758367 0.351149 1.378520 2.191694 -2.749611 0.620352 -0.942962 -0.041781 1.338489 -0.234959 -1.163301 -0.395549 -0.083059 1.264467 -1.581717 -1.290141 0.187210 -0.608311 0.916331 -1.213254 0.423101 -1.324848 -1.892915 0.989048 -1.043126 0.932668 1.693362 -0.742929
一种面向LNA提升增益且降噪的电路	-0.353166 -0.810308 -0.483861 -1.453711 0.497482 0.560919 -0.898645 -0.890924 1.173814 0.901634 -0.927512 -0.705361 0.761183 0.331408 1.208801 -0.869531 -0.341208 -0.682042 0.105369 -0.901955 0.110099 -0.539131 -0.199282 0.723680 -0.223985 -1.100461 0.425450 0.054715 -0.492315 0.074919 1.633800 0.338924
一种润滑油组合物及其应用	-0.620226 -1.184119 1.146854 -0.146967 0.083725 -0.839173 -1.221224 1.499730 -0.044878 0.483842 -0.864061 -2.215499 0.200276 -1.289901 -0.045454 -0.360005 -0.222659 1.341726 -3.262394 -1.313358 -0.967442 2.240009 -1.010009 0.727710 -0.248512 -1.620207 0.993054 1.360632 3.362981 1.228951 1.201854 0.339515
一种钙基润滑脂及其制备方法	-1.716876 2.155766 -1.509448 0.231638 -0.013602 0.207530 -0.880423 2.707199 0.133625 0.555113 1.230102 -3.190948 2.119690 0.655203 -0.111043 -0.477891 -1.819085 -1.085039 -1.476168 0.675005 -0.935706 2.909373 0.514534 1.728361 -3.026668 -2.095706 -0.420342 1.210462 0.127177 0.540847 1.828017 0.689552
一种基于图总变分约束的无创心脏电生理反演方法	-0.011907 0.529438 0.338078 -1.314302 -1.119090 0.955650 0.779676 -0.487594 -0.071071 0.882996 0.119527 0.952673 -0.014372 -0.202014 -0.873181 0.024963 0.179646 -0.044923 -0.660300 -1.904086 -1.327736 0.642604 0.901349 0.351121 0.517997 -0.487253 -0.518898 0.225586 -1.118505 0.951641 0.085620 -0.223293
一种基于贝叶斯先验概率的心率融合标注方法及其系统	-0.012323 0.129948 -0.875613 0.149379 -0.078042 0.904701 -0.622659 -0.147712 0.001958 1.992015 0.504354 1.108511 0.316588 0.748125 -0.122384 -0.307057 0.856884 0.933767 1.467942 -0.312399 -1.414334 0.270818 0.349556 -0.319092 0.221715 0.517523 -1.168824 -0.901016 -0.170003 0.544103 0.046568 -0.459167
一种环保无钡型薄层防锈油及其制备方法和应用	0.318540 1.992301 1.246619 -0.516124 -0.346935 -0.966410 2.970411 1.770152 -1.586300 1.086710 -1.716919 -0.505104 -0.872629 -1.304009 0.753485 -2.493888 -3.812141 -3.487221 -0.475372 2.742857 -1.034414 -1.168540 -0.743324 -0.845636 1.980446 1.365544 1.294698 -1.327936 0.365684 0.011032 -1.643537 1.598815
一种宽带、高线性度射频低噪声放大器	-1.168017 -0.369967 -1.209348 -0.193714 -0.468946 -0.629364 -0.927743 0.050355 0.306590 0.325931 2.154551 0.379069 0.033766 -0.111921 2.934258 -1.020588 1.298938 2.184564 -0.544065 -0.420160 -2.064782 -0.689682 0.553238 -0.024603 -1.090993 -1.351532 0.302486 0.890868 0.422791 1.341932 0.699779 -0.412817
透平油以及透平油的使用方法	1.504074 0.367474 -1.430458 0.321523 0.649816 -1.462624 1.058766 0.889492 -5.294035 0.820563 0.567852 -1.485714 -0.002765 -1.192676 2.233615 -1.221940 -0.883135 -1.102569 0.965436 1.234125 -0.805692 0.473271 0.520789 1.735176 -1.531321 -3.870637 -0.903098 -0.179040 1.776853 0.747418 -0.176125 -0.092412
离子液体组合物及其制备方法	-0.786563 0.156898 -0.862545 0.371482 0.414988 -0.162697 0.469892 0.877948 -0.792486 0.359223 -0.245354 -0.928182 0.018006 -0.285098 1.278557 -1.478860 -1.106308 1.530023 -0.144979 0.670052 -0.055356 -1.388841 -0.588049 0.813529 -0.441217 -1.163200 0.308183 -0.579085 -1.205912 0.101749 0.181404 0.563193
基于心脏标测激动序列图的房颤分析预测方法	-0.387359 0.016640 0.299491 0.476998 0.446396 0.075259 -0.924406 -0.105679 -0.131515 1.552384 0.461662 -0.840938 -1.078177 -0.357266 -1.072130 -0.026614 0.055127 -0.839090 1.490517 -1.612333 -0.316457 -0.236171 1.180620 0.247528 -0.329787 -1.351022 -0.098368 -0.022624 0.181111 -0.335676 0.006936 -0.048079
一种血压分类方法和装置	-0.315828 -1.701337 0.679731 -0.409349 -1.388359 -0.065919 0.176216 1.550700 -1.298169 1.001321 0.782379 -0.745839 -0.109798 0.411554 -0.988869 -0.577129 0.462910 1.144607 -0.223286 -0.855176 -0.980546 0.843167 1.060704 -0.432053 0.954123 0.345365 -0.370544 0.594179 -0.222021 0.481165 1.237010 0.010444
计算机系统及电源管理方法	-0.733764 0.345924 -2.031021 0.634035 0.533047 -0.266154 -0.972192 0.238186 -2.610290 -0.596113 -1.092845 0.362849 2.664047 -0.713111 -2.319018 -0.271428 1.437210 -2.740398 0.663075 -0.608336 -0.284618 -2.740206 -0.242277 1.265086 -1.646137 -0.493802 -0.513506 -0.680002 0.772255 4.749730 -1.765582 -0.222825
一种用于天然气泄漏激光检测系统的多源噪声抑制电路	1.480263 0.344872 1.590453 0.226586 0.366287 0.393879 -0.809073 -1.922558 2.696985 0.561947 -0.233937 0.206840 -1.429171 0.483001 -0.430248 0.575206 -0.449470 -0.248277 -0.899485 1.493785 0.622813 0.315570 -3.035840 0.911475 0.661680 -0.756683 -0.218847 0.875837 -0.225440 0.057536 0.553581 0.890927
X波段400W功放	0.812705 -4.011096 0.248280 -1.420800 -2.023761 -1.300681 -1.267389 0.541919 -1.956777 -1.927575 -0.334479 -2.224554 -0.329492 -1.495623 2.481843 -1.957120 -0.448276 -0.184884 -3.110842 -2.454811 -0.404676 -2.846376 0.923188 -1.064765 -1.372937 -0.989124 2.482790 0.424921 0.420204 2.219740 0.569916 0.084735
一种螺杆压缩机油及其制备方法	-0.403432 -0.906124 0.497801 -0.725504 1.405978 0.126949 0.351107 0.714146 -0.194900 1.312913 -1.090837 -1.807714 -0.945217 -2.147007 2.490556 -1.999530 0.007452 1.224886 -0.948173 -0.406103 -0.715206 1.147382 0.714311 -0.179507 -1.084262 -2.888640 0.400337 1.752259 0.443676 1.008076 2.352793 -0.547379
一种基于单导联的心电信号自动分类方法	1.094441 1.231847 -1.841551 -0.418505 -0.162109 -3.210147 2.259140 0.087714 0.332043 1.612546 0.305857 2.091550 -2.916523 0.278742 0.562339 -1.653615 -2.276417 -0.372796 1.812421 0.741903 -0.244766 -0.532170 0.886625 -0.125211 1.485787 1.649333 -0.514040 -1.646230 -1.656194 -0.550278 -0.353838 0.710457
心电信号实时分类方法、装置及可读存储介质	-0.199974 0.790664 -0.649236 -0.130868 0.506396 0.719031 -0.922507 -0.312594 -0.003214 -0.896313 0.749774 -0.160332 0.298300 0.505790 -1.059691 0.259078 -0.039488 0.604515 0.426548 0.702303 0.193598 1.922507 -1.839994 -0.434221 0.840577 -0.867466 -1.033626 -1.355712 0.329924 -1.319474 0.097102 0.429481
基于改进EMD与阈值法融合的心电信号去噪方法	-1.370155 -0.343644 -0.089415 0.066511 0.303479 -1.494107 0.428640 -0.533324 2.174480 2.371093 0.726133 1.482847 1.825323 -0.540460 -2.064569 -0.534836 -2.148670 -0.409574 0.658769 0.398391 -0.755999 0.134547 0.302553 2.596232 -0.905861 -0.251458 -0.016061 0.351615 -1.628936 2.539391 1.349588 -1.118013
射频接收系统和输出三阶交调点OIP3校准方法	0.553738 -0.518473 1.984561 -2.499762 0.698078 -0.592320 -0.663834 0.024474 1.867658 0.029493 -0.039646 0.372099 -1.223187 -0.070280 0.745335 0.552627 -0.163528 1.054552 -1.790798 -0.484927 -0.796141 -2.726319 -1.105243 0.509991 0.083313 0.444186 -0.114680 0.003474 0.442879 0.052404 0.697872 -0.187039
润滑剂及其制备方法，以及降低流体粘度的方法	-1.596403 -0.630410 -0.012177 1.042392 1.025064 0.540787 -0.344018 -0.260167 -0.730257 -0.195943 -1.278451 -0.842573 1.071473 -2.582916 0.953473 0.971172 -0.444596 0.442298 -0.912637 -0.393589 1.476294 0.486250 -0.312901 0.951981 -0.065586 -1.269919 -0.784795 0.667647 0.930089 0.772971 -0.167154 0.091246
一种光电微电子信号补偿设备	0.427735 1.163229 0.026640 -1.105270 -2.549160 -1.539892 -2.483630 1.889280 -4.085806 -4.356161 -0.866197 -0.367055 -1.074634 -0.693701 3.920891 0.409261 0.791902 -0.573735 2.223629 0.128393 -1.449895 -4.753148 2.484019 -0.669396 1.432889 0.924189 4.266227 -0.787622 -0.579425 -0.388948 -5.493920 -0.532965
一种待刷新设备的供电电路及服务器	-0.037701 1.270904 -0.014180 -0.919121 1.291937 0.237559 0.267625 -1.245213 1.104753 -0.433064 0.616799 0.235911 -0.215596 -0.189406 1.214684 1.437753 1.104735 0.054347 0.254684 -0.765228 1.014258 0.017488 -0.419617 -0.167854 -0.531416 0.022671 0.540136 -1.807695 2.871462 0.505399 0.453750 -0.212337
一种5G通信抗失配宽带低噪声放大器	-1.224385 0.308288 2.023296 2.292002 1.578741 1.362782 0.566281 -0.283529 0.766769 0.147090 0.755905 0.645905 -0.031700 0.472704 -1.836223 -0.861630 0.474344 0.235863 0.749895 1.848946 0.811006 -1.201711 -1.460307 0.532456 -0.051778 -0.249444 0.375733 0.062413 0.852869 1.823301 0.894691 0.018121
高效大功率隔离调光信号放大电路	0.322351 -2.227489 2.753130 0.382158 -0.493562 1.573807 0.329518 2.080344 -1.722452 -2.469641 1.130315 0.091675 -1.125240 0.812259 0.777185 -0.023813 1.041838 0.842154 -0.483827 -0.412512 1.831796 -0.442639 0.406526 -0.172095 -0.378246 1.129100 0.722158 4.042433 0.620409 -0.880698 1.507117 -2.475067
一种应用于生物电势处理的自反馈低噪声放大器	0.143481 -1.322632 -2.424966 0.124082 0.583834 -0.615062 0.655567 -0.569608 0.452971 1.534528 -0.838188 1.369756 0.104213 -1.186944 0.463398 2.346074 -0.866319 0.007600 0.888338 -0.047116 0.223896 -0.038954 -0.855468 -1.253864 1.772396 -0.988178 -0.840576 0.062594 -0.464584 -0.455863 -0.081663 0.634703
基于高频心电的心脏交感活性检测装置	0.515016 0.637947 0.062520 0.326944 -0.017602 -0.084187 -0.706811 0.258995 0.133002 1.706875 -0.073859 0.367130 -0.279305 0.061049 -0.176988 0.150538 -0.820694 -0.263449 0.803748 1.325169 0.202643 0.353201 0.726535 0.593076 -0.045027 -0.897884 -0.917863 -0.687391 -0.858806 1.448644 -0.530229 0.276270
一种多频段信号放大器	-0.027253 1.496476 -0.851586 1.053761 0.874151 -1.201496 -0.332401 3.159545 -3.508994 -2.943386 1.468071 -1.857196 -1.589266 2.298308 3.078282 -1.591872 1.312245 3.285741 2.063458 0.003867 -3.636032 -5.105896 -0.268021 0.399530 -1.293926 -2.274867 2.093159 -0.527424 1.297076 -1.013041 -1.598983 -0.044113
一种高效加工长寿命高清高压液压油的装置及方法	-1.023261 -2.294610 1.759632 0.795151 -2.829630 -1.532330 -2.645636 2.501886 2.607453 -0.989422 1.264952 -3.656245 -2.369500 2.638863 2.059976 2.577899 -2.596965 2.992075 -4.903571 -0.282587 -1.112103 -2.651652 3.282364 -0.869868 -2.198832 -1.054361 -0.063229 -0.618584 -0.529837 2.840210 -1.262009 -2.641907
一种面向心电数据的数据处理系统	-0.249504 1.330962 -0.890982 -0.225771 -0.741734 -0.162015 -0.035797 0.107184 -0.192692 -0.270061 1.285807 1.018318 -0.472270 -0.093193 1.228401 -0.323122 1.091771 0.779437 0.900681 -1.398708 -1.536412 -0.954061 -0.533156 0.761520 1.074118 -0.531914 -0.442921 0.652091 -1.169778 -0.854722 -0.592437 -0.075048
一种抗微点蚀风电齿轮油及其制备方法	-0.194367 1.321493 -2.302344 -0.566147 -1.698668 -1.258175 -0.044420 1.422892 1.134990 0.791650 -1.082078 -1.335649 -0.544488 -0.926214 3.168659 -0.063212 -1.271201 1.183003 -0.331704 0.181431 -0.267986 -0.026849 -0.109881 0.612338 -0.815035 -1.384257 0.031235 0.245949 0.561598 -0.038184 -0.292770 1.344622
心肌病的辅助诊断设备、装置和计算机可读存储介质	0.196168 -1.048612 -0.591487 -1.562253 -0.423407 0.161871 0.263601 1.687023 -1.005596 -0.147615 3.069500 -0.292746 -0.307118 0.437593 0.915393 -0.331119 -0.117848 1.904379 -1.998080 -0.639642 -1.094643 -2.510075 -0.492248 0.600352 -0.921301 -1.159467 -0.727849 0.368677 -1.584055 2.081215 0.160189 -0.876504
一种车用低温举升油及其制备方法	-1.561994 2.437111 -2.116704 -0.348992 -0.992758 -2.102662 0.248941 1.712588 -1.088836 1.309252 -1.614751 -0.889910 -0.243333 0.191935 1.867765 -1.986962 -0.572573 0.861086 0.620348 -1.279349 0.627716 1.516310 0.059456 -0.107475 1.233927 -2.545998 -0.562511 0.360708 1.186489 -0.994532 0.812853 0.608304
一种数据处理方法、装置及计算机存储介质和电子设备	-1.539577 -0.916631 -0.266247 -0.451616 -0.288506 0.104860 -1.377170 0.763238 -1.675904 -1.253858 1.278940 -0.713852 0.069834 0.548258 0.408837 -1.026511 -0.364870 0.177801 -0.721444 -2.238896 0.175190 -0.909681 0.715693 0.775089 -2.027051 -0.119002 0.613322 -0.441422 1.971819 1.918620 0.256594 -0.724945
一种自适应可变增益延时放大器	-0.285644 -2.751417 0.631365 -3.272891 0.001054 -1.154085 -1.031674 -0.130707 -0.151326 0.643793 1.304488 -0.144034 -0.357004 -1.128256 3.024909 0.077460 0.478213 1.583021 -1.239481 -1.084020 -0.090463 -1.107062 -0.907385 0.185474 -0.554926 2.101641 -0.501307 0.310117 0.128831 2.560371 0.249048 -0.746738
一种NVDIMM兼容超级电容的方法及装置	0.830926 0.774080 0.290475 -0.409903 -1.140092 -0.199157 0.374633 0.599018 -1.005014 -1.280577 0.823188 0.739310 -0.639697 0.187204 1.146994 -0.279995 1.913988 0.881739 -0.162353 -0.817485 -0.726370 -0.881543 -0.749473 -0.952730 0.368023 -0.431185 0.156812 1.116553 0.737714 -0.930798 -0.166512 -0.847252
供电方法和供电系统	0.012938 -0.742523 1.213714 1.785016 0.211451 0.193645 -0.053608 0.737997 0.412983 -0.972917 2.312279 1.828524 -0.645675 1.066914 0.237102 0.635526 -0.287709 -2.859496 -0.161740 -0.086330 1.336222 -0.992633 0.709572 -0.000348 -1.518593 0.378125 3.068815 -0.669122 0.145810 0.072425 -0.478546 1.249308
一种实时评估室颤信号质量和除颤成功率的方法与仪器	-0.616481 1.045594 -0.782463 1.035556 2.000679 0.986529 0.210002 0.133004 0.698758 1.992934 -0.117556 -0.646576 0.687080 -0.434969 0.307522 -0.470593 -0.793837 1.602631 1.019442 0.490950 -0.247323 -0.313207 -0.093404 1.128313 0.369859 -0.629208 0.540686 -2.291425 -1.472742 2.199331 1.211040 1.102593
控制电路及操作系统	2.158949 0.068157 -4.633830 -2.279645 0.146664 2.988432 -2.214298 2.766960 -4.059076 3.137794 -0.272878 -2.146419 1.117587 -1.974398 3.728484 -1.446391 -0.825848 -0.817646 -1.063640 -4.444258 -0.062533 -2.381233 3.300387 1.126183 -3.658700 -0.939716 0.691263 3.282357 2.362823 4.392869 -2.062802 -2.374182
心电图数据的分割处理方法、装置及可读存储介质	1.118754 -0.315698 -0.577212 -0.778940 -1.214290 -1.279202 -0.529653 0.108097 1.317788 0.132687 -1.543457 -0.475240 0.194280 -0.271740 1.311079 -0.021726 0.043067 1.654759 -2.863280 -1.522321 -0.583735 -0.223504 -1.825489 -0.165039 -0.603230 -0.245149 -0.592712 1.279578 1.778296 -0.498836 -0.594131 0.838060
掉电数据保护方法及终端	0.335341 2.644273 0.291910 -5.321213 -0.628172 -1.006041 0.607518 0.742700 3.108941 -0.309293 2.178095 1.152717 -0.174707 0.812484 1.690955 0.453247 -2.128002 0.041550 -0.348743 -3.250714 -5.967930 -3.976226 -0.068255 0.742549 -0.362266 -0.427652 -0.425473 -2.192101 -0.481115 1.607040 -3.133866 -0.141926
一种基于投票集成学习的心电数据智能分类方法	0.148397 2.094434 -0.157917 0.603362 -0.396516 0.151448 -0.537957 0.219568 -1.613388 0.245526 0.978649 0.953155 -1.092880 0.636008 -1.625786 0.177430 1.732289 -0.657363 0.995442 -1.969792 -1.220227 -1.877275 -0.161771 0.448402 0.205635 -0.869186 -0.408964 -0.676720 -0.449836 -0.818902 -0.856643 -0.273919
接收器前端电路及其运作方法	-2.013423 -0.566780 0.850896 -0.196825 -0.372745 -1.919086 -0.753171 0.697684 2.021657 1.879924 1.232097 1.223042 1.727592 -0.509589 -1.368883 2.016058 -2.278904 0.183321 0.273347 1.465945 -0.143094 -2.896242 -0.310410 0.027499 -0.570646 2.328728 -0.673261 -1.199904 -0.959743 0.902799 -0.735999 -0.691757
电源缓启动的控制方法、控制装置、控制设备及存储介质	2.022167 0.245689 0.948206 0.912936 2.234824 -0.763652 -0.219667 -0.566914 0.819744 -0.730296 -0.060841 0.561525 -1.136794 0.511790 -1.448415 0.140126 -0.137157 -0.471144 0.480187 -2.515147 1.013998 1.238914 -0.414631 -2.723772 0.676810 -0.799746 0.260516 -1.843153 0.931734 1.367948 1.382114 0.190529
一种室性并行心律快速识别的方法以及装置	0.124536 2.642579 -1.003706 0.340163 -1.320552 -0.725988 0.584339 0.754572 -0.168611 -1.061985 0.983419 0.884128 -0.956740 1.017869 -0.992969 2.126612 1.061209 0.108469 2.064318 -1.171804 -1.095414 0.024773 -0.195974 -0.052963 -0.041695 0.375190 -0.055078 -0.536143 -1.401326 1.145605 -1.060712 -0.173460
心电图数据处理方法、装置、电子设备及计算机可读介质	-0.905374 -0.065581 -1.153575 -0.757466 -0.357082 0.426285 -1.697718 -0.164087 0.870012 0.975626 0.766748 1.103928 1.019940 -1.116500 0.138917 1.091160 -0.339483 0.721728 -0.127389 -2.202599 -2.694036 2.185240 0.316375 1.116093 -1.069425 -0.814183 -0.522782 -1.796522 -1.238351 2.408683 0.984784 -1.459764
一种高灵敏度超宽带超级跨阻放大器	-0.777066 0.654442 -1.452410 0.742433 -0.528773 0.932509 0.185639 -1.082928 -0.142882 0.485316 1.348323 0.307643 -0.979669 -0.168838 -0.556701 0.984116 0.312516 -0.841081 1.147909 -1.146355 -0.484401 0.137689 -0.158152 0.151530 -0.095174 0.808052 -0.542041 0.170040 -1.163440 -0.311221 0.054568 0.012009
一种变速箱油及其制备方法和应用	-1.981819 -0.030941 -2.167907 -1.439312 -0.413884 -1.269328 1.950097 1.378605 2.279156 2.263995 -0.733414 -1.555964 1.150802 0.217463 0.417889 -0.744165 -1.524957 1.264508 -3.396774 0.216331 -0.508776 0.644483 0.074081 0.639452 -0.528667 0.112797 -1.450449 1.184684 -2.007275 -0.259629 -0.401960 -0.972274
一种柴油机油组合物及其制备方法	-2.794843 -0.304793 2.754677 -0.439275 -0.838180 -0.381300 0.446972 0.847090 -1.628048 -0.933772 -1.561904 -3.991915 -0.539352 -1.537042 2.000832 -3.241551 -1.415144 -1.212244 -3.862905 1.534763 -0.095259 3.916995 0.046593 0.369541 -1.209679 -2.577630 -1.714167 -0.157717 0.718710 0.008217 0.551478 2.907360
一种双酯基础油及其制备方法	-1.193391 -0.495201 -1.920295 1.439217 2.066981 -1.333501 0.227822 0.276487 2.115896 3.316109 -0.457819 -3.105877 1.248264 -1.625035 0.404937 -1.187114 -0.651908 -0.781173 -0.963764 1.933769 1.019007 2.629199 0.487612 1.409495 -4.555186 -1.019551 -0.842505 0.362147 -0.038852 2.691387 0.506267 0.091968
基于低秩与稀疏约束和非局部全变分的无创心脏电位重建方法	0.935304 1.139936 -0.565732 1.059984 0.339670 1.196459 -0.191167 -1.166211 -1.171125 0.742980 -1.357661 0.343114 1.581964 -0.458588 -1.216865 0.739108 0.885479 0.474996 -0.162107 -0.004850 -0.229204 1.396447 1.034428 0.637681 -1.171873 -2.281631 -1.320254 -0.308698 -0.713697 0.745818 -0.482873 0.251078
异常生产状态监测方法、装置、电子设备和介质	0.858719 -1.506748 0.812721 -0.156490 1.515146 -1.103515 1.162193 -0.080303 -0.338465 0.288291 1.294621 1.139041 0.525873 0.749957 -1.016626 0.112476 0.692056 -1.144809 -0.038289 0.873994 1.231931 0.694769 -1.766206 -0.498715 -0.672512 -0.490664 -0.058632 -0.052011 -0.325280 0.387128 1.089422 -0.461082
一种结合医疗领域知识的可解释心律失常分类方法	0.536013 -0.521369 -2.018394 1.064937 1.827914 0.148621 0.476193 0.456365 -2.084480 -0.932133 -0.806154 -1.803262 3.353210 0.146113 -3.618263 -0.440243 -0.015323 -1.087288 1.644042 2.410898 0.178162 5.107271 2.420714 0.536801 -2.019118 -0.143467 -0.097389 0.651664 1.057816 -0.962495 3.392350 0.433833
一种不间断电源	-1.147273 0.482723 0.115865 1.351407 1.152391 1.005374 1.000701 -2.866609 -0.015617 1.208863 0.884489 -0.599672 -0.017903 0.469521 1.119147 -1.217285 -1.617463 0.088592 1.810517 1.775117 -0.678829 1.661818 0.921941 -1.877383 -1.210455 -1.926659 0.721233 0.006199 2.269146 1.022660 0.164758 -0.949249
一种低噪声高线性度驱动放大电路	-1.579934 0.364101 -0.502241 0.760844 0.715155 0.354688 -0.661107 -0.775686 1.202697 -0.147805 0.197259 -0.172488 1.703193 0.161198 1.438552 0.612244 0.181389 0.387846 -0.252243 2.193704 0.640894 -0.515436 -2.008099 1.144547 0.469398 1.126724 0.962866 0.062674 -1.573917 -0.304081 -0.548521 0.271837
一种驾驶员疲劳检测装置及工作方法	0.245842 0.905280 -0.577210 0.385954 -0.547678 -0.003456 -0.463256 0.339276 -0.542075 -0.665948 0.101400 -0.447517 0.010806 1.246040 0.454567 -0.746630 -0.613392 0.262824 -0.333385 0.171664 0.171051 -0.708787 0.286885 -0.414063 -0.667989 -0.498361 -0.316027 -0.498000 -0.999252 0.124767 -0.231123 0.381134
一种基于双向连通的心电波形提取方法	0.825151 1.803488 -0.989963 1.682225 -0.004487 0.137963 2.093912 -1.414948 -2.059291 -1.749255 0.166786 0.207367 0.378247 2.568231 -0.498485 -3.149862 0.028719 -0.493942 -3.599296 1.324443 -0.217187 1.656137 -0.330520 -0.248500 1.935500 -2.727118 -0.109945 -0.029664 -0.451507 -1.531739 -0.994009 1.388858
基于深度卷积神经网络的ECG分类系统与方法	0.721116 1.717551 0.434043 1.155064 1.270586 1.315228 1.456382 -0.135420 -1.459780 -1.263902 -0.002173 -0.078360 1.013841 0.386061 -4.518673 1.238263 0.669876 -1.270177 0.067491 -0.655639 -0.044564 1.748919 -0.388378 2.085408 0.340927 -1.154856 -0.626141 -0.796153 1.955709 -1.291306 1.661331 0.324267
一种汽车安全气囊用润滑脂及其制备方法	-0.708602 0.040126 0.071141 -1.687101 0.804361 -1.027891 0.698240 -1.229508 -0.287447 2.543479 0.110735 -1.828926 -0.247789 -1.137968 1.141326 -0.710589 -1.667480 -0.935775 -1.249139 0.212189 0.084157 1.447701 0.454930 0.461393 -0.629348 -0.874889 -0.181376 -0.690837 -0.389116 1.231652 1.150143 0.801141
低噪声放大器和电子设备	-1.504243 -0.301956 -1.634768 0.487117 0.560033 0.442991 0.677123 0.327894 -0.793810 -1.125559 0.428206 0.934843 0.533624 1.705411 -0.218255 0.884891 1.353109 0.382983 0.878294 -1.923181 -1.611586 -0.923936 -1.880643 0.116462 -0.555736 0.793173 1.168792 -1.015122 -1.721066 -0.770293 1.181369 -0.325039
融合源端影响的三心拍多模型综合决策心电特征分类方法	0.285225 -0.797288 0.172225 0.602493 1.126176 0.298380 0.529360 0.618663 0.311556 1.383252 -0.259173 0.389986 -0.575793 -0.680842 1.290320 -0.579745 0.714688 0.959440 0.886009 0.330431 1.146321 1.353594 -0.370007 -0.352924 1.261196 0.787496 0.216067 1.016704 0.639535 -1.273788 0.941373 -0.363134
针对锂离子和混合式电容器的自适应充电电压管理装置	-0.385726 0.177754 -0.570955 0.112238 0.036890 1.445002 0.283422 0.362592 -1.380515 0.758753 0.240131 0.396132 0.632646 0.708100 0.438898 -0.681068 0.126418 -0.868825 1.165091 0.398604 0.556537 -0.515321 0.179506 0.565640 0.739668 -0.348951 -0.386498 -0.747099 0.065031 0.241898 0.093297 0.653910
电源装置、电源电路的控制方法及存储装置	0.523212 -0.623365 1.032392 1.924585 -0.128045 1.276189 1.270241 0.886012 -0.512289 -1.133762 -0.548913 0.871755 0.014948 -1.242321 -2.177222 2.106146 1.203201 0.705043 -0.191188 0.506528 3.285254 2.256568 -0.801246 0.784966 0.819420 -0.436946 -1.536104 0.933092 0.335084 0.049493 0.217679 -0.662248
用于齿轮油的润滑剂组合物	1.152701 0.001603 0.114394 4.278726 0.491126 -1.270913 -0.406804 1.540382 0.682507 1.958093 -1.847901 -2.551558 -1.497858 0.829867 0.840454 -1.780590 0.063494 -1.774773 -1.144899 1.386424 -2.737239 0.047858 2.132156 -0.340725 -1.299807 -1.203248 2.150697 -0.188534 -1.888378 0.165693 -0.907036 0.877423
ECG显示滤波方法、装置及存储介质	0.894246 0.822700 -1.356086 -1.599636 2.381983 -0.744849 1.343698 -0.289464 0.321995 -0.289865 -0.717544 -0.801560 0.245498 -0.009967 -0.688595 0.343266 -2.013263 -1.359773 -1.509580 -2.552695 -1.116186 0.957936 -1.147417 -0.474630 1.101642 -1.760561 -0.295717 0.545616 1.265004 -0.955255 -1.008029 0.879318
一种全合成酯类摩托车油及其制备方法	-1.430487 -0.082582 -2.530476 1.921810 -0.713451 1.870364 -2.700626 -0.853461 -2.393935 1.638850 -0.381806 0.720637 0.481703 -1.595166 1.142018 -1.346152 -0.462872 0.267973 1.948475 -0.220114 0.081133 1.926350 0.413124 0.714020 -0.781649 -0.240044 0.508259 -1.725462 0.928810 0.885668 -1.705940 0.783162
基于改进损失函数的神经网络的心律类型识别方法和装置	-1.481879 -1.233585 0.474185 -1.197963 -0.082448 0.681589 -1.301664 -0.744379 2.355397 0.653417 0.845064 -0.277229 -0.436101 0.472850 -1.103786 -0.352535 0.630877 1.282341 -0.589449 -0.988676 -3.669611 -0.833510 0.262158 -0.841765 0.317318 0.717427 0.869469 -0.355145 -0.499658 2.185228 1.092730 -1.112506
接收器和低噪声放大器	0.238477 -0.467106 0.357979 -1.732610 -0.374974 -0.586739 -0.593124 0.173828 -0.958396 0.759712 1.148929 -0.006641 0.405125 2.178734 -0.106757 0.753360 -0.684107 -0.032697 -0.080784 0.902930 -0.770588 -0.695144 0.348956 0.081980 -1.266644 -1.053059 0.412931 0.037518 -1.071237 0.550439 1.447790 -0.259248
射频集成电路、接收器和控制接收器的方法	0.218391 -0.243807 0.237675 -0.026788 -0.548053 -0.353120 1.348162 0.112285 -4.654130 -2.294500 1.332599 0.181838 1.531095 0.844733 3.299609 -1.604173 -0.258003 0.751332 0.152363 1.934456 1.400344 1.123998 -1.113390 -0.227331 -1.181504 -2.611409 -0.525162 -1.337487 -0.150903 -2.324500 -0.704240 1.572873
一种惯性传感器零偏温度补偿方法	2.106359 1.292082 1.099664 -1.202621 -1.597743 -1.619635 0.337255 1.335104 -0.366349 -0.650113 -1.670669 -1.729208 0.671778 0.708418 -1.213893 -0.910864 0.559447 2.381000 0.661132 -1.482724 -1.447705 -0.596111 1.435657 0.013541 -1.572946 -3.354504 -1.521716 -0.871255 1.678875 0.340670 0.613780 -0.101642
一种应用于GNSS双频接收机的宽带低噪声放大器	1.609202 -0.449722 1.530233 0.892750 -0.901254 0.041076 1.178059 -1.263692 0.747508 -0.502681 -0.561472 0.775585 -2.165555 -1.478756 -2.592238 -0.404018 -0.291832 0.080048 -0.961004 0.232826 0.291438 1.712851 -2.868666 -1.252403 1.649943 -0.684641 -2.274296 1.061216 0.306669 0.716878 0.162697 1.302782
一种混合动力发动机润滑油组合物	0.089059 0.558778 -1.468759 -3.644349 -1.438198 0.678131 0.460166 -1.900278 -0.248604 2.218968 0.457061 -2.016597 -1.508611 0.891118 2.350039 -0.084727 -2.810803 -0.953274 -3.193554 2.208870 3.372650 1.631509 0.836073 -0.070902 -3.479087 -1.306461 -1.257182 -0.266085 0.048484 4.201456 0.173732 0.984087
计算机实施方法、计算装置及计算机可读取储存介质	0.856516 -0.478925 -0.304352 -0.168239 0.418906 0.326013 -0.199616 0.294089 0.232404 0.115482 -0.820688 -0.172819 -0.054145 0.692235 -1.136776 -0.022835 0.092646 -0.607186 0.958989 0.708259 0.416968 1.523196 0.171794 -0.866329 -0.762009 0.107017 -0.080895 0.385723 1.084519 0.771022 0.318516 0.334197
卫星综合电子计算机自主切机方法	0.586769 0.335746 -0.278743 0.884507 -1.276829 0.739980 -0.030115 0.336894 -0.970543 -0.843962 -0.508143 0.326968 -0.874590 -0.492547 0.319806 0.316157 1.528489 -0.358764 1.064690 -1.744088 0.124647 -0.483910 0.849116 -0.530896 0.427400 -0.590555 0.087959 0.830517 -0.117400 0.982582 -1.028792 -0.496716
心电波形数据处理方法及装置	-0.317483 -0.199528 -1.237892 0.288247 0.428948 -0.171636 -0.463025 1.185938 -1.417021 -1.578065 0.549720 0.097449 0.816741 0.267963 0.153127 -0.864582 -0.454636 -0.238107 1.127635 -0.952061 -1.682298 -1.792465 0.516810 -0.016730 -0.361632 -1.686975 0.314703 -1.131823 0.857740 -0.344757 -0.634968 0.145863
基础油及润滑油	-0.317855 -0.964900 1.085769 2.779651 1.255088 0.403917 -0.020724 0.006986 0.552204 0.770324 -1.663326 -0.991722 0.913695 0.159155 -0.060755 -1.074664 -0.639963 -0.251962 -0.118680 0.599033 1.026983 2.448297 -0.339175 0.347557 -1.275265 0.803085 0.028377 0.896569 1.110091 -1.282590 1.038273 0.897326
多导联心电信号卷积神经网络分类方法及其使用方法	-1.382715 -0.551536 -0.315561 -0.991713 -0.486542 1.054272 -0.159540 -0.297030 1.683435 0.666353 0.782688 0.340287 0.562755 1.095590 0.577648 -0.038105 0.631585 0.755796 0.151484 0.194970 -2.080343 -1.189040 -0.530756 -1.096430 1.266681 -0.039697 0.701534 -0.597936 -1.530596 0.962154 0.619465 -0.416563
前置放大器	0.999528 0.008550 -0.846189 2.305252 0.689522 0.717582 1.902585 2.202732 -3.560614 -0.992109 -1.651109 -0.116461 -0.700467 1.225236 1.151331 0.646815 1.534903 1.243599 1.949514 0.003731 0.471491 1.668752 3.153583 0.511393 1.034781 0.411301 1.111494 1.842903 -2.043823 -1.495702 -0.381274 -0.486794
可降解型轮轨减磨成膜膏及制备方法	-0.802650 2.040111 1.445714 1.954717 0.323456 -1.472010 -0.106551 1.575811 -1.623075 0.038202 -0.432686 -2.554236 -0.589015 -1.310342 0.672568 -0.401342 -0.912867 0.123487 -2.700153 0.197135 -1.394717 -0.717946 0.779216 1.035411 -2.180589 -2.335502 1.098898 -2.691422 3.603655 1.229409 -0.408546 1.199921
基于机器学习和生理信号的情绪识别模型构建方法及系统	-0.434676 -1.206201 0.176616 0.949604 0.478231 0.876785 -1.092433 0.207151 -0.546976 0.201184 0.006961 0.021658 -0.604608 -1.006604 2.171757 -1.484864 -0.324927 -0.886848 1.030748 0.018734 0.120846 -0.522766 0.968717 0.657765 -0.626452 -1.457868 0.739460 0.769081 -0.026351 0.826258 0.305537 0.515400
低噪声比较器的预放大器电路及低噪声比较器	0.555695 -0.057604 -0.551006 0.034153 -0.248328 0.340260 0.187748 -0.888681 0.664504 1.590901 0.497648 1.655244 -0.690417 0.556629 -1.594213 1.218499 -0.764667 -2.665022 -0.338108 -1.021622 1.063645 0.158382 0.326012 1.421068 -1.097183 0.023513 0.400033 0.606684 -1.271592 0.244749 0.790073 -0.457090
一种基于运放失调补偿的相关双采样电路	0.813385 -2.592507 -0.672111 -2.406644 0.590663 0.657683 -1.285660 0.534658 -0.014820 -1.246095 -0.597144 -0.416264 0.131802 -1.399367 0.577282 0.496966 0.648195 0.763812 -0.552551 -1.125110 1.045267 -0.431612 0.060207 -0.700126 -2.236874 -1.522439 0.911024 0.236611 0.339095 0.583227 0.929019 -0.351322
一种基于多级姿态识别分类模型的心电图防误判方法	-0.548148 -0.166036 0.360683 0.715309 -0.228460 0.400668 -0.040116 -0.004821 -0.555744 0.488954 0.077503 -0.492903 0.197513 0.114875 -0.678275 -0.664785 -0.489666 -0.101213 -0.295819 -0.257817 0.151791 -0.905854 -0.088855 0.360726 -0.380103 -0.277184 0.024828 -0.696558 -0.313573 0.862602 -0.474058 -0.126431
一种可重构超宽带功放谐波抑制电路	-0.225774 0.887149 -1.172931 -0.583890 -0.892721 -2.463212 1.242322 0.765904 -0.438373 -0.096090 0.160165 0.618625 -0.084073 -0.009809 0.071967 0.976498 -1.800964 0.332778 1.357136 -0.136126 -1.143650 0.188120 -0.599184 0.243115 -1.246603 1.594579 0.257722 -2.357444 -0.539997 3.494883 -0.048365 1.236276
多跨阻恒定带宽超低噪声TIA	-2.028948 -2.309132 -0.522232 -1.374769 1.293024 -0.572796 -4.215880 0.188625 1.232920 1.453873 -0.198464 -2.145915 0.635947 -2.952557 2.535357 -0.517484 -1.711266 0.973118 -0.336236 0.371998 -0.640736 -2.550925 -1.677818 1.420931 -1.663526 -0.806412 0.317964 0.119063 1.455961 1.484998 0.024616 -0.449557
基于多微处理器结构的时序控制器	0.215798 -0.932829 0.430293 -0.989317 0.584930 0.392153 -0.112542 -0.291766 0.623769 0.999936 -0.089437 -0.955701 1.071585 0.667256 1.721793 0.169282 -0.007608 0.152461 -0.061479 -0.274322 -0.203019 -0.540115 -0.230185 0.189615 -0.321447 0.771806 0.631818 -0.107048 0.677392 1.281091 0.982158 -0.944230
基于奇异谱分析和变分模态分解的心电信号去基线漂移方法	0.397803 -1.314613 3.690109 1.544714 0.608479 0.493345 0.702541 -1.136001 -1.073560 0.457840 -3.059198 -0.699225 0.630639 -0.326289 -1.453004 -1.271424 -2.028408 0.277447 3.267652 0.610714 1.264719 2.258373 0.672366 0.366750 1.975680 0.385958 0.113238 -1.414991 3.450653 -0.937373 2.086079 0.735028
一种用于润滑油的星形黏度指数改进剂及其制备方法	1.832570 2.728206 0.458071 -1.124375 -3.354322 -1.082284 1.488843 1.236028 0.350321 0.529041 2.756344 1.633048 -3.654905 1.751786 0.574460 1.449472 -3.522782 -2.490643 1.564768 3.132900 1.926058 0.762080 1.676932 2.261209 0.224179 -3.261585 -0.414232 0.772455 0.203732 3.585769 1.579535 1.108737
基于不对称性心动周期变化的素质能力量化评价方法	1.133120 1.677825 -1.618241 -2.178837 -1.057302 -0.498638 0.442536 -0.580387 -0.856087 -1.418362 -0.973689 -1.429361 2.331176 0.207028 3.065458 -0.722353 -0.779836 1.906593 -2.639259 -0.923360 -2.720403 -1.034303 -0.556881 -0.063306 -0.138683 -3.532083 -0.453671 0.183904 -0.494092 -1.130282 1.907070 0.533909
一种皂基润滑剂的制备方法	0.203714 -0.166930 -0.169534 0.087585 0.594843 0.131025 0.905168 0.826662 0.130763 1.154300 -1.015601 -1.633457 0.572249 0.145268 0.039949 -0.707780 0.095538 -0.194666 -1.017948 -0.142646 1.104430 1.293581 0.649782 0.113192 -0.439565 -0.430449 0.262304 -0.201497 0.741563 0.312479 0.137513 0.444764
一种超低温航空液压油的制备方法	-2.109495 0.568536 -0.988930 -2.770851 -0.728384 -1.589058 -1.655955 0.780538 2.159634 1.677798 -0.430790 -2.666205 0.690708 -2.316612 3.571097 -0.127991 -3.526688 2.371458 -3.871477 -3.487244 -3.118314 0.337590 -1.339893 1.937139 -1.600762 -3.110896 -1.130553 -0.082215 0.133319 1.881623 1.438569 1.070563
一种减速机防漏润滑剂及其制备方法	-2.941522 -1.178594 0.649580 3.235003 1.552158 1.051596 -2.023361 1.995651 -0.800124 -0.135038 -2.031607 -1.153885 -0.871613 -2.951885 -0.751441 2.061479 -0.423107 -4.759634 0.153782 2.382691 5.583098 5.057953 0.409519 1.662709 2.295393 2.236236 1.843742 1.362546 1.343340 0.012676 -0.223647 -3.409784
超级电容剩余寿命综合评估方法、系统、装置及介质	-0.331659 -0.243120 -0.102439 0.658982 0.874841 0.404930 -0.408906 -0.201494 -1.004446 0.229542 -0.106003 0.033247 -0.149371 -0.995377 0.346491 -0.353405 0.490288 -0.131550 0.192628 -0.385278 -0.237379 -0.308225 0.289215 0.113113 -0.701501 -0.408447 0.202747 -0.137013 -0.506718 0.659829 0.486312 -0.199494
心电信号的分类方法和装置	-1.201761 -0.667433 0.503448 1.299161 -1.034284 0.676311 -1.928619 -0.200156 -0.219788 -2.555089 1.145327 -0.900693 -1.390046 0.473654 0.578265 -0.055080 0.969752 1.064205 0.066513 0.611944 -0.548932 -1.229584 1.847129 -0.773648 -0.946996 -0.883910 1.393571 -0.938381 0.958640 -0.501694 -0.456221 0.320639
一种改进的基于小波域稀疏特性的心电信号去噪方法	1.211984 -1.190895 1.430471 -1.037294 -0.171284 -0.236359 0.348668 -2.404939 -0.254824 5.342783 -1.076918 -0.563660 -0.678236 -2.137722 -1.438617 0.443432 -2.012165 -3.475947 -1.030134 -0.456825 1.326845 1.527217 0.713885 0.782273 -0.728755 1.993839 1.557650 -0.666526 0.100956 1.878414 -0.854369 0.873632
Sm-MOF，含有Sm-MOF的催化剂及其在用煤焦油尾油制备基础油中的用途	1.788856 2.680361 0.118600 0.378815 -2.563140 0.197948 1.110209 2.487069 -0.378725 0.709260 -0.490823 -2.731787 2.133557 -0.599171 -1.035098 -1.616287 -3.319811 -0.439643 -5.461786 3.633817 0.505598 -1.308504 -0.521358 0.685183 -2.703700 -1.250412 -1.435340 -0.217222 -1.449645 3.947055 0.496090 2.586367
饱和脂肪族烃化合物组合物、润滑油组合物、以及饱和脂肪族烃化合物组合物的制造方法	-0.890774 2.172363 -3.815047 0.225265 0.536646 2.337120 -1.929098 -1.984712 3.309314 2.618044 -0.441078 -3.570564 -0.137482 -1.832618 1.342936 -1.076194 -2.069618 0.020355 -2.490834 0.742273 -1.457503 3.206307 -1.009338 3.961329 -3.769265 -2.639473 -1.862613 1.673133 0.155898 0.998446 1.212058 1.977320
一种噪声抵消低噪声放大器	-0.519112 -1.215491 0.616346 0.362917 1.477455 1.072789 -0.728775 -2.335456 2.335400 1.641454 -0.456853 -1.346650 1.807129 0.528696 0.610440 0.139827 -0.880694 0.235123 0.367052 -0.474008 -0.546131 1.445776 -0.334189 -0.102161 0.234850 -0.867261 -0.997329 -0.475288 -0.874789 -0.162980 2.119986 0.258206
基于Bi-Hemt工艺的宽带双通道收发放大芯片	0.167884 0.565569 0.508792 0.357278 0.325391 -0.362846 0.979647 -0.305881 0.297212 -0.222460 -2.828082 -0.287239 0.133441 -0.885751 -0.484021 0.220472 -0.203203 -0.879878 0.131320 0.849898 0.468066 -1.089676 -0.551588 1.625597 1.859727 0.168031 -1.203575 -0.178276 0.338902 -0.752947 0.637788 0.843014
一种MRI超低噪声放大器	0.105461 -2.683314 0.333787 -0.990987 0.859109 0.215659 -0.071764 -0.629400 0.452054 0.763810 1.255346 -1.133705 -0.367982 -0.400678 0.627198 -0.262847 -1.332980 -0.296932 -1.457286 0.275578 -0.509050 -0.918601 -0.324491 0.427721 -1.649161 1.258355 0.544668 -0.602653 1.668458 2.852028 0.630806 0.438700
一种可降低成本的多级低噪声放大器	0.450203 -0.629766 -0.953143 1.049453 -0.639282 1.502412 -0.633453 0.716421 0.504754 -0.732604 0.175036 -0.692997 -1.685582 1.501956 1.814140 0.040675 -0.969194 1.333545 0.742858 0.995149 -0.194676 0.130878 -0.154299 -0.244580 -1.249693 -0.158718 0.289191 0.189485 0.912367 -0.000178 0.717273 -0.259332
用于偏置RF电路的系统和方法	-0.116080 0.183865 1.525502 1.786209 0.378345 0.641653 0.833940 0.487210 0.939389 0.229813 -1.120047 -0.725825 0.632533 1.687643 0.857933 0.075663 -0.811711 0.082075 -0.536611 0.633755 1.409653 1.666557 -1.142809 0.266980 0.979588 -0.847955 -0.108865 0.137651 -1.008012 -1.728148 0.780144 1.612419
一种用于射频收发芯片的抗干扰接收机电路	1.561675 -0.973970 -1.386467 -0.635010 -0.999106 -1.812594 -0.528302 0.430069 -3.346256 -1.184070 -1.244814 -1.450185 0.433129 0.963239 2.793819 -1.260676 1.488138 0.144639 -0.547428 -1.248012 -0.931591 -2.209074 2.720371 0.089886 -1.477175 -1.131886 0.735323 2.054021 0.866310 -2.371294 1.159336 -0.713487
一种具有单转差功能的超宽带毫米波低噪声放大器	-0.151769 -1.058263 -0.133784 -0.515290 -0.108329 0.929935 -0.395955 -2.033857 -1.342689 0.685543 -0.028638 -0.006421 0.564006 -1.083583 3.953413 0.550871 -0.440832 2.899326 1.924801 0.304867 -1.528420 0.593328 -0.756692 0.394886 -0.637215 -0.489157 -2.159854 -1.400611 -2.793276 1.622626 0.501898 1.319189
使用振荡器对电极-组织接触进行的估计	-1.929474 -0.377078 0.085085 0.275188 -0.620986 0.457862 -0.021518 -1.353351 -0.251556 1.833130 -0.202615 0.369502 -0.061458 -0.039157 -3.130477 0.025141 -0.233534 -1.449017 -0.082316 -2.403608 1.140857 -0.447076 0.437836 0.832187 -0.039976 0.354782 0.629031 -1.489478 -1.555216 -0.130204 0.840496 0.794820
一种聚烯烃润滑油基础油及其制备方法	1.081347 -0.674165 -0.212392 2.063045 -1.026996 1.195758 3.395534 1.807794 -0.646347 -0.403567 -3.356522 -2.454314 0.215743 0.289934 0.834764 -4.343261 -2.983281 -0.149516 -6.609629 0.403869 4.265850 3.593872 -1.907527 1.278940 -3.382863 0.475425 -0.654420 1.138548 2.344164 -1.718930 2.372912 0.515435
一种测量电路前置放大器	0.196842 0.891025 -0.627678 -1.159683 -0.323895 0.321505 0.535083 1.054918 -2.732221 -2.269691 0.380865 -0.102433 -0.163476 0.839175 0.483334 1.316570 1.144016 1.287482 1.195828 -2.897517 -2.282413 -2.483883 0.382479 0.544736 -0.104923 -1.530652 0.691203 -0.072382 -0.871319 1.411556 0.795818 -0.531978
一种与生物燃料兼容的国六发动机油及其制备方法	0.102694 -1.405066 2.383760 -0.353230 -1.263607 0.292084 0.674111 1.599883 -1.235865 -1.709311 1.526750 -1.532790 0.409987 -0.049889 2.022395 -1.253453 1.056466 1.422545 -2.875829 -1.037465 -0.100468 0.272109 -0.905020 -0.691333 0.795061 -1.216153 -1.025526 2.414806 1.325746 -0.480914 0.776909 -0.786437
一种油冷电机混合动力减速箱用润滑油及其应用	-0.747661 1.511480 -1.898224 1.724442 -0.002343 0.296727 -2.593532 0.709901 -0.937022 2.041935 0.191507 -3.614631 -0.067152 -1.632717 0.802956 0.786346 -0.618567 0.890401 -2.107410 4.669404 2.795493 1.002707 0.928672 1.082512 -4.178078 -2.443972 -1.434598 0.516903 3.002943 1.460746 -1.203101 0.494428
避免雷击导致缝纫机电控无法掉电保存数据的方法及系统	1.072609 1.647828 0.159002 -0.390665 -1.612721 -1.063515 0.957293 0.918654 -0.973564 -2.323659 -0.131889 0.682397 -0.691046 0.578738 1.786184 -0.289362 1.447345 0.246273 0.830008 -0.094891 0.356346 -2.021615 -0.927450 -0.302174 1.130895 -1.594164 0.277090 0.382253 0.404384 -1.719615 -1.197642 -0.836686
笔电适配器自适应设定CPU性能的方法、设备及存储介质	-2.569504 -0.644913 -2.194403 -0.776485 1.446729 0.200257 -1.473068 0.312180 3.163024 2.030823 -0.729604 -0.042027 1.554378 -0.329346 2.345862 0.398434 -0.908916 -0.140776 0.685190 -2.227544 0.848849 -2.169701 -1.104720 0.359963 -0.726016 0.676005 0.367530 -0.244201 -3.016627 0.675189 1.594516 0.943579
一种超宽带微波放大器平衡稳定匹配电路	0.826326 -0.851539 -0.413979 0.400948 1.472584 0.089294 0.487874 -1.312594 -1.368424 -1.864872 -0.156002 -1.113617 -0.107256 -1.114094 -0.113783 -0.491234 -0.195354 -0.091359 -0.200643 0.195663 0.560295 -0.603092 -1.228733 -0.064495 -1.091609 -1.367688 0.064860 -0.541361 1.085653 0.619970 0.088829 0.364826
滤波低噪声放大器和接收机	1.143736 -1.764752 -0.788070 0.884133 0.281684 0.138592 -0.749725 -1.195016 -0.344035 0.046886 0.342893 0.615055 0.333072 0.540620 2.936439 0.207042 -1.040161 -0.172115 1.832410 1.668959 0.331469 -0.888940 -0.530684 0.820248 -1.330961 -0.073360 -2.451693 -1.224414 -1.804387 1.124752 2.898137 -0.031496
一种聚（甲基）丙烯酸酯类粘度指数改进剂及其制备方法和应用	-1.126204 1.215009 0.508620 0.000612 -0.315120 -1.772862 -1.144970 0.070095 -0.568905 2.946377 0.059255 -3.062944 -0.105593 -0.864254 0.696314 -0.887780 -0.253779 -0.897500 -2.290167 -4.950797 -0.421863 1.142860 -0.784048 2.222858 -0.362597 -3.242933 -1.905742 2.242453 0.417036 -0.698286 3.652435 -0.175873
一种基于多路心音的冠状动脉狭窄可视化量化方法及设备	0.528112 1.732087 -3.386827 -0.391535 0.614327 -0.013775 -2.111973 -1.789292 -0.711077 1.591817 -1.770027 -0.258059 0.944219 -0.115089 -1.337223 -0.111939 -0.038524 -1.792479 -0.146976 -1.464784 0.494089 -0.044344 0.932173 1.028801 -0.920347 -2.718868 -0.126662 -0.945843 -1.676423 -1.013675 1.042749 0.521000
一种融合多导联注意力机制的ResNeXt网络分类方法	-1.881283 -1.275230 0.164185 0.368211 1.204595 0.217605 -1.163247 -0.834560 -0.570484 1.889241 0.583872 -0.518088 1.617180 -0.400059 -1.921125 -1.136054 -1.510154 -2.452640 1.355295 0.882986 1.533225 2.577142 0.492570 1.246552 0.172265 0.744549 -0.359769 -0.257874 0.572829 -2.142341 1.792762 -1.863013
含有星型SEP共聚物润滑油粘度指数改性剂及其制备方法	-0.292973 1.076946 1.098524 0.130549 -1.946445 -0.418861 -0.195369 0.648775 -0.545955 3.133897 0.656359 -2.084958 -0.599039 -1.189498 0.428444 0.075264 -1.620404 -1.857013 -1.984270 2.131197 2.040777 -0.225289 0.975709 1.307390 -2.156675 -2.057990 -0.259015 1.541097 1.015545 1.010334 0.402020 1.877133
润滑油组合物、润滑油组合物的制造方法和无级变速器	0.155362 0.994602 -4.967724 0.327256 -0.086312 -0.161848 -1.261562 -0.279936 0.760694 2.406121 -0.886265 -3.421271 -0.356700 -2.327382 3.608414 -1.605787 -3.252219 -0.383928 -0.254788 1.668964 -2.375188 1.451406 -1.084248 3.639073 -2.569249 -3.421427 -1.150806 0.110394 -1.920907 1.425332 0.068704 1.239968
齿轮润滑剂组合物	-0.991727 -0.718751 -2.107589 1.282452 0.503313 -0.121053 -3.601832 -0.779695 -1.222198 4.540026 1.477185 -1.237605 -0.141054 -3.022128 3.291903 0.232456 0.426789 -1.038927 0.619026 -1.734228 -2.954110 -1.144307 2.338992 0.876573 -1.975931 1.646999 0.325114 -2.349185 -2.748917 3.981062 -0.665282 0.293578
一种抗干扰网络及其应用	0.287969 -0.354068 -1.690148 -0.632118 0.067047 -0.625850 -0.931894 0.391736 -0.188325 0.050654 0.870750 -0.458285 -0.351744 -0.738394 0.917904 -0.792154 0.264451 -0.076213 -0.485576 -1.075338 -0.783420 0.416070 0.399929 0.293358 -1.228937 -0.420113 -0.629504 1.292267 1.046531 0.270940 -0.430923 0.544268
放大器芯片	0.018587 -1.413599 -1.047281 0.181768 0.109711 -0.829982 1.118609 1.873436 -2.124236 0.614965 -0.057970 -0.008719 -0.269284 0.227678 0.901499 -0.456252 0.081512 -2.251547 0.210756 -0.789843 -0.761437 -0.828645 2.229948 0.716458 -2.765789 -1.201374 -1.582557 -0.955602 -2.487876 2.133047 -1.972930 -1.555244
一种腔内心电信号重建方法及装置	1.094337 -0.583752 0.501803 -1.281127 -1.509089 0.902749 0.245432 1.056928 -1.186086 0.527588 0.833417 -0.271370 0.842977 0.519297 -1.350071 0.059442 1.738865 0.492691 -1.108784 -2.761909 -2.550600 -0.276418 1.240074 -1.327540 0.057334 -0.882663 -1.813779 0.558280 -1.453932 0.391488 -0.385326 -0.291014
一种基于增强型晶体管的电流复用低噪声放大器	-1.359908 -1.013415 -0.578868 4.394884 1.979552 -0.274679 2.573966 -1.773812 -2.324458 -2.411860 -0.680989 -0.518917 -1.230551 0.808009 -2.011898 -1.223989 0.173606 0.219958 -0.497005 1.859905 0.932826 -1.222256 -1.817453 -0.951692 0.595027 -2.598577 0.658429 -1.012972 -0.290931 0.336264 0.413349 -0.647793
一种基于Sigma-Delta调制方式的隔离放大器电路	-0.396958 1.664936 -0.801104 0.952730 -0.932289 1.387509 -2.571726 0.016848 -1.320310 0.508673 -1.617699 0.939565 2.539277 -2.267987 -0.461691 -0.752136 0.496940 -0.564883 -0.665573 -0.721333 -1.328219 -0.859245 -1.342278 0.488098 0.947947 -1.368072 -0.047926 1.203269 0.708765 -1.713757 -2.434180 -0.798832
包含长链二元酸的混合物的处理方法及其应用	-0.173972 1.629521 -1.542543 -0.148150 -1.301836 -0.502379 -0.181018 2.261497 -0.284325 -0.441491 1.410821 -0.440172 0.543198 1.277622 1.493387 -0.327421 0.059340 0.630133 -0.919644 -0.906573 -0.976764 -1.115798 0.596491 -0.001831 -1.083227 -0.815160 -0.464557 1.005995 -1.741977 0.096228 -1.029375 -0.245928
一种面向大功率载板功放的谐波抑制结构	0.047258 1.230935 -0.185149 1.377419 1.406400 -0.226264 0.951257 0.844001 -1.321278 0.608457 -1.160453 -2.325261 0.284055 0.977982 -3.110883 -1.296225 -1.752177 -0.042242 -1.651728 -1.118479 -0.501560 1.644161 0.683440 2.155703 0.228264 -2.376584 -0.616633 -0.848613 0.375811 1.932729 -0.745314 -0.465362
一种整机柜服务器电源模块均流控制系统及方法	0.040577 0.964885 -0.075634 -2.360355 0.975948 0.370690 -1.426752 0.694065 -0.990613 -1.313387 2.568186 -1.221341 1.360932 1.956573 0.674986 -0.130332 1.577718 0.743603 -0.971586 -2.509742 -3.555499 -3.640181 -0.715024 -0.690277 0.222093 0.073079 0.071393 0.091702 -0.429352 -2.337430 2.151108 -1.918097
一种基于Lange耦合器的射频低噪声放大器	0.970498 1.767364 -1.651231 -1.098835 -0.601906 0.471839 -0.268014 -0.731163 0.882910 -0.768553 0.463073 0.938489 -0.639723 0.961802 0.265532 1.015767 0.867518 0.208040 -0.187978 -1.615855 -0.954749 0.445010 -0.291518 0.323506 -0.072292 -1.970273 -0.650604 0.087082 -1.928534 0.339176 0.123337 0.115911
一种复合门控信号的获取方法、装置及磁共振设备	-1.255996 0.978866 1.122728 1.350151 -0.167009 -3.384233 -3.954984 2.256027 -2.133832 -0.625748 -0.682297 0.047749 0.474144 -2.816155 0.948165 -1.021170 -0.454880 -0.125756 -0.158117 -1.173423 -3.765700 -3.780839 1.273396 -0.443469 1.399764 3.226037 1.896503 -2.071450 0.974489 3.698836 -1.906254 -0.708129
一种电源分配方法、系统及存储介质	1.229269 0.620119 -3.028742 -0.534189 0.806128 -3.577104 1.830335 -0.240426 -1.188582 -1.572239 3.093322 -0.223910 -0.497272 0.848972 2.043922 -0.352396 1.946268 1.428927 -0.264004 1.802719 -0.085530 -2.134534 -1.506124 -1.687256 -0.153179 -0.410820 -0.472399 0.614218 -0.377368 -1.695216 0.239909 -1.416218
一种差分低噪声放大器及通信设备	-1.008719 0.629572 0.002810 -0.437906 -0.048510 -0.091161 0.281129 -1.161544 -2.817331 0.532383 0.203296 -0.239736 1.183023 0.784241 3.746779 -0.183377 -0.789266 -1.913571 -0.955435 0.469261 2.159491 1.832410 0.595287 0.553343 -1.637994 -0.707319 -0.246536 -0.090840 -0.696421 2.031803 0.542025 1.938596
一种电源故障告警及恢复方法、装置及存储介质	1.777853 2.608508 0.150104 1.569877 -0.777189 0.063035 -0.804581 1.804711 -0.779399 2.363664 -0.031867 1.342904 1.743045 0.431991 -0.972488 0.565559 1.079529 -1.415727 2.299906 1.889205 -2.189183 0.280596 -0.738498 2.097288 1.389461 0.046359 -2.377716 1.320528 -0.355216 -0.586023 -1.148511 -0.176911
基于脉冲神经网络的长时程心电分类方法及系统	0.188026 -2.535610 1.955256 -1.530924 -0.373967 0.062053 0.894891 0.442593 1.211702 0.831698 -0.474168 -1.339018 0.340161 1.735245 -1.392120 -0.843285 -0.999778 -2.019102 1.385816 0.472405 5.150302 1.464983 -1.031356 1.730015 -0.051097 0.991544 -1.385456 1.942910 1.135953 -2.521050 2.994635 1.582228
基于深度神经网络的心电图智能分析方法及系统	0.289915 -1.528468 -1.401623 0.118517 -0.105388 0.043957 0.435807 3.129725 0.408055 1.015952 0.416949 -1.827230 2.217852 3.413752 1.241361 -2.761584 -0.223424 0.938907 -0.277573 -0.273512 0.367094 -1.121037 1.753097 0.268225 -1.121045 0.166325 0.607529 0.269011 -3.376868 -0.960471 -0.137491 0.675657
一种心电信号处理方法、系统、装置及存储介质	0.587511 -1.205142 -0.215576 -0.395902 0.259567 -0.877333 -0.023034 0.328829 -0.556468 0.614106 0.151732 -0.049627 -0.279445 -0.252011 -0.182617 -1.107258 0.193879 0.393837 -0.207751 1.069002 -0.273297 0.542071 0.640941 -0.754614 -0.709843 -0.294707 0.197289 -0.925128 -0.314512 0.739746 1.524125 -0.413032
一种无反射微波放大装置	0.192240 -1.629178 0.122836 -0.009922 0.476898 -0.989506 -0.890112 0.288458 -0.709495 -0.998231 -0.709284 -0.724580 -0.875201 -1.990160 1.509938 -1.111487 -0.494700 0.382510 -0.108794 -0.722327 0.260862 -0.190099 0.214495 -0.619129 -0.701750 -1.053569 0.841081 0.181367 2.948537 -0.275848 0.381744 0.448872
一种控制电路和控制设备	-1.310329 1.421475 0.328602 -1.520500 -0.937300 0.514856 -0.982307 0.061907 2.003345 0.279119 -0.020983 1.882771 0.959334 -2.501481 -0.436557 0.962748 -1.420464 -0.186984 -0.549243 -2.459388 -0.699800 -0.750898 -1.256603 0.937133 1.864999 1.997649 -0.757887 -1.930180 1.603545 1.212933 -1.547743 -1.322407
控制聚α烯烃的运动粘度的方法	0.704423 2.286245 2.248695 0.734425 -1.058170 1.676517 0.011385 0.219880 0.876249 -0.301624 -1.547529 -3.498202 -2.071730 3.037082 0.846385 -1.302713 -1.842117 1.314661 -3.961791 0.290180 -1.945091 -0.733968 0.414386 2.007095 -2.538791 -0.928030 2.124574 0.229807 0.350311 1.524362 0.723723 2.091428
诊断报告生成方法、装置、终端设备及可读存储介质	1.264300 -0.608332 0.131384 0.807878 0.093761 0.103147 -0.430814 0.198139 0.652077 0.101506 -0.194858 -1.267170 1.151748 1.362977 0.574790 -0.368794 0.657112 1.125395 -0.171084 -0.378142 -0.022134 1.012818 0.954382 -0.635881 -0.714785 -1.033244 -0.988210 -0.141188 0.265303 -2.085286 2.032688 0.096916
一种低噪声放大器的动态偏置方法及系统和动态偏置电路	0.972873 0.648931 -2.183967 -2.346220 -0.170410 -0.964120 -1.537676 -0.453261 0.033947 0.010960 0.793616 1.338675 0.403186 -1.045136 1.995941 1.282119 0.578156 2.574477 -0.148059 -2.363675 -1.638770 -0.704396 -1.704284 1.141132 -1.534415 -2.511213 -1.469638 0.376547 -0.776165 1.075126 0.726290 -0.783036
一种心电信号特征提取分类方法及系统	-1.171264 -1.452214 0.411417 0.026384 0.338159 -1.436523 -0.093534 2.634485 -0.623827 -0.569137 0.724337 -0.195624 0.037162 0.470122 2.782101 1.177113 -0.364056 0.545276 2.529039 1.581088 -1.172763 -3.710916 0.105326 1.374732 -2.055381 0.536247 0.558688 -0.343929 -1.606874 0.940844 -1.466925 0.598566
一种心电信号处理方法及系统	-0.289382 0.578934 -1.030242 0.897323 -0.137484 0.734698 -0.097999 0.024480 -2.147913 0.252863 1.240832 0.581553 0.317040 -0.025562 0.195436 0.049784 0.698072 0.217207 0.691764 -0.727928 -1.363634 -0.187977 0.606509 -0.497376 -0.610223 0.450518 -0.091696 -1.891489 -0.849910 0.579042 -0.008619 0.038441
一种OCP粘度指数改进剂	0.735290 1.736471 0.177131 1.168803 -1.265352 2.920317 -0.316208 0.489706 -1.978077 0.588567 -0.189959 0.784253 1.315077 -0.249983 -1.928095 1.380718 0.850385 -0.512478 -2.067132 -0.910851 0.944045 0.618373 -0.077531 0.709554 -0.332441 -2.027064 -1.940395 1.984806 -0.194309 0.728891 -0.201155 0.479783
一种新能源汽车专用的减振器油	-0.308879 2.240551 -0.907206 0.906055 0.943371 1.086494 -0.865181 -1.040355 -2.670599 0.852585 -0.754474 -0.690147 0.895706 -0.339893 0.308117 -0.422192 1.979155 -1.022885 0.035109 1.630776 1.707125 1.653961 -0.551826 1.861586 -0.221381 -3.851914 -2.064857 1.876222 3.365367 -2.132153 -0.509648 -0.055724
电源控制方法、电子设备及服务器	2.134335 0.146634 -0.832372 -1.141600 -0.477746 -0.152802 -0.988569 0.042604 -0.117571 0.317748 1.220106 -1.205487 2.067804 2.025968 0.232462 -0.280771 -2.245418 -0.085929 0.424505 -0.063327 1.112350 -0.469789 1.529020 -0.672526 -2.644304 -1.671659 -1.067641 -1.432333 -0.088168 2.839306 0.286754 -0.477948
失真减轻量化器电路、减轻失真噪声的方法和数字发送机	0.686449 -2.478847 -1.020931 -0.664905 -0.339942 0.067558 -2.450719 -2.791081 1.700306 1.071976 0.263118 -0.868670 -0.050986 -0.739178 0.133306 0.745636 0.178618 -1.730832 -1.650993 -1.933189 0.249680 0.661626 -0.275421 1.331604 -0.527931 -1.265266 0.124703 -0.243305 -2.217250 3.849509 0.496231 0.706178
一种计算机的紧急断电保护装置	1.131603 -2.310269 0.443847 1.150047 -0.510609 0.466406 -0.504258 1.108037 -0.506704 0.594360 -0.364834 -1.055377 1.310626 0.690842 -1.229528 0.491754 1.361832 0.725237 -1.195705 0.414711 1.343878 1.652687 2.164540 -2.036732 0.219385 0.132232 -0.859829 2.413160 -0.506425 -0.001144 0.620482 -0.100775
一种基于数据增强与损失加权的不平衡心电样本分类方法	-0.194156 -0.154782 2.209054 0.621235 0.866777 1.641100 -0.317501 -0.501326 -0.153986 0.137417 -2.874582 1.130343 1.194595 -0.410928 -1.849667 0.284831 -1.158648 -0.669267 1.701098 1.051153 3.025625 1.863662 0.380122 1.409979 1.653140 0.504852 -0.117753 -0.255941 1.475979 -1.719141 1.145340 -2.110114
一种服务器主备电力切换过程中电源输出稳压系统及方法	0.635505 1.098719 0.172967 -0.133890 -0.302731 0.010133 0.977502 0.739795 0.428976 -1.411779 0.120056 1.001151 -0.839855 0.216914 0.574337 0.770207 0.627004 0.064448 -0.193880 0.534213 0.702769 -1.764585 -1.159711 -0.887279 0.906743 -0.980869 1.465799 0.678973 1.959537 -1.202213 -0.363087 0.054249
心电数据处理方法、装置及存储介质	1.571232 0.907643 -0.572182 -1.854016 -1.138533 -1.446401 0.056717 0.456313 1.355090 -1.000688 0.245469 0.549536 -0.976257 -0.317662 0.587638 0.855676 0.780091 0.861253 0.670136 -1.558980 -1.657381 -0.543903 -0.844390 0.644682 0.455039 -1.199462 -0.476329 -0.094975 -0.944611 1.122889 -0.814682 -0.619550
心腔内除颤导管系统	-1.381471 -0.549602 -2.101156 1.400137 -3.862217 -4.025060 2.513937 3.100039 0.979912 2.986376 -0.105678 0.405831 -2.349234 -1.104044 0.605404 -0.495568 -2.549287 0.133113 1.791296 -1.691840 -1.346329 -0.541761 2.299743 0.426063 -0.000065 0.065542 0.631196 -2.344737 0.900364 2.131430 -2.893902 1.278209
一种高导电、强润滑镓基液态金属润滑剂的制备方法	-1.296992 0.615826 -0.296977 -0.985584 0.047332 0.118727 0.960195 0.526305 -0.931178 0.941983 0.277139 -1.884046 0.417237 0.359283 1.918082 -1.116261 -0.787413 0.783434 -1.561611 0.416155 -1.978014 0.673835 0.479598 0.288740 -1.816745 -0.797254 -0.401244 -0.144369 -1.167097 1.136023 0.575372 0.112531
一种润滑油黏度指数改进剂及其制备方法与应用	0.256415 0.898042 3.067579 2.800261 1.740140 -0.684067 0.649989 -1.017365 0.079623 2.290524 0.107896 -0.591579 -1.959670 -1.902956 -0.729468 -0.471614 0.238035 -1.865116 1.845960 2.612266 0.667209 1.111656 0.229464 2.911424 2.582984 -0.287806 2.889270 1.387824 0.135580 0.612314 -0.472666 0.320805
一种改善涡轮增压器结焦问题的柴油发动机油及制备工艺	-1.363926 -1.914186 -0.237017 1.062710 0.009373 1.903758 -2.372808 -1.162658 0.419429 2.222915 0.477298 -1.356900 -1.121824 -1.567121 4.728443 -2.574001 -0.723361 -0.092920 0.217521 -1.173279 0.449750 1.835945 -0.007894 1.152070 -3.030005 0.578769 -0.551958 -0.526871 0.020950 1.518579 0.377950 1.680922
一种基于自适应阈值的小波去噪方法	1.212384 1.557744 -0.916604 -0.694795 -0.037913 1.363421 -1.163016 -0.332088 -1.135935 2.686302 0.082643 -0.882583 -0.315763 -1.157678 -1.201226 -0.366425 0.528709 -2.635763 -0.634115 -2.650883 0.921323 -0.050692 2.500255 -1.267934 -0.738375 -2.244555 -0.655513 -1.651828 0.365480 3.530029 -3.905024 0.470835
一种石墨烯基纳米硼酸盐润滑油及其制备方法	-0.335499 -0.994884 1.491571 1.973002 -0.269728 -3.800996 -0.509096 0.325277 -0.722874 2.858455 -0.735609 -1.028190 -2.400709 -4.681161 3.043666 -1.764952 -3.311999 -1.218023 -0.839075 0.713638 -2.463017 -2.888533 1.100499 0.743759 -0.878072 -2.944220 -0.311540 1.314126 0.975281 1.077300 -0.473230 1.568788
一种基于CNN神经网络的急性心肌梗死定位自动判别系统	-0.647084 -0.006821 0.497154 -0.562911 -0.487470 0.664207 1.581796 1.022362 -0.438162 1.362670 0.378907 0.230620 0.513050 0.183115 0.909201 -0.963331 -2.421076 0.757580 0.057753 -0.267458 -1.152927 -1.434909 -0.198267 -0.125572 -1.244174 0.195093 0.065633 0.087297 -1.610832 -1.152746 -1.440377 0.445063
一种乳化型液压油组合物	0.510595 2.344766 -3.139322 1.933701 -2.931181 -1.642616 -0.803574 2.025623 -3.823778 3.388565 -0.886314 -2.191827 -1.336231 -0.347865 1.159409 -1.438635 0.065875 -3.037732 -1.463571 -0.610404 1.781030 -1.159376 0.817546 2.214720 -2.748176 -0.310191 -0.943416 2.994169 1.661232 0.857776 -1.351899 1.364794
基于图片及心搏信息的心电分析方法、装置、设备及介质	-0.986677 1.394828 -0.390860 -0.588864 -1.377181 -0.333706 -0.278012 0.190196 0.008675 -0.333442 0.779564 1.155146 0.341294 0.552357 1.269937 0.149775 0.765731 0.939971 0.263791 -1.619353 -1.624175 -2.094853 -1.412849 0.176935 0.731432 -0.663367 -0.547635 0.479910 1.005280 0.139229 -1.546513 -0.920844
一种基于人工智能信息安全的计算机断电保护装置	2.579471 0.169191 -3.149702 -2.397566 -2.084374 -3.010796 0.148063 -0.752445 0.174278 2.201738 -2.659122 -1.919025 1.297953 0.636170 3.382837 -1.047144 -0.680533 -5.004784 -3.659582 -2.423717 -0.620033 -0.086973 3.425919 -0.046290 -2.161951 0.380326 1.082448 0.566205 -1.457776 3.988576 0.354460 2.010319
一种超长换油周期的齿轮油及其制备方法	0.005546 1.194023 0.990488 0.238859 -1.803988 0.326090 -0.387756 -0.986680 -1.409594 0.988088 0.799850 -2.310829 -2.042590 -1.095068 2.539654 -1.191690 -1.477359 -0.333209 -2.073812 -0.862045 -0.617453 0.733672 -0.420783 1.459656 -2.837826 -1.527062 -0.641858 -0.804495 0.026250 2.713096 -0.065731 0.489434
基线漂移和高频噪声的去除方法、装置、设备和存储介质	-0.009747 -1.331911 2.380124 -0.640449 0.463606 -1.889985 1.048383 0.907272 -0.433902 -0.589607 0.995996 -0.131676 -0.105198 -0.576749 0.928782 -1.379874 -0.640858 2.289085 1.358951 -0.909227 -2.906185 1.062822 0.487747 0.099113 -0.289727 0.854086 0.494239 0.554045 1.209048 0.471539 1.330819 -0.849809
一种润滑油组合物及其制备方法和应用	-3.552514 1.800948 0.758230 -0.371686 -0.903116 -1.169885 -1.226624 0.819672 0.946308 0.583725 -0.686621 -0.889125 1.935473 -0.647342 -0.952186 0.372906 -1.870825 -0.363488 -0.296695 -2.135025 -1.786262 -0.543286 0.238093 1.741566 -1.468804 0.845617 0.336616 -2.124780 0.325424 1.987899 0.103940 1.322185
一种剪切数据用数据多级处理装置	0.060653 0.498203 0.228212 0.092213 0.537888 2.820322 -1.493668 -0.578042 -0.427031 -0.052224 -1.343031 -0.506818 0.265128 -1.145101 -0.921515 -0.511179 -0.495550 -1.746068 -0.709728 -0.716443 2.461782 0.862881 0.551518 0.155195 0.215575 -0.154655 -0.478490 0.628825 0.785290 0.899049 -0.096975 -0.645629
一种跨导运算放大电路及滤波电路	0.945638 2.574874 -3.199464 0.325607 -1.395087 -1.314037 -0.988972 0.394017 0.069733 -2.693937 -0.758736 -0.750198 0.517049 1.062433 4.758133 -0.129958 1.676280 1.260613 0.940871 0.098232 -0.522557 -2.155167 -0.585132 1.407296 -0.039188 -1.631172 0.533016 -0.673799 -0.723499 -0.982443 -0.657008 -0.122014
一种听诊信号处理系统	-2.591559 -0.630244 -3.881709 -2.205791 -1.331844 0.343699 -1.262306 -1.734375 1.500615 2.103913 3.068450 1.347916 0.681455 -0.535600 0.971495 1.998474 0.499123 0.104859 -1.375992 -4.548173 -2.172426 -1.546628 -1.273852 -0.494335 0.001594 -1.990866 -1.582841 -3.609656 -4.094833 4.762414 1.850774 -0.412202
一种心电数据异常检测方法、装置、设备及存储介质	-0.664550 -2.983295 0.976075 0.011014 0.243066 -0.664161 0.081031 -0.052162 0.881978 -2.360746 -1.455477 -1.621164 -0.415603 0.342953 -0.372591 1.440089 -1.006092 0.638782 -2.526961 0.762937 0.445127 -0.001515 1.897654 -2.968258 0.068885 3.831101 1.596717 -0.704362 0.384772 -2.376083 0.933570 -2.067985
一种GPU服务器的隔离供电板	-0.175700 -0.047596 -0.820463 -0.010001 0.428903 -0.113730 -0.294890 -0.217317 0.602512 0.241727 0.300456 0.498804 0.023295 -0.020756 0.491961 0.559777 0.137407 -0.305217 1.200531 0.689131 0.710717 0.037324 0.838202 -0.304396 -0.967718 0.112039 0.697617 -0.762244 0.391415 0.356243 -0.602228 0.328906
心跳间期检测方法及装置	-1.867818 -1.128906 1.724347 -1.052893 -0.240755 1.048850 -1.222442 -1.416083 0.548658 0.590421 0.130249 0.822808 -1.541283 -1.625902 0.774091 1.495781 -0.686128 -1.177199 -0.885171 0.050319 0.079115 -0.093228 -0.366302 1.165664 -1.577859 1.097087 0.134669 -2.174751 -0.021795 3.071184 -0.347782 0.233114
一种基于生理状态评估的分期调控方法	-0.211739 -0.399752 -2.106641 -1.330342 -1.137803 -1.873851 -1.236719 -0.726620 0.849091 -0.164867 0.737183 1.529400 -0.503069 -0.832661 0.327934 0.831157 -2.184847 0.847475 -1.141821 1.132629 -0.225584 -0.752779 -0.145058 -1.093855 -0.022559 1.299066 -0.091313 -1.057512 -0.731330 -1.896204 -0.470302 0.355481
一种铜箔轧制油及其制备方法和应用	-1.485942 1.316328 -2.370488 -1.797718 0.731839 -1.546434 0.376294 1.060620 -1.503833 0.608974 1.068682 -1.501181 0.546788 0.232533 3.134459 -2.092617 -0.636692 0.945962 1.832512 0.448043 -3.177238 -1.043036 0.201714 -0.105899 -2.450451 -1.380788 -0.614161 0.111716 -2.114979 -0.367773 0.541327 0.378705
一种对称式低噪声隔离分配放大电路	-1.557904 2.407875 -2.292999 0.447951 1.158832 -2.931121 -1.728611 -1.642350 -0.194866 -1.891270 -0.277452 -1.120897 0.131656 -3.203033 0.878017 1.014656 -1.710038 -3.104646 -0.031769 0.636093 -0.302689 1.237457 1.602355 1.818282 0.987749 3.595200 -0.738057 -1.035127 -1.253899 -3.069569 -0.610397 0.063351
一种房颤转子位点的识别方法及系统	-0.348202 -0.591300 0.402571 -1.340206 0.183814 -0.436493 -0.661701 0.319942 0.540169 -0.954196 0.952261 -0.299260 0.390519 -0.677182 1.286211 0.142035 0.121537 0.994301 -1.005014 -1.167830 -1.266432 -0.848543 -1.102941 -0.581857 0.885712 -0.983086 0.104018 -0.210903 1.418349 0.297178 0.805350 -0.018356
提取弱信号并抑制强干扰信号的装置及方法	-0.073756 -0.965511 -0.166328 1.366202 0.748300 1.161677 0.042721 0.839761 0.232729 1.069077 -0.817056 -2.406448 1.416132 -0.600686 -1.771019 -0.541625 -0.182590 -0.891616 -0.330987 0.367147 2.881878 1.754343 0.330702 1.209176 -1.178079 -1.767830 -0.877817 1.252696 1.212207 -0.624575 0.191931 0.126549
一种光学高效芯取磨边液	0.301614 -2.720763 1.193780 1.082066 -0.160271 1.146958 -1.086287 4.295896 2.254232 4.407110 0.567821 -2.268426 -2.961736 -0.479027 1.254361 -2.040779 -3.407363 -2.406487 -0.438189 0.991186 -1.426262 0.932952 0.817039 2.063186 2.113863 0.342979 1.957093 4.416403 2.447811 2.180021 0.102174 0.847810
利用再生废矿物油制备润滑油组合物的方法	0.678036 0.752095 -2.402628 -0.735624 -1.740377 -0.613122 -1.153551 0.098495 -1.407684 -0.425099 0.965371 1.456204 -0.857423 -2.050088 3.724147 -0.176307 1.634895 1.155531 -0.618763 -2.348227 -2.070227 -2.917488 -1.441783 0.543730 -0.019561 -3.186963 -0.968043 1.829304 0.110681 -0.785210 -0.810771 -0.461808
一种放大电路和包括其的放大器	0.295269 0.262805 0.092888 -0.329062 -1.719922 -0.612250 2.402417 1.492844 -1.837248 0.007470 1.543594 0.024351 0.255762 0.467683 -0.597311 0.753362 -0.404320 -0.408479 -0.292728 0.432171 1.198193 -0.987462 0.507119 -1.185540 0.571558 -0.964624 0.670853 0.376962 1.436002 0.754658 -0.179512 1.889426
一种心电图动态实时分析数据中典型数据的识别方法	1.198028 0.947160 0.146508 -0.737422 -2.318780 -1.334062 0.229433 1.644958 -2.196325 -1.800726 1.585985 1.969428 -0.789253 -0.347618 3.024128 -0.629929 1.507463 2.188737 0.443828 -2.283576 -2.449276 -2.035664 -1.441292 -0.651563 0.641323 -1.386625 0.186629 2.239259 0.160959 -2.071082 -0.514573 -0.896371
一种环烷基馏分油中压加氢制低芳变压器油的方法	4.406271 0.907366 -1.313820 0.245508 -1.435159 -2.014211 -0.742449 -0.752953 3.783707 -0.655569 -0.097096 -0.715585 -0.816391 0.425850 2.728417 1.677042 1.482100 -0.349563 -3.489027 1.510624 -0.512995 2.390893 0.198857 0.953504 2.388927 -0.495894 -1.210308 1.042668 1.508595 -0.558914 -0.009839 -1.936914
一种基于时频分析的心电信号分析方法	0.140942 -0.214865 0.615449 -0.531021 0.584519 -0.394580 2.076685 0.285749 1.499761 0.559704 1.019156 -0.906449 -0.026889 0.648622 -1.197481 1.175568 -1.367048 -0.819004 -0.000558 -0.487222 1.167084 2.127554 2.078492 -0.942313 1.513810 -1.012316 -0.561904 -0.858306 -0.293282 -1.328697 0.297395 0.163317
一种低碳烯烃经聚合直接合成高性能低粘度基础油的工艺方法	-0.671864 0.963116 -1.003995 -0.433673 -1.645526 -1.353841 -1.787252 0.819303 -0.856884 1.022646 1.775427 -1.928213 -0.845745 -0.775121 1.779423 -0.506242 -1.846329 0.001087 -1.707550 -0.507239 -2.569680 1.330772 -1.110860 1.627605 -3.299449 -1.947436 -0.246509 -0.084990 2.114268 4.206964 1.332492 0.948161
一种基于CPLD的多节点服务器的电源控制系统及方法	-0.268717 -1.975981 -0.485108 -2.598595 -1.176118 -2.608794 -1.814608 2.744647 -0.146287 -1.634566 0.022232 -1.024789 1.128147 -0.867535 2.282301 -0.288886 -2.109153 0.992188 -0.875051 -1.118659 -1.170862 -1.962226 0.174910 -0.841386 -1.607512 -1.591194 1.267233 1.561970 3.126475 1.052276 0.313022 -0.222078
一种多尺度膨胀卷积残差密集网络的心电信号降噪方法	-1.497470 -2.923204 0.185575 -1.262111 0.434882 -0.534353 -1.210942 -0.858933 1.891058 1.730495 -0.746253 -0.206406 1.835638 -1.389764 1.058617 -0.410750 -1.198499 0.306922 0.728904 0.397585 -0.967890 0.023099 0.024066 0.169798 0.225881 0.922994 -0.568150 0.283734 -0.796002 -0.952785 1.306638 0.545445
一种特高频放大器模块	0.081986 -1.784103 -0.724159 -0.947031 -1.061489 -1.676922 1.021400 1.051947 -1.189066 -1.983201 -1.284712 -2.418473 -0.795186 0.072878 3.208015 -0.014647 0.295753 0.572295 0.070063 -1.424733 0.438081 -4.639232 -1.140242 0.580434 0.083963 -2.049024 0.666031 0.167714 1.988753 -0.774664 0.943208 1.347528
获取光电二极管的击穿电压的电路及方法	-0.969875 0.223469 -0.462743 0.016766 0.947590 1.153331 -1.075673 -0.834158 1.021653 0.941876 -0.507868 -0.691310 -0.147908 1.118759 -1.570467 -0.591853 0.347880 -0.645265 0.659220 -0.415580 2.179779 0.111233 -0.279980 1.266155 0.659502 -0.273777 -0.080071 -0.240227 -0.888300 -1.197780 2.220622 0.226739
一种适用于可穿戴设备的ECG信号检测电路	-0.511065 -0.683854 1.037968 0.274845 -0.554507 -0.727736 0.204252 1.006150 0.046573 -0.579723 0.702335 1.083012 -1.450696 -0.049327 -0.152189 0.739568 -0.053252 0.897448 0.379301 -0.490246 -0.560824 -0.659900 -0.329987 0.015223 -0.145762 0.047389 0.979103 0.001788 1.318845 0.982456 -1.246304 -0.307302
自动调节服务器电源均流的方法、装置、终端及存储介质	0.162462 0.379379 0.741899 1.203839 0.276194 1.078504 0.457716 -0.361593 -0.473827 -0.775255 0.445974 0.466403 -0.172295 0.330468 -1.050114 0.499835 0.420229 0.028571 -0.006264 0.142051 1.311493 0.031101 -0.008667 -0.735462 -0.246276 0.715467 0.034523 -0.023616 1.129727 0.755259 0.214193 -0.092120
一种基于EEG、BVP和微表情的潜在情绪识别方法	0.994698 -1.255743 1.527349 0.493706 0.880448 0.558203 0.673827 -0.118975 1.057599 1.313836 -1.005153 0.235229 0.639678 0.530325 -1.539637 0.160662 -0.576897 -0.551475 1.522229 0.082285 1.987359 2.327747 -0.023709 -0.593520 0.467797 0.349565 -1.140698 -0.310717 0.807395 -0.887079 1.637679 0.829683
一种心电信号分类方法、装置及程序产品、存储介质	0.300780 1.289806 1.016309 0.449061 -0.530422 -0.067791 0.283240 1.624456 -0.429649 -2.509040 -0.468379 -0.217693 -1.061607 0.018161 -1.082419 1.702182 1.158903 1.132667 2.063531 -0.623446 -1.111499 -0.662740 1.733447 -0.457821 -0.327742 0.599559 -0.363496 -0.460726 -0.204386 -0.397730 -0.056168 -0.673677
具有接地电位差补偿的通信设备和系统	0.059904 0.024527 -0.943584 0.164087 -0.465244 -1.462565 -0.917485 0.740561 -0.994032 -0.843211 0.160081 0.552298 0.300092 -1.185206 1.494708 0.586153 0.447881 0.121246 1.163568 -0.733438 -1.306061 -1.618411 -0.548959 -0.627749 -0.009631 -0.561693 -0.486371 0.863544 -0.351144 -1.041600 0.088466 -0.098807
心电信号滤波方法、装置、计算机设备及存储介质	1.874266 0.382606 -0.354022 -0.830073 -0.293509 0.568418 1.000381 0.769669 0.058767 0.168345 1.101751 -0.154479 1.346616 0.500331 0.087657 0.025772 -0.684079 1.074479 -0.769436 2.303930 -0.197856 -1.595409 0.213143 -0.390078 -0.629465 0.179205 -1.020388 -1.163761 -1.324983 2.383851 0.588021 -0.178291
多参数集成麻醉监测与分析系统	0.518164 0.930909 -2.587785 -0.489403 1.161784 -1.630141 -1.709310 -0.341868 1.233032 -1.126720 1.225867 -0.591102 0.701031 1.147176 -0.462154 1.042728 -0.626470 1.035167 -2.149711 3.167542 -0.102563 -3.168918 -0.601469 0.323878 -2.703374 -1.779927 0.048828 -0.730546 0.846635 1.751220 -0.957479 0.677288
基于注意力机制的12导联心电图整体分类方法和装置	-0.901431 -1.065507 -0.272806 -0.806581 -0.433959 0.047148 -0.304224 0.183663 0.869441 -0.953980 -0.152608 0.347110 0.359816 -0.082847 0.673968 0.498393 -0.154056 0.514578 -0.007710 0.364798 0.025100 -0.005937 -0.401268 -0.161911 -1.346547 0.475578 0.907960 -0.378595 1.144998 0.696301 0.229360 0.092023
一种心电信号基线滤除方法及装置	1.060985 -0.905553 0.230441 0.012201 0.733073 -2.545350 -0.667584 0.012997 -1.879271 -0.242923 -0.766593 -1.009082 0.533129 -0.765224 -0.201530 -0.353057 0.045858 -0.460408 0.418050 0.413730 0.373606 -0.075868 1.215120 -0.017822 -0.781536 -1.913359 -0.072589 -0.033612 0.868257 0.535449 0.684849 0.306389
