一种服务器备用电源及服务器电源	0.19569842517375946 -0.04079701378941536 0.27555403113365173 0.09335998445749283 0.17667478322982788 -0.3290666937828064 -0.08301132917404175 -0.08185305446386337 0.17342129349708557 0.24664901196956635 0.10889046639204025 0.1330438256263733 0.43338993191719055 -0.2677411437034607 0.15202490985393524 -0.17269831895828247 -0.002026651054620743 0.1261053830385208 -0.1634863018989563 -0.3939295709133148 -0.6789089441299438 0.19953781366348267 -0.10398790240287781 0.11610749363899231 -0.43063297867774963 -0.24843406677246094 0.0013100506039336324 0.06614834815263748 0.12474387139081955 -0.03203509375452995 0.25765618681907654 -0.48063480854034424
一种基于多维度生理信息的心脏健康监护系统	-0.11363907158374786 -0.15693730115890503 -0.1479770392179489 -0.04162924736738205 -0.15444982051849365 -0.10329830646514893 0.06129350885748863 -0.018951425328850746 0.03660940006375313 0.059891633689403534 -0.12983180582523346 -0.02563958242535591 -0.009440409019589424 0.1994815617799759 -0.226920023560524 -0.057720381766557693 0.16500253975391388 0.20311856269836426 0.18613474071025848 0.059126365929841995 0.258776992559433 -0.05572972819209099 0.020774133503437042 0.0018722766544669867 0.04558651149272919 0.3741178810596466 -0.009248738177120686 -0.10404986888170242 0.02774021402001381 -0.0067969681695103645 -0.049404896795749664 -0.05940597504377365
一种消除直流失调电压全差分运算放大器电路	0.05016079545021057 -0.020597657188773155 -0.049239225685596466 -0.1464194655418396 -0.15281032025814056 -0.3129824101924896 0.15654398500919342 0.0010945340618491173 -0.11261563748121262 -0.10159393399953842 -0.1531820446252823 0.25303325057029724 0.031527142971754074 -0.1017044186592102 0.08635628968477249 -0.09735097736120224 -0.09082882106304169 -0.0578305758535862 -0.2741418182849884 -0.34390729665756226 0.14143504202365875 -0.029021959751844406 -0.2756003439426422 0.09821941703557968 0.25395336747169495 0.07639341801404953 0.04177825152873993 -0.10872860997915268 -0.16840185225009918 0.21707089245319366 0.3010560870170593 -0.05764258652925491
引脚编码模式选择系统	-0.14712871611118317 -0.11835131794214249 0.24298834800720215 0.014348724856972694 0.26234084367752075 0.21847271919250488 0.007131143473088741 0.0446329228579998 -0.3114415407180786 0.0780058205127716 -0.06400947272777557 0.2360624223947525 0.19909732043743134 -0.556579053401947 0.014489494264125824 -0.007236927282065153 0.06031932309269905 0.24020208418369293 0.10718810558319092 -0.0670507401227951 -0.3344767987728119 0.010584987699985504 -0.03040533885359764 -0.09975191205739975 -0.13600751757621765 -0.2291012853384018 -0.3171561360359192 -0.0915108174085617 -0.05021931976079941 0.02100607007741928 -0.1863251030445099 0.10718098282814026
立式磨专用齿轮油、加工方法和装置	-0.08817094564437866 -0.29773104190826416 0.009066009894013405 -0.00769050233066082 -0.03647444769740105 -0.10501612722873688 -0.10238716006278992 -0.04463215917348862 0.22251270711421967 -0.2347135841846466 -0.03720294311642647 0.3874615728855133 0.28197792172431946 -0.1932201385498047 -0.1042974516749382 0.046727925539016724 0.09004402160644531 0.2855724096298218 0.023547742515802383 0.14451488852500916 -0.24896980822086334 0.1013026311993599 -0.15230809152126312 -0.05903303250670433 -0.09803762286901474 0.18599790334701538 -0.48017972707748413 0.03262532502412796 -0.10045286267995834 -0.11844319105148315 -0.11825340241193771 -0.0054091583006083965
一种备电保护的控制方法、系统及相关组件	-0.11177823692560196 0.3385085463523865 -0.04245208203792572 -0.13867223262786865 0.09950229525566101 0.07358898222446442 -0.03389529511332512 -0.030387822538614273 0.06815894693136215 -0.3755156695842743 -0.17359621822834015 -0.25437891483306885 -0.2503637671470642 0.1657668650150299 -0.09423525631427765 0.3546876907348633 -0.052428968250751495 0.20905131101608276 0.057005636394023895 0.47330442070961 -0.3157676160335541 0.22296684980392456 -0.018984775990247726 -0.015331028960645199 -0.0024103140458464622 -0.07039002329111099 -0.3328087329864502 -0.43324750661849976 -0.1103903204202652 -0.048552315682172775 -0.0016200295649468899 -0.23122334480285645
基于运算放大器的低噪声精密放大电路及其性能改进方法	0.07765648514032364 0.19699691236019135 -0.204545795917511 -0.275677889585495 -0.31556323170661926 -0.1796649843454361 0.04763948544859886 -0.04122216999530792 0.2680817246437073 -0.04546748846769333 0.15078723430633545 0.14005057513713837 -0.42452725768089294 0.15728777647018433 -0.18607579171657562 0.38703805208206177 -0.03045806847512722 -0.10948842763900757 0.48582157492637634 -0.13159799575805664 0.24849861860275269 0.05414188280701637 0.16448719799518585 -0.15578784048557281 -0.28337401151657104 0.026138698682188988 -0.025316491723060608 -0.028477739542722702 0.12814681231975555 0.000455871457234025 -0.15396155416965485 0.30164867639541626
一种基于ECG信号的睡眠自动分期方法	-0.03300875052809715 -0.05796290561556816 -0.14537717401981354 0.07304395735263824 0.08970236033201218 0.0328141413629055 -0.02446483075618744 0.05366375669836998 -0.19921047985553741 0.015510153025388718 -0.029805002734065056 0.40261662006378174 -0.5142427086830139 -0.032990556210279465 0.23696091771125793 -0.07932286709547043 0.08036183565855026 -0.10459350049495697 0.17418228089809418 0.03649801015853882 0.14673157036304474 0.15786677598953247 0.006389218382537365 0.15436425805091858 -0.11070363968610764 -0.0693395659327507 0.0722033828496933 0.09734433144330978 -0.06487120687961578 0.21737562119960785 -0.09533410519361496 0.13206146657466888
单端转差分放大器和射频接收机	0.005891582928597927 -0.16401058435440063 0.03419838845729828 -0.12447299063205719 -0.05451439321041107 -0.5812692046165466 -0.2615230083465576 -0.033877041190862656 -0.015242213383316994 0.225287526845932 -0.3017386794090271 -0.040381092578172684 -0.13587410748004913 -0.005033665336668491 -0.6584243178367615 0.03903724253177643 -0.10964429378509521 0.4991702139377594 0.1328245997428894 0.4858526587486267 0.2158779501914978 0.2871682047843933 -0.1906786859035492 -0.08248018473386765 0.25307682156562805 0.020785005763173103 -0.332828164100647 0.040024533867836 0.07411771267652512 -0.14106282591819763 0.1782446652650833 -0.16391071677207947
润滑油基础油、含有该润滑油基础油的润滑油组合物和使用了该润滑油组合物的无级变速器	0.17964433133602142 0.11916044354438782 -0.06689359992742538 -0.1491113007068634 -0.09789881855249405 -0.08654060959815979 0.03384704142808914 0.033396851271390915 -0.29583314061164856 -0.060309648513793945 -0.03759871795773506 0.07499035447835922 0.04095350205898285 0.26539039611816406 -0.2535708248615265 0.04659673944115639 0.07484031468629837 0.37733206152915955 0.04060075059533119 -0.3086492419242859 0.13036887347698212 -0.021203508600592613 -0.09129584580659866 0.044697098433971405 -0.01607414335012436 -0.07014521956443787 0.2893858253955841 -0.19750015437602997 -0.06674119830131531 0.058847539126873016 0.11530333757400513 -0.030104797333478928
配合二氟甲烷制冷剂使用的冷冻机油组合物及其应用	0.015532363206148148 0.18714144825935364 0.020442022010684013 -0.26004156470298767 -0.07096125930547714 0.0674043595790863 0.011631905101239681 0.039640843868255615 0.2734808623790741 -0.05096307769417763 0.006479029078036547 -0.15031254291534424 0.0750860646367073 -0.19272774457931519 -0.17599745094776154 0.22056405246257782 -0.30535799264907837 0.48745718598365784 -0.11616960167884827 -0.15517614781856537 -0.08282484114170074 -0.18393723666667938 -0.34357815980911255 0.1461624801158905 -0.19180865585803986 -0.2842867970466614 0.1919538527727127 -0.4487683176994324 0.133175328373909 0.10273277759552002 0.03527024760842323 -0.18146024644374847
一种可控增益带通滤波放大电路及自动增益控制方法	-0.24511943757534027 -0.10573834925889969 0.04521762579679489 -0.03313266858458519 0.21804489195346832 0.03715325519442558 -0.28829243779182434 0.02357342839241028 0.051337890326976776 0.12651075422763824 0.10240642726421356 -0.07310907542705536 -0.07825282961130142 -0.10379619151353836 0.2957652509212494 -0.18061663210391998 0.2683475613594055 -0.2686140537261963 0.0047312211245298386 -0.08141499012708664 0.11510171741247177 0.32053083181381226 0.45122385025024414 0.07174647599458694 -0.0039503611624240875 -0.08274728804826736 -0.310508668422699 0.025981608778238297 -0.30562180280685425 -0.0064685652032494545 0.12406737357378006 0.16562946140766144
超宽带低噪声放大器	-0.06392017006874084 -0.22921015322208405 0.039461731910705566 0.16956737637519836 0.09013346582651138 -0.022066906094551086 -0.3131466209888458 0.03667048364877701 -0.3402843773365021 0.030833186581730843 0.016388066112995148 0.03405991569161415 0.3216833770275116 0.2965293228626251 -0.11082115024328232 -0.4978228211402893 0.13674244284629822 0.5315974354743958 -0.21955452859401703 -0.263920396566391 0.3716643750667572 -0.12168142944574356 -0.20307330787181854 -0.14079201221466064 -0.06611562520265579 0.30371204018592834 0.16176444292068481 -0.1103333830833435 -0.27527916431427 -0.05621210113167763 -0.2514287233352661 0.1508561223745346
D类功率放大器电路	0.011409849859774113 0.02251054160296917 -0.1075667068362236 -0.015483465977013111 0.05700163543224335 0.03833773359656334 -0.09295987337827682 -0.018146563321352005 -0.03941476717591286 0.015598899684846401 0.01872185990214348 0.17713753879070282 0.23494265973567963 0.054420679807662964 -0.08893715590238571 0.27042457461357117 0.033355358988046646 0.10583659261465073 -0.000784462783485651 -0.024794356897473335 -0.32665836811065674 0.05684090778231621 -0.026741664856672287 -0.1363423615694046 -0.020544832572340965 0.04488549754023552 -0.11934244632720947 0.047070518136024475 -0.09679441154003143 -0.15691699087619781 0.0669250562787056 -0.09286627173423767
粘度指数改进剂组合物和润滑油组合物	0.07266060262918472 0.06382009387016296 -0.024330977350473404 0.05963769555091858 0.015417594462633133 0.16512559354305267 0.17758823931217194 0.06053725630044937 0.24249202013015747 -0.207380011677742 0.05609280243515968 0.2309255450963974 0.3047443628311157 0.10537867993116379 -0.20203299820423126 0.12995003163814545 -0.14211589097976685 -0.23654696345329285 -0.06441190093755722 0.16542983055114746 -0.10187254846096039 0.1193242147564888 0.16409780085086823 0.22501955926418304 0.0069715771824121475 0.06438016891479492 0.05080174282193184 -0.03849022462964058 0.022215338423848152 0.03872613236308098 -0.0696692168712616 0.1865292340517044
一种心电图的诊断结论自动诊断方法及系统	0.05861865356564522 -0.10079538822174072 -0.04904665797948837 0.0646282359957695 0.1830735057592392 -0.20542609691619873 0.1009650006890297 0.02068093791604042 -0.12222976237535477 0.2115444540977478 -0.18704716861248016 -0.2121877521276474 0.026177065446972847 -0.188286691904068 -0.026246095076203346 -0.14378060400485992 0.07512342184782028 0.32810598611831665 0.1719483733177185 0.10903745144605637 -0.23330415785312653 0.19177313148975372 0.09213851392269135 -0.1328762322664261 -0.07453561574220657 -0.062116462737321854 -0.020428583025932312 -0.04405006393790245 -0.09493808448314667 0.14271192252635956 -0.03820047155022621 0.07453737407922745
基于形态学滤波和小波阈值的心电异常判别系统及方法	-0.012061135843396187 0.4600369334220886 -0.020803920924663544 -0.48764050006866455 -0.14300480484962463 -0.02065514214336872 0.04327090457081795 -0.09403666853904724 0.5360265970230103 0.10257145017385483 0.0767255499958992 -0.1690703183412552 -0.12580327689647675 -0.3515808880329132 0.045015621930360794 0.4120137393474579 0.20267751812934875 0.19419482350349426 -0.03626637905836105 0.04142458736896515 0.31283366680145264 -0.021547354757785797 0.07956523448228836 -0.23433439433574677 -0.03707467392086983 -0.24058853089809418 -0.04268231242895126 -0.06617774814367294 0.06337248533964157 0.15106303989887238 -0.1600741147994995 0.17449802160263062
安全控制器	0.23541803658008575 0.053094349801540375 0.231766477227211 0.061834048479795456 0.017413293942809105 -0.210733100771904 0.01973530650138855 0.07898478955030441 -0.08246126770973206 0.046744879335165024 -0.11939174681901932 0.07500162720680237 0.262939989566803 0.12518680095672607 -8.672953117638826e-05 -0.4930683374404907 -0.013226822949945927 0.4596920907497406 -0.03644581139087677 -0.21310462057590485 -0.23969979584217072 -0.25944897532463074 -0.1856522262096405 -0.2152981162071228 -0.06592404842376709 -0.48688405752182007 -0.1579013466835022 0.37924742698669434 -0.028519582003355026 -0.0010474296286702156 -0.047921910881996155 -0.03342001140117645
基于图卷积神经网络和迭代阈值收缩算法的心脏跨膜电位重建方法	-0.13513965904712677 0.031953588128089905 0.12742683291435242 0.26203644275665283 0.10828525573015213 0.1163599044084549 -0.02728874608874321 -0.0064988103695213795 -0.18508103489875793 -0.27172014117240906 -0.23650091886520386 0.23403462767601013 0.07193935662508011 -0.030115198343992233 -0.1774010807275772 -0.2018764466047287 -0.012574959546327591 -0.12894147634506226 0.03686899691820145 0.20195046067237854 -0.150948628783226 0.19992785155773163 -0.09064117819070816 -0.09521127492189407 -0.22479242086410522 -0.2394898235797882 -0.12311676889657974 -0.0013966611586511135 -0.08845549821853638 -0.14037065207958221 -0.20735953748226166 0.04990353062748909
一种分类方法、系统、电子设备及存储介质	-0.03284727782011032 0.17422540485858917 0.19559726119041443 -0.12334907054901123 0.19037547707557678 -0.007561389356851578 -0.15993939340114594 -0.07722526043653488 0.3647089898586273 -0.16520215570926666 -0.0810716450214386 0.2820502817630768 0.18280218541622162 -0.010775177739560604 0.12058307230472565 -0.07341112196445465 -0.08321807533502579 -0.0013818977167829871 0.10781490802764893 -0.10298846662044525 -0.3738093078136444 0.33772173523902893 0.008840551599860191 0.009369323961436749 0.03702237457036972 0.2019653022289276 -0.3045196235179901 -0.06060101464390755 0.06863755732774734 -0.1569214165210724 0.3074598014354706 -0.2171783298254013
一种降低计算机主板待机功耗的控制方法、电路及其系统	0.07899769395589828 0.17739906907081604 -0.01136668212711811 -0.00463126040995121 0.03208788111805916 -0.10083972662687302 -0.14552582800388336 0.034617830067873 -0.1168813481926918 0.09500015527009964 -0.07005327939987183 0.1527928113937378 -0.04737340286374092 0.1959502100944519 -0.023147426545619965 0.14841541647911072 -0.04074825346469879 0.13093449175357819 0.003334003034979105 0.07393703609704971 -0.32485735416412354 0.028842885047197342 -0.07753269374370575 -0.020372487604618073 0.04745488986372948 0.09005334973335266 0.042255762964487076 0.19552631676197052 0.26017212867736816 -0.0854158028960228 0.14136068522930145 0.002914365381002426
一种快速筛选具有临床诊断价值的心电图的方法与装置	-0.12001189589500427 -0.12631334364414215 -0.05198659375309944 0.23064564168453217 -0.024411732330918312 0.003992144018411636 0.13677909970283508 -0.03339417278766632 -0.10821392387151718 0.015657983720302582 -0.14293411374092102 0.035153742879629135 0.25935277342796326 0.25352582335472107 -0.17186744511127472 0.09678049385547638 -0.04761909320950508 0.19245027005672455 0.034242771565914154 0.0831688866019249 0.00374154606834054 0.15026156604290009 0.004332743119448423 -0.25199955701828003 0.08056193590164185 0.15911488234996796 -0.12506939470767975 -0.1020931750535965 0.026591405272483826 0.06231706216931343 -0.16180549561977386 -0.20935341715812683
用于润滑脂和润滑剂应用的聚烯烃组合物	0.007246644701808691 0.11998333036899567 0.12301671504974365 -0.14502495527267456 -0.02489708922803402 -0.10384010523557663 0.03327541425824165 0.010119115002453327 -0.004902790766209364 0.11538930237293243 -0.17001895606517792 0.10793635249137878 0.09772153943777084 -0.07178228348493576 -0.0889355018734932 0.05698283389210701 -0.017634963616728783 0.13424599170684814 0.26789435744285583 -0.2613690495491028 0.08151868730783463 0.03350657597184181 0.09257052093744278 -0.016399981454014778 -0.028030894696712494 -0.04735994338989258 -0.1456025242805481 -0.1761271357536316 -0.05369068682193756 0.07264428585767746 0.09949229657649994 -0.06587409973144531
一种用于心电数据分析的反混淆叠加方法及装置	0.1302001178264618 0.3040008246898651 -0.26442021131515503 0.013099114410579205 -0.10775261372327805 0.200027734041214 -0.054485004395246506 -0.0648399069905281 -0.029540784657001495 -0.13201823830604553 0.05724494904279709 0.11033052951097488 0.07737826555967331 0.24736304581165314 -0.028160572052001953 0.11569268256425858 -0.1886557787656784 -0.11129550635814667 0.07439134269952774 0.34514889121055603 0.10495374351739883 0.24605773389339447 -0.02049480378627777 -0.057697977870702744 -0.09427513927221298 -0.07576790452003479 0.09601712971925735 -0.0015721633099019527 0.23997855186462402 -0.010802053846418858 -0.13970786333084106 0.025081928819417953
一种多车型通用无级变速箱油及其制备方法	0.24537713825702667 0.07266665995121002 0.039846569299697876 0.06050432473421097 0.059826768934726715 -0.2864014506340027 -0.15509295463562012 0.04918942600488663 -0.27147895097732544 0.3047952353954315 -0.1720409095287323 0.08631737530231476 -0.14390026032924652 0.1921662986278534 -0.14465467631816864 -0.10672139376401901 -0.2502724826335907 1.0177596807479858 -0.15870946645736694 -0.17393295466899872 0.17645592987537384 -0.19574470818042755 -0.0565483495593071 -0.13875988125801086 0.014094272628426552 0.21226797997951508 -0.03791089728474617 -0.018601588904857635 0.17686112225055695 0.17622332274913788 0.09034281969070435 -0.06434851884841919
一种棒状阀杆密封剂组合物及其制备方法	-0.029840635135769844 -0.021603530272841454 -0.14566980302333832 -0.2144457846879959 0.0861978605389595 0.030304979532957077 0.12118493020534515 0.059395067393779755 -0.0611022487282753 -0.02132517285645008 0.08183188736438751 0.11209990084171295 -0.5217682123184204 0.1153220385313034 0.20140931010246277 0.4117272198200226 0.006165532395243645 -0.05297201871871948 0.10372049361467361 -0.11727822571992874 -0.22811271250247955 0.25708919763565063 -0.1521807760000229 0.4132799804210663 0.1106162965297699 -0.09780904650688171 0.3128548562526703 -0.08972004055976868 -0.123282790184021 0.3092149794101715 0.19036738574504852 0.13470397889614105
基于金字塔型卷积层的心电信号深度神经网络建模方法	-0.21848201751708984 -0.15320391952991486 0.06742298603057861 0.01052438747137785 -0.2606659233570099 0.22493882477283478 -0.006433409638702869 0.009172886610031128 -0.16429302096366882 -0.1909549981355667 0.10147206485271454 0.34084954857826233 -0.07868029177188873 0.3895585834980011 -0.3003559708595276 0.17804710566997528 -0.11783520877361298 -0.07624344527721405 0.07349579781293869 0.08442868292331696 0.1055603176355362 -0.5074718594551086 -0.009770344942808151 -0.281709760427475 0.019258461892604828 -0.3180875778198242 -0.13329197466373444 -0.07204113900661469 0.18458721041679382 -0.26383310556411743 -0.45396000146865845 0.06490280479192734
一种多视角转换的心电信号数据增强方法	-0.08104922622442245 0.030696993693709373 -0.07086334377527237 -0.0967620238661766 0.06617798656225204 0.176090806722641 0.04938234016299248 -0.014614704996347427 0.17854870855808258 -0.13661594688892365 0.065557561814785 -0.24291062355041504 -0.12784762680530548 0.07256827503442764 -0.030029429122805595 -0.008028203621506691 0.016081957146525383 0.04194999858736992 -0.0718453973531723 0.2823023498058319 0.309015691280365 0.17935258150100708 0.19848328828811646 -0.20125949382781982 -0.02795678935945034 0.2283739298582077 0.00598318874835968 -0.19796021282672882 -0.12271340191364288 -0.11202862113714218 -0.11636137217283249 0.18028424680233002
缺失导联的心电数据的分类处理方法、装置及存储介质	0.07316233962774277 0.13284911215305328 -0.24402014911174774 0.13000290095806122 -0.12830504775047302 -0.021412964910268784 -0.19602565467357635 -0.0449247770011425 -0.060090649873018265 -0.06865420192480087 -0.06954456120729446 0.1571590006351471 -0.043490614742040634 0.5302433371543884 -0.2911575138568878 -0.07254291325807571 -0.22789651155471802 0.1719125509262085 -0.10907391458749771 0.20370632410049438 0.11895592510700226 0.0463777631521225 0.08442635089159012 -0.08147856593132019 0.28043270111083984 -0.10958565771579742 -0.14581270515918732 0.0932091623544693 -0.06578072160482407 0.03201635181903839 -0.05623466148972511 -0.14598150551319122
皂氨酯润滑脂及其制备方法	0.07217587530612946 0.31652718782424927 0.04223872348666191 -0.0909271314740181 0.0995156541466713 -0.2107347995042801 -0.02617495507001877 -0.03481454774737358 0.13171756267547607 -0.022816650569438934 0.22243189811706543 -0.4689050614833832 -0.4486802816390991 0.21038925647735596 0.19470566511154175 0.25322872400283813 0.08938926458358765 -0.4355936646461487 0.2223612517118454 0.12592308223247528 -0.18244239687919617 0.19757667183876038 0.21607926487922668 0.04050584137439728 0.009474283084273338 -0.33376115560531616 0.115730881690979 0.07373061776161194 -0.12167093902826309 0.04926307499408722 0.20405077934265137 -0.009749206714332104
基于碳量子点的电流变材料的制备方法及电流变材料	-0.2337774783372879 -0.034328393638134 0.2774949371814728 0.21364754438400269 -0.22327633202075958 0.2762852907180786 -0.08266013115644455 0.0820138156414032 0.06223742291331291 0.017735695466399193 0.0920523926615715 0.007141418755054474 0.1924336850643158 -0.5865784287452698 0.09352660179138184 -0.4995722770690918 -0.4013253450393677 0.24030621349811554 0.03288930281996727 -0.26583367586135864 -0.21700486540794373 -0.2092609703540802 -0.2726849615573883 -0.1914607584476471 0.0695563405752182 -0.46068456768989563 -0.18296721577644348 0.18318095803260803 0.2579251825809479 0.08727573603391647 0.11270061135292053 0.16783888638019562
一种亲水型户外和潮湿地区离心泵专用油及其制备方法	0.255600243806839 0.26146113872528076 -0.06009906530380249 -0.09212720394134521 0.0150348711758852 0.04236968606710434 0.21836398541927338 0.03711164370179176 -0.2252696007490158 -0.2237793356180191 0.16667912900447845 -0.12564383447170258 -0.17353403568267822 0.1002889946103096 0.11923916637897491 0.012920117937028408 -0.1584574580192566 -0.14861652255058289 -0.03892284259200096 -0.1313755214214325 0.06340975314378738 -0.2609407603740692 0.012735077179968357 0.10414097458124161 0.040086109191179276 0.014391487464308739 0.2918361723423004 0.04437512159347534 0.3002222180366516 0.05870411917567253 0.40447184443473816 -0.17439764738082886
VPX供电设备	-0.09958534687757492 0.11728145182132721 0.0513891838490963 -0.02388090081512928 -0.1494920700788498 -0.0016074508894234896 0.09707243740558624 0.00915565062314272 -0.22017231583595276 -0.2611299753189087 0.08463597297668457 -0.10673902928829193 0.21946030855178833 0.0394401028752327 -0.14143510162830353 -0.11958222091197968 -0.10574766248464584 0.07668811827898026 0.030941225588321686 0.04616811126470566 0.11604774743318558 0.12310183793306351 -0.015906069427728653 -0.0035159136168658733 0.2378050535917282 0.21786174178123474 -0.05943605303764343 -0.11615381389856339 -0.16476568579673767 -0.06842677295207977 0.009419320151209831 -0.08451374620199203
一种新型金属切削液及其制备方法	0.053385451436042786 0.27689847350120544 -0.003853571368381381 0.029305489733815193 0.09765646606683731 0.08302071690559387 0.010616396553814411 -0.018280426040291786 -0.04277229681611061 0.02359974943101406 -0.024253536015748978 -0.2004610300064087 -0.1475352644920349 0.14451992511749268 0.11822585016489029 -0.008039932698011398 0.008484804071485996 0.18114471435546875 -0.015348214656114578 0.08185155689716339 -0.06079918518662453 -0.012771193869411945 -0.1635669618844986 0.01383171696215868 -0.15863075852394104 -0.19462691247463226 -0.06763917952775955 0.1542883813381195 -0.040508933365345 0.13469940423965454 0.11313556134700775 -0.2040918618440628
基于多尺度卷积和密集连接网络的心电信号质量评估方法	-0.557271420955658 -0.218209907412529 0.14647527039051056 0.014562812633812428 -0.31186869740486145 0.10617932677268982 -0.032105736434459686 0.02748720347881317 0.13492435216903687 0.0352756641805172 0.14889948070049286 -0.22467046976089478 -0.5122518539428711 0.13386373221874237 0.36638739705085754 0.1002948209643364 0.19214162230491638 -0.39094284176826477 0.07060547173023224 0.24591191112995148 -0.033035337924957275 0.3266671895980835 0.0468241348862648 0.012499048374593258 0.14152438938617706 0.10004037618637085 -0.093178391456604 -0.04969397932291031 0.1236889436841011 0.08198229223489761 -0.001726088230498135 -0.16536879539489746
融合深度和医学特征的基于序列标注的多导联心电信号分类方法	-0.027518318966031075 0.12907157838344574 -0.09659264236688614 -0.07758636027574539 0.08161984384059906 0.05999377369880676 0.15953241288661957 0.06202572584152222 -0.06883565336465836 -0.10997536778450012 0.07136306911706924 -0.038757938891649246 0.04026971012353897 0.02612621709704399 0.3051360845565796 -0.10990844666957855 -0.08626940846443176 0.022770119830965996 -0.16404305398464203 -0.4095035791397095 0.07784587889909744 0.134338840842247 -0.03533044829964638 0.09971997141838074 0.029754335060715675 -0.021012891083955765 0.3916098475456238 0.0447491854429245 0.1268802285194397 0.04728548601269722 0.4038826823234558 0.14512434601783752
UPS使用寿命的预测方法、设备及计算机可读存储介质	-0.10172338783740997 -0.06104320287704468 -0.14057621359825134 -0.05170096829533577 -0.030790628865361214 0.09497984498739243 -0.05793643370270729 -0.019866924732923508 -0.05598572641611099 -0.06017434969544411 -0.1111697107553482 0.23325161635875702 -0.012907115742564201 0.06725046783685684 -0.026426751166582108 0.001704608672298491 0.15692366659641266 0.177953839302063 -0.03299982100725174 -0.02486501634120941 0.0642348900437355 0.20149004459381104 0.031245814636349678 -0.3117232918739319 -0.1879408359527588 0.04868534207344055 -0.059989914298057556 -0.015376565977931023 -0.10851617157459259 0.05969017744064331 -0.19203704595565796 0.03659405559301376
心脏信号中噪声信号的检测	-0.011666061356663704 -0.026604915037751198 0.009373761713504791 -0.236007958650589 -0.0155014768242836 -0.1827879250049591 0.07601756602525711 -0.08606146275997162 -0.08673267066478729 -0.07084133476018906 0.053047552704811096 -0.2741397023200989 0.03563113883137703 0.10447399318218231 -0.13979989290237427 -0.11983785033226013 0.034666091203689575 -0.2158503532409668 -0.07939036190509796 0.09801731258630753 -0.12952068448066711 -0.29408717155456543 0.033454228192567825 -0.0329163484275341 0.1028214693069458 0.1471332609653473 -0.3324628174304962 0.19203893840312958 0.22029243409633636 -0.07976685464382172 0.15221455693244934 0.12031084299087524
一种低功耗超宽带低温低噪声放大器	-0.24261797964572906 -0.23087629675865173 -0.03656402602791786 -0.05151893571019173 -0.10762806236743927 0.028963152319192886 -0.12638230621814728 0.08863575756549835 0.362161785364151 0.033118706196546555 -0.09301386028528214 0.041686855256557465 -0.41161468625068665 -0.44845691323280334 0.11685485392808914 0.07293518632650375 0.012315168976783752 -0.04779829457402229 0.026443850249052048 0.30419662594795227 0.1497790366411209 0.5490448474884033 0.17063598334789276 -0.010442188940942287 -0.04023394733667374 0.1599145382642746 -0.24348576366901398 -0.09860659390687943 0.08372029662132263 0.15782225131988525 0.12876754999160767 -0.14528517425060272
一种电源冷冗余配置方法及装置	0.07803674787282944 0.013890611007809639 0.23101074993610382 0.16436821222305298 -0.08586391806602478 -0.12615184485912323 0.25371110439300537 0.010879497043788433 -0.10921068489551544 -0.32123157382011414 0.005404253955930471 -0.12998327612876892 0.28124141693115234 -0.16856712102890015 -0.0030893986113369465 -0.27961307764053345 -0.3233577609062195 -0.08286890387535095 -0.07580001652240753 -0.1157204732298851 -0.03247120976448059 -0.11966273188591003 -0.22887371480464935 -0.00493533443659544 0.056532155722379684 -0.1285332590341568 0.2731592357158661 -0.09554089605808258 0.11207412928342819 0.027350522577762604 -0.047859158366918564 -0.16749009490013123
服务器进入功耗封顶后实现整机功耗回调的方法、系统	0.014280937612056732 0.16581803560256958 -0.036203496158123016 0.049922697246074677 0.30558109283447266 -0.008563409559428692 -0.11151205748319626 -0.016649767756462097 -0.4113914370536804 0.26110145449638367 -0.22291918098926544 -0.0605020597577095 0.002819425892084837 -0.41203364729881287 -0.32902759313583374 -0.2419312447309494 -0.07870806753635406 0.02056420035660267 0.1528206318616867 -0.24933776259422302 -0.08925610780715942 0.13005810976028442 -0.21355006098747253 0.01271322462707758 0.38433176279067993 0.2168213129043579 -0.06847400218248367 0.3104836046695709 0.03205159306526184 -0.1433698982000351 0.3210030198097229 -0.17538879811763763
一种频段可重构的宽带低噪声放大器	0.2588978409767151 0.5567035675048828 0.030349651351571083 0.1778331995010376 0.4285679757595062 -0.09738312661647797 0.10534204542636871 -0.00300243915989995 -0.12261827290058136 0.08490168303251266 -0.10886327177286148 -0.17839227616786957 0.16457374393939972 -0.13397328555583954 0.09743663668632507 0.019454658031463623 -0.19770295917987823 -0.25155404210090637 0.025168847292661667 -0.00824449211359024 -0.3546902537345886 0.2017468810081482 0.0008568192133679986 0.07022867351770401 0.2443152666091919 -0.3194628357887268 0.2922019958496094 -0.056983135640621185 -0.2085627168416977 0.1574210375547409 0.17173747718334198 -0.025636911392211914
一种信号采集系统	-0.018030347302556038 -0.05912313610315323 0.04067658260464668 0.02924535609781742 0.07506789267063141 0.05129636079072952 0.0928533524274826 -0.016264911741018295 -0.06336271017789841 -0.04152552783489227 -0.010380640625953674 0.06399782001972198 -0.20588195323944092 0.16326995193958282 0.018541833385825157 -0.09165464341640472 -0.03405683487653732 0.21072839200496674 0.005534743424504995 0.001378381042741239 0.08048981428146362 -0.08075401932001114 -0.02564067579805851 -0.16274583339691162 0.17920534312725067 -0.030769234523177147 -0.1473507583141327 0.04709845781326294 0.0454372763633728 -0.0036937654949724674 -0.05952783674001694 -0.0509161539375782
一种服务器电源模块的均流方法、装置和系统	0.190542072057724 0.1319793462753296 0.04439669847488403 0.12776358425617218 -0.06298363953828812 0.04113248735666275 0.06724771112203598 -0.018387723714113235 -0.08366809040307999 -0.1653253138065338 0.08667588979005814 0.01863976940512657 0.05531739071011543 -0.025989146903157234 -0.03231319040060043 -0.08165635913610458 0.0033776198979467154 -0.2151307761669159 0.15822166204452515 0.12491040676832199 -0.05172108858823776 -0.055452898144721985 -0.2337336540222168 0.0827740877866745 0.12558387219905853 -0.17644912004470825 -0.1532178372144699 0.16857852041721344 0.03344649821519852 0.010605794377624989 0.03781452029943466 -0.15143896639347076
节能型长寿命低灰分柴油机油组合物	0.0539374016225338 0.25767800211906433 0.07607955485582352 -0.0532488189637661 0.02503111958503723 -0.053365617990493774 0.2489955723285675 0.01549683790653944 0.2382022738456726 0.011383550241589546 -0.03485709801316261 -0.04908927157521248 0.07474525272846222 -0.3154444098472595 0.00025775664835236967 0.15128614008426666 -0.08982673287391663 -0.19947127997875214 0.17559093236923218 -0.02898464910686016 0.2913896143436432 0.13908760249614716 0.15649516880512238 -0.09466186910867691 0.17137806117534637 -0.20994815230369568 0.087668277323246 -0.2944974899291992 -0.08223273605108261 -0.027765054255723953 0.01468132808804512 0.19161410629749298
一种宽带放大电路	0.17440438270568848 0.20419272780418396 -0.047337617725133896 0.0851784348487854 0.02303433232009411 0.08401276916265488 -0.013761174865067005 -0.047582726925611496 -0.25007960200309753 -0.17521262168884277 0.08293351531028748 -0.04413275048136711 0.18925847113132477 0.1883554756641388 0.0953260138630867 -0.06626585125923157 0.04716057702898979 0.16048094630241394 -0.24424250423908234 -0.08176612108945847 0.09883156418800354 -0.017391804605722427 -0.18923667073249817 0.06695698201656342 0.06205680966377258 0.0241699181497097 0.21863168478012085 -0.09280990809202194 0.04577308148145676 0.0059451451525092125 -0.11404059082269669 -0.0023980187252163887
基于新型生成对抗网络的心电信号增强方法	0.10391923040151596 0.09654248505830765 0.01464691199362278 0.08308909088373184 -0.08445043116807938 0.012684830464422703 0.03640546649694443 -0.003222748637199402 -0.01505645364522934 -0.12436364591121674 -0.010643210262060165 -0.030047841370105743 0.005896976683288813 0.20776508748531342 -0.10108024626970291 -0.08533494919538498 -0.17368030548095703 -0.029695047065615654 0.011915305629372597 0.1123385801911354 -0.11641837656497955 -0.15963611006736755 0.030313406139612198 -0.013517123647034168 0.06055789813399315 0.036899760365486145 -0.06686106324195862 0.12676744163036346 0.008840672671794891 -0.05254656821489334 0.06908299028873444 -0.023242466151714325
聚亚烷基二醇润滑剂组合物	0.13130901753902435 0.006487802602350712 0.16233497858047485 0.0007860647165216506 0.09993322193622589 0.13058751821517944 0.22247694432735443 -0.04255509749054909 -0.12928807735443115 -0.07678800076246262 0.061707668006420135 0.2921385169029236 0.3025403916835785 0.0553102008998394 -0.10958630591630936 -0.18866223096847534 -0.09047766774892807 -0.1985977441072464 0.028398677706718445 -0.2938414216041565 -0.057498715817928314 -0.2530771493911743 -0.2724711298942566 -0.01651434786617756 -0.06916543841362 0.03000826947391033 0.08959002047777176 0.08636157959699631 0.10252054035663605 -0.3650839924812317 0.11321766674518585 0.15135905146598816
使用酯基础油料提高传动系统和工业齿轮润滑流体液的粘度指数和效率	0.09171823412179947 -0.014673645608127117 0.25955161452293396 0.26762861013412476 0.19845761358737946 -0.35804083943367004 0.027121569961309433 -0.09325000643730164 -0.30123797059059143 0.3428703248500824 0.024439582601189613 0.48192670941352844 0.09351789206266403 -0.5002502202987671 -0.15679235756397247 -0.1982334405183792 -0.3283783793449402 0.1407964527606964 0.37338513135910034 -0.03832409903407097 0.042764004319906235 0.03706348314881325 -0.09337376058101654 -0.1319270133972168 0.4050072729587555 0.14510275423526764 0.6259191036224365 0.40056321024894714 0.1488368809223175 -0.12360284477472305 0.09871692955493927 -0.08662156760692596
一种具有可调装置的医用护膝带	-0.15408143401145935 -0.20678222179412842 -0.02290620282292366 0.0043198587372899055 0.19432362914085388 0.12632279098033905 -0.13136540353298187 -0.00785752385854721 0.02371726930141449 0.03046993911266327 -0.10222756862640381 -0.0515800304710865 -0.08115243911743164 -0.35623520612716675 -0.06557711958885193 -0.17319341003894806 0.0311431884765625 0.09426680952310562 -0.02811824344098568 -0.10766904801130295 0.003620907198637724 0.23038505017757416 -0.07205411791801453 0.1390557438135147 0.08836546540260315 0.024979695677757263 -0.06946995109319687 -0.11161771416664124 -0.10793642699718475 -0.09188617765903473 0.03967229276895523 0.16084524989128113
一种对心电信号数据进行颤动波识别的方法和装置	-0.003004805650562048 0.2697335481643677 -0.12069465965032578 0.025417082011699677 -0.05260660871863365 -0.19759583473205566 -0.16215203702449799 0.013450180180370808 -0.09310832619667053 0.221786230802536 -0.2026887834072113 0.0062913671135902405 -0.1431054323911667 0.22125764191150665 0.09914235770702362 -0.038091715425252914 0.14575128257274628 0.27582719922065735 0.06301343441009521 0.011555861681699753 0.4438888132572174 0.29990896582603455 -0.08567168563604355 -0.005858294200152159 0.09371308237314224 0.21565461158752441 0.056470051407814026 0.24722407758235931 -0.47805991768836975 0.25827234983444214 -0.08699102699756622 -0.3867509365081787
处理心电信号的方法、心电信号监测设备和存储介质	0.1479002684354782 0.19799786806106567 0.015082456171512604 0.03559891879558563 -0.10177459567785263 0.05484914779663086 0.2549513578414917 0.013595945201814175 0.24989110231399536 -0.07461491972208023 0.0038272629026323557 -0.06331342458724976 -0.11493880301713943 -0.021175825968384743 0.1767388880252838 0.11365318298339844 -0.10595820844173431 -0.21885690093040466 -0.034949470311403275 -0.0658731609582901 -0.02482699789106846 -0.03006572648882866 -0.0497586727142334 0.21116439998149872 0.13575267791748047 -0.15629541873931885 0.13040399551391602 -0.009156868793070316 0.15845942497253418 0.030804719775915146 0.4493866562843323 0.021446529775857925
一种基于深度学习的心电信号分类方法、装置及存储介质	-0.11329780519008636 -0.09239716082811356 -0.03706724941730499 -0.027102816849946976 -0.08872224390506744 0.03403469920158386 -0.07886052131652832 -0.019794132560491562 0.07734660059213638 0.12942278385162354 -0.008162063546478748 0.05459970235824585 -0.13628363609313965 -0.1390245407819748 -0.07260720431804657 0.12043280154466629 0.12908871471881866 -0.12065932899713516 -0.0078056128695607185 -0.13038362562656403 0.09945961087942123 -0.01740039885044098 0.18574249744415283 -0.04755488410592079 -0.05185418948531151 0.05010722577571869 -0.03889109194278717 -0.054756976664066315 -0.12086724489927292 0.08970455825328827 0.026471037417650223 0.12503165006637573
一种用于大排量重型摩托车的润滑油及其制备方法	0.022494126111268997 -0.1392119824886322 0.04930303990840912 -0.09755295515060425 0.02966030314564705 -0.16689617931842804 0.20288240909576416 0.008869747631251812 0.09908788651227951 -0.11570553481578827 0.12820851802825928 -0.09578777849674225 0.20562897622585297 0.28939884901046753 0.4143555164337158 0.08336389809846878 -0.1342126876115799 0.00688967015594244 -0.039372388273477554 -0.0993838980793953 -0.18906299769878387 0.026415692642331123 0.12118878215551376 0.07857008278369904 -0.09254852682352066 -0.07729790359735489 0.05275470018386841 0.03449394553899765 0.26744580268859863 0.21412494778633118 0.23144285380840302 0.24008336663246155
一种公路车辆齿轮油及其制备方法	-0.16650287806987762 -0.08032351732254028 0.156992107629776 -0.01819525472819805 0.2537718117237091 0.07993379980325699 0.038484156131744385 0.06667878478765488 0.04726876690983772 -0.1713104397058487 -0.1461193859577179 0.04493462294340134 -0.04950185492634773 -0.13020551204681396 -0.03985127806663513 -0.16176879405975342 0.1958034485578537 -0.1542399674654007 -0.1556207686662674 -0.11687921732664108 -0.02191249467432499 -0.3358762264251709 -0.17381882667541504 -0.1563265025615692 -0.13096162676811218 0.2414831668138504 0.06826689094305038 0.2820836305618286 -0.05646524578332901 -0.15544071793556213 -0.13749895989894867 0.18013125658035278
一种大数据多中心联合控制系统	-0.13128548860549927 -0.12178356200456619 0.06724002212285995 -0.1524045467376709 0.23965992033481598 0.0950838178396225 0.14173369109630585 -0.08427643030881882 0.1466420292854309 0.06838692724704742 0.04089923948049545 -0.16285420954227448 0.028835035860538483 -0.25027427077293396 0.06231474503874779 -0.17868074774742126 0.09881675988435745 0.10092274099588394 0.0793037861585617 -0.1542169451713562 0.029515938833355904 0.06310167908668518 0.14019529521465302 -0.3619343340396881 0.1073652133345604 0.17286208271980286 0.05116706341505051 0.07295605540275574 -0.025457605719566345 -0.17704011499881744 -0.002776058856397867 0.24081598222255707
一种基于CNN神经网络的急性心肌梗死定时期自动判别系统	-0.012674997560679913 -0.0958404466509819 0.018223747611045837 -0.030997689813375473 -0.12247521430253983 -0.1796443909406662 0.08777758479118347 0.023786839097738266 0.1461547315120697 0.03937540203332901 0.1361924409866333 -0.20316052436828613 -0.16908739507198334 0.04949776455760002 0.1293344497680664 -0.09160593897104263 0.05401048809289932 0.2580975294113159 -0.1592574268579483 -0.05315938591957092 -0.005853098351508379 -0.147150918841362 0.06601981073617935 0.010888087563216686 -0.18451187014579773 0.006177541799843311 -0.05119555443525314 0.012482911348342896 -0.17355959117412567 0.04137920215725899 -0.02064800262451172 -0.079820416867733
一种心电信号处理方法及装置	0.050687242299318314 -0.02831864543259144 -0.03586241230368614 0.07787023484706879 -0.08466113358736038 0.12787079811096191 -0.11024446785449982 -0.014129879884421825 0.06451674550771713 -0.11689414829015732 0.00737338000908494 0.2358013540506363 -0.05105259269475937 0.0980561226606369 -0.03838871046900749 -0.0647454783320427 0.03213469311594963 0.01905890926718712 -0.005050544161349535 0.02968750149011612 0.06533589214086533 -0.057093165814876556 -0.13357838988304138 0.03406402841210365 0.021377818658947945 0.09014735370874405 -0.1879650056362152 0.06827978044748306 -0.07079606503248215 -0.08692073076963425 0.0792376920580864 0.005338355898857117
润滑油基础油的制备方法	0.07087399065494537 0.17530418932437897 -0.023451952263712883 -0.18431206047534943 -0.04508332908153534 -0.11344315856695175 0.14813007414340973 0.0032047387212514877 0.12402711063623428 -0.1354697197675705 -0.03736754506826401 -0.20690734684467316 -0.01435855496674776 -0.16691559553146362 -0.15705271065235138 -0.10597966611385345 -0.04646886885166168 -0.26613155007362366 0.1223505362868309 -0.13641834259033203 0.26058244705200195 -0.07077530026435852 0.013868378475308418 0.10434942692518234 -0.11239618062973022 0.002913668053224683 0.07780841737985611 0.021403171122074127 -0.11096485704183578 -0.13233748078346252 0.2893059253692627 -0.08617781102657318
一种冗余电源智能控制装置	-0.15005402266979218 -0.13198134303092957 0.29571738839149475 0.17755770683288574 -0.189962238073349 -0.2591818571090698 -0.22804881632328033 0.0004504532553255558 0.03418067842721939 0.16368013620376587 -0.08045417815446854 -0.2867565453052521 0.20252253115177155 -0.20956097543239594 -0.0826575979590416 0.07513441145420074 0.16603727638721466 -0.09772422909736633 0.1061025932431221 -0.13418781757354736 -0.1524609923362732 0.17223146557807922 -0.30291250348091125 0.16902874410152435 0.016434939578175545 -0.025570722296833992 -0.1431785672903061 0.10978387296199799 -0.035097386687994 0.03756527230143547 0.2039538025856018 -0.046049654483795166
一种提高电源模块与主板兼容性的电路结构	-0.1336514800786972 0.11276748776435852 0.07182909548282623 -0.021021781489253044 0.2595873177051544 0.28006473183631897 -0.29043906927108765 0.00711462926119566 0.0029586018063127995 0.12385422736406326 -0.26172858476638794 -0.3214167654514313 -0.19596953690052032 -0.04492882266640663 -0.33964577317237854 0.04701137915253639 0.08329319953918457 -0.013956842012703419 0.20774225890636444 0.16133132576942444 0.1622777134180069 0.17003120481967926 0.09426085650920868 -0.20794227719306946 -0.22929055988788605 0.48696082830429077 0.4095984101295471 0.01554882526397705 0.23261304199695587 -0.32772940397262573 -0.06948957592248917 0.05237678438425064
通用型节能环保重负荷润滑油及其制备方法	0.0009163820068351924 0.19416622817516327 -0.03160400688648224 -0.046832602471113205 0.23164458572864532 0.01577123813331127 -0.009893608279526234 -0.03816090524196625 0.07168542593717575 0.1365480273962021 -0.11275599896907806 0.09879028797149658 0.19490492343902588 -0.06539581716060638 -0.08842207491397858 0.15591098368167877 0.03706018999218941 -0.042646341025829315 0.24714092910289764 -0.028068332001566887 -0.19630493223667145 -0.038459863513708115 -0.062110535800457 0.03407759591937065 -0.05456126108765602 -0.06518588215112686 0.05201853811740875 -0.14618845283985138 -0.1282668113708496 -0.01589958742260933 -0.11860480159521103 0.04087026044726372
一种用于润滑油的星形分散型黏度指数改进剂及其制备方法	-0.1699858009815216 -0.1625014841556549 -0.13250920176506042 0.08368033915758133 0.042068470269441605 -0.01164963562041521 -0.17493075132369995 -0.01841500774025917 -0.11201483756303787 0.08730682730674744 -0.26747754216194153 -0.02264229580760002 -0.0033775269985198975 0.016016395762562752 -0.2067992240190506 0.0707794576883316 0.06072424352169037 0.3267837464809418 -0.10563722252845764 0.049438729882240295 -0.26753801107406616 0.10389397293329239 -0.09869017452001572 0.04329293221235275 -0.12424784153699875 -0.04717197269201279 0.07688161730766296 -0.04975980520248413 0.11435927450656891 -0.0681239664554596 0.04753899946808815 -0.043376412242650986
一种心电图识别方法、装置、存储介质及电子设备	0.0674450546503067 0.19542557001113892 0.1659252792596817 -0.18324896693229675 0.09249664098024368 -0.2958522439002991 0.122147336602211 -0.05506462603807449 0.07733319699764252 -0.20381389558315277 -0.14459148049354553 -0.21911665797233582 0.261352002620697 -0.2735387682914734 -0.28323471546173096 -0.19901664555072784 -0.15589343011379242 -0.15034784376621246 0.022481750696897507 -0.19372178614139557 -0.270521342754364 0.030107377097010612 -0.11525627225637436 -0.00813279952853918 0.1528712511062622 0.0906883254647255 -0.17412856221199036 -0.054117970168590546 0.04670653119683266 -0.10572420805692673 0.1365862786769867 -0.17870290577411652
电源管理方法、电子设备、存储介质及系统	-0.11545444279909134 -0.02776375226676464 -0.04956139251589775 0.022502774372696877 -0.1967078000307083 0.007086891680955887 -0.21718573570251465 -0.05309624597430229 0.08361038565635681 0.0778224989771843 -0.06505423784255981 -0.029587455093860626 -0.23724256455898285 -0.4121946692466736 -0.2993921637535095 0.2164802849292755 0.11475232243537903 -0.1988154649734497 0.01665307581424713 0.03994197025895119 -0.18891780078411102 0.01834854669868946 -0.15387539565563202 -0.08848540484905243 1.8427963368594646e-05 -0.01641412079334259 -0.06468132883310318 -0.05727595463395119 -0.040633901953697205 -0.06420036405324936 -0.3567222058773041 -0.20384839177131653
一种氧化石墨烯水基纳米润滑剂及其制备方法	-0.06189952790737152 0.09019965678453445 -0.10637681186199188 0.03635432571172714 0.04530354589223862 0.05160968005657196 0.033787209540605545 0.012277116067707539 0.24863731861114502 -0.10558756440877914 0.07711490988731384 0.0903240442276001 -0.09877420216798782 -0.07985176146030426 0.41054388880729675 0.08529497683048248 0.0632428377866745 -0.28933507204055786 -0.05646032467484474 0.06304387748241425 -0.1330997198820114 0.017862331122159958 -0.25295212864875793 0.21765030920505524 -0.20855730772018433 0.12384885549545288 -0.05897917225956917 0.10696133971214294 0.1422785520553589 -0.06794627010822296 -0.033379532396793365 -0.109331876039505
一种基于导联分组的12导联心电信号多标签分类方法	0.016798755154013634 0.15325012803077698 0.029465394094586372 -0.023652249947190285 0.00837240181863308 0.0404730886220932 0.0257745161652565 -0.007555968593806028 0.11743304878473282 0.015958841890096664 0.013571138493716717 0.011999964714050293 -0.10169850289821625 0.03966200724244118 0.004610006231814623 0.08999355137348175 -0.020955530926585197 -0.09745456278324127 0.015713894739747047 0.009764326736330986 -0.02712331712245941 0.08975528180599213 0.00957571342587471 -0.12367794662714005 -0.0012407774338498712 -0.18037967383861542 -0.09493383020162582 -0.10565048456192017 -0.09258832037448883 -0.025375448167324066 0.008227352052927017 -0.043237876147031784
一种心电波形信号的波形识别方法、装置及设备	0.011398334056138992 -0.12923680245876312 -0.12284572422504425 0.13601772487163544 -0.09908726811408997 -0.0977977067232132 0.03526937589049339 -0.006669222842901945 -0.07204844057559967 0.13138248026371002 -0.060478873550891876 0.07153744995594025 0.05851570889353752 -0.18884442746639252 -0.17777572572231293 -0.1309814602136612 -0.09288307279348373 -0.14888614416122437 0.07242585718631744 0.0812041237950325 0.30374425649642944 0.10409186035394669 -0.125158429145813 0.24747991561889648 0.21745404601097107 -0.027167724445462227 -0.1840202659368515 -0.0017442952375859022 0.012410219758749008 -0.07434255629777908 0.04602809622883797 0.166362002491951
一种统一存储系统的供电控制方法、装置、设备及介质	0.051979098469018936 -0.03784623742103577 0.017023304477334023 -0.015940876677632332 -0.35615015029907227 -0.4744119942188263 -0.03423116356134415 0.03142264112830162 0.17270812392234802 0.10879530012607574 -0.02738378942012787 -0.08738788217306137 -0.23602905869483948 -0.23323562741279602 -0.006980107165873051 0.15685981512069702 0.12241881340742111 -0.2243475615978241 0.18760940432548523 0.5479418039321899 -0.1223113164305687 0.024837076663970947 -0.056362174451351166 0.16681218147277832 0.2109757661819458 -0.23434074223041534 -0.7725077867507935 0.13299356400966644 0.07507617771625519 0.2562699615955353 0.021426722407341003 -0.24702876806259155
一种星载甚低频前置放大器	-0.033439356833696365 0.24591779708862305 -0.004649044014513493 -0.1037575975060463 0.0021781183313578367 -0.031629450619220734 -0.0511380136013031 -0.0008008852601051331 0.08247270435094833 -0.06671010702848434 0.027710331603884697 -0.3864719867706299 -0.3363499045372009 0.3359631896018982 0.1012071743607521 -0.07150126993656158 0.033405713737010956 0.020057708024978638 0.09977614879608154 0.31651413440704346 0.07961078733205795 0.2334945648908615 0.2675429880619049 -0.25312888622283936 0.243934765458107 -0.13532283902168274 -0.39313507080078125 0.14336442947387695 -0.16368111968040466 0.15410050749778748 0.24437221884727478 -0.1640842705965042
一种基于ResNet-50和迁移学习的心电信号质量分析方法及装置	-0.0651731863617897 -0.13667991757392883 -0.006965854205191135 0.021420268341898918 -0.019102688878774643 -0.1494230180978775 0.001550166169181466 -0.06582450121641159 0.002058903221040964 0.16591988503932953 0.0014297583838924766 -0.07275370508432388 -0.025087030604481697 0.07870399951934814 -0.09860233962535858 0.0789060890674591 -0.06237272545695305 -0.46072882413864136 0.15318667888641357 0.09227549284696579 0.1265452802181244 -0.24760352075099945 0.047332581132650375 -0.08747328817844391 0.16583766043186188 -0.18353143334388733 0.037177618592977524 0.10956475883722305 0.138271763920784 0.014950328506529331 -0.19753921031951904 -0.06849556416273117
检测模型的训练装置、方法及心电数据处理方法、装置	0.13585084676742554 0.188267782330513 0.10275416821241379 0.17367598414421082 -0.15045765042304993 -0.14392191171646118 0.1320144385099411 0.04035622254014015 -0.07960037142038345 0.12356057018041611 -0.037350017577409744 0.011985634453594685 0.14347441494464874 -0.10651924461126328 -0.2144535630941391 0.11056387424468994 -0.13518597185611725 0.11017128080129623 -0.138016477227211 0.20339982211589813 -0.22921428084373474 0.143461674451828 -0.06208331137895584 0.07783705741167068 -0.0009541698964312673 0.028464963659644127 -0.027482356876134872 0.1874144822359085 -0.047066960483789444 -0.13224859535694122 0.05933637544512749 -0.2666657567024231
用于基于时间序列和心内及身体表面心电图（ECG）信号形态的心跳分类的装置和方法	-0.44287413358688354 -0.2341262847185135 -0.05999332666397095 -0.22554831206798553 0.2136661410331726 0.30343031883239746 0.2063153237104416 -0.00031431298702955246 -0.3814971148967743 0.11666744947433472 -0.25648054480552673 -0.007378977723419666 -0.004223030526190996 -0.27972450852394104 -0.4306361973285675 -0.16934959590435028 0.053526487201452255 -0.2238224446773529 0.05694311112165451 -0.3335796594619751 -0.0845230370759964 -0.2627890408039093 0.18213148415088654 -0.35822176933288574 0.1278097778558731 0.3329053223133087 0.3580450713634491 0.26195716857910156 0.23393136262893677 0.06833752989768982 -0.16034334897994995 0.5510565042495728
润滑油组合物	-0.3234061300754547 -0.3853529393672943 -0.3897177278995514 0.09789655357599258 -0.45291364192962646 -0.27932825684547424 0.09248950332403183 0.00989075843244791 -0.3659421503543854 -0.03498752415180206 0.15064886212348938 0.3839133083820343 0.0360444076359272 0.4957249164581299 -0.17025402188301086 -0.19844089448451996 0.1654418408870697 -0.533932089805603 0.046177878975868225 -0.055897943675518036 -0.20200593769550323 0.19573833048343658 -0.29982003569602966 -0.19535879790782928 -0.3239826261997223 0.20334936678409576 -0.7076159715652466 -0.34709006547927856 -0.09242435544729233 0.17313812673091888 0.0840507298707962 -0.15450379252433777
一种适用于声波多普勒测量流速的处理电路	-0.0680069848895073 0.16331155598163605 -0.26311224699020386 -0.07702566683292389 -0.18884572386741638 -0.01937217079102993 0.16998840868473053 0.06759141385555267 0.0940655916929245 -0.08487620949745178 -0.009230146184563637 -0.03625151515007019 -0.36874550580978394 -0.05720286816358566 0.042179323732852936 0.1406150460243225 0.12611240148544312 -0.08167904615402222 0.19589513540267944 0.09131745249032974 0.17353303730487823 0.03143640235066414 0.08299551904201508 -0.15650951862335205 0.004411548376083374 -0.053186606615781784 0.18865475058555603 -0.08330715447664261 -0.20625312626361847 -0.12828917801380157 0.013192178681492805 0.29086652398109436
一种BBU掉电保护实现方法及系统	0.03291852027177811 0.007026733830571175 0.02463233284652233 -0.07306348532438278 -0.07971500605344772 0.07042276114225388 0.03505203127861023 -0.0005795760080218315 0.14143481850624084 -0.07750225067138672 -0.052723124623298645 0.028123218566179276 -0.011137492023408413 0.019682925194501877 -0.1650112420320511 0.10459320992231369 -0.027881840243935585 -0.11456835269927979 -0.06176039204001427 -0.09580028802156448 0.07434096187353134 -0.022425906732678413 -0.08638308197259903 -0.08523161709308624 -0.014542126096785069 0.020810989663004875 -0.1562848836183548 -0.07156434655189514 -0.002714304020628333 0.003226381726562977 0.05510152503848076 0.05246647819876671
一种可生物降解环保型发动机润滑油及其制备方法	-0.10588137060403824 -0.07546766847372055 0.08640875667333603 0.00863550789654255 0.09698861837387085 0.3114405870437622 -0.05049390345811844 0.0071458471938967705 0.00955381989479065 -0.11543554067611694 0.06226825714111328 0.015663959085941315 0.17838142812252045 0.29164883494377136 -0.03486795723438263 0.2183147668838501 -0.0012260319199413061 0.24201133847236633 -0.22884829342365265 0.23767122626304626 0.02957330271601677 -0.02052938938140869 0.2334105223417282 -0.28201010823249817 -0.05034593492746353 0.15768690407276154 -0.14921191334724426 -0.18803270161151886 -0.09680292755365372 -0.03854247182607651 -0.2887396216392517 0.2471097707748413
低噪声放大电路以及低噪声放大器	0.026729067787528038 -0.0942143052816391 -0.011985726654529572 0.27278512716293335 -0.10573891550302505 -0.10381767153739929 0.055560749024152756 -0.07561373710632324 -0.036911945790052414 0.039314985275268555 -0.2114686667919159 -0.1585674285888672 0.40075021982192993 -0.15973852574825287 -0.31756797432899475 -0.13483990728855133 -0.39138063788414 0.15184196829795837 -0.15166957676410675 -0.16158723831176758 0.13194940984249115 0.2963646948337555 -0.13551528751850128 0.10934079438447952 0.2625654637813568 0.15412630140781403 -0.16977880895137787 -0.056156326085329056 -0.3597973585128784 -0.012640507891774178 0.5564656853675842 -0.431127667427063
一种75W-90黏度级别城轨齿轮箱专用油组合物	0.10763297230005264 0.11353754252195358 0.07416443526744843 -0.013358290307223797 0.04758394509553909 -0.07960738241672516 0.05330357700586319 -0.005866469815373421 -0.12654262781143188 0.042715318500995636 -0.0017229594523087144 0.09835711866617203 -0.0318964421749115 -0.023104436695575714 -0.23079808056354523 0.006200242321938276 0.08586780726909637 0.08524682372808456 0.237173929810524 -0.07709520310163498 0.09540198743343353 -0.2288684993982315 -0.06545693427324295 -0.030191659927368164 0.05368044599890709 -0.09791479259729385 0.021140743046998978 -0.14048349857330322 -0.1274997442960739 -0.1719648391008377 -0.13351792097091675 0.20992425084114075
一种带有稳压电源的电脑支架	-0.08711832761764526 0.31501656770706177 -0.042716626077890396 -0.14911717176437378 0.43833333253860474 -0.04178771749138832 0.25362879037857056 -0.008337005972862244 0.10881447792053223 -0.06416772305965424 -0.024699054658412933 0.08391424268484116 -0.2106812447309494 0.19624046981334686 0.5053231716156006 0.22226278483867645 -0.014534506015479565 -0.1072085052728653 0.015317903831601143 0.44353029131889343 -0.2756621837615967 0.333545058965683 0.11844173818826675 -0.08233428746461868 -0.34076911211013794 -0.28748342394828796 -0.019766174256801605 0.029078474268317223 0.1390293836593628 0.21763476729393005 -0.21943983435630798 -0.054591596126556396
一种高通用性的心电数据压缩感知系统、终端和存储介质	0.46504920721054077 0.0005658620502799749 0.3459824025630951 0.15760928392410278 0.012022048234939575 -0.15595106780529022 -0.0784284695982933 -0.06741949915885925 -0.056481968611478806 -0.15329231321811676 0.1584637314081192 -0.04996999353170395 0.17709866166114807 0.27637988328933716 -0.11532531678676605 -0.2007567584514618 0.004882055334746838 -0.14154650270938873 -0.24316547811031342 0.035748038440942764 0.036071889102458954 -0.11352569609880447 -0.07934770733118057 0.023212594911456108 0.14260724186897278 -0.34490853548049927 -0.3369509279727936 -0.1303870975971222 -0.11876408755779266 -0.30388396978378296 0.06532987207174301 -0.2183266431093216
一种心电信号数据的分类方法和装置	-0.15156777203083038 0.06407100707292557 -0.04967912659049034 -0.16821621358394623 0.0522366538643837 -0.06744487583637238 0.04074062034487724 0.003915947861969471 0.1142001673579216 0.013605690561234951 -0.15016111731529236 -0.08017247170209885 0.12844429910182953 -0.12819063663482666 0.025964001193642616 -0.08769015222787857 -0.09136084467172623 0.27412149310112 -0.0986485555768013 -0.21217504143714905 -0.004523227456957102 0.16019558906555176 0.09525483101606369 -0.15739953517913818 -0.04093669354915619 0.09319961816072464 0.05652753636240959 -0.0681268721818924 0.05781383067369461 0.09321103245019913 0.0868045762181282 -0.03777534142136574
酚类衍生物及其制备方法、用途	-0.13475114107131958 -0.4464585781097412 0.02039889246225357 -0.33050736784935 -0.013387234881520271 0.07037410140037537 -0.08643284440040588 -0.0005138148553669453 0.1632329374551773 -0.4884554445743561 -0.35510507225990295 0.03674401342868805 0.09689806401729584 -0.6412655115127563 -0.6811071038246155 0.06817704439163208 -0.33269014954566956 -0.2707197368144989 0.07404383271932602 -0.17515985667705536 0.33978238701820374 -0.3111916780471802 0.236014261841774 -0.1896955668926239 -0.09394142776727676 0.45922932028770447 -0.04696772247552872 -0.43242767453193665 -0.1513257473707199 -0.08252272009849548 -0.14959102869033813 0.21083518862724304
一种基于心跳间期的睡眠呼吸暂停自动检测方法及装置	-0.184261754155159 -0.14972883462905884 -0.1384086012840271 -0.19141343235969543 -0.006178320851176977 0.10863770544528961 0.32106974720954895 0.10816293954849243 -0.064289391040802 -0.029416123405098915 0.16436375677585602 0.1267743557691574 0.07381489872932434 -0.1998644918203354 0.08264242857694626 -0.5893776416778564 0.06762150675058365 -0.024044392630457878 -0.16906552016735077 -0.32466959953308105 -0.14753097295761108 -0.35010555386543274 -0.019112519919872284 -0.045826494693756104 -0.043923575431108475 -0.006369699724018574 0.04196659103035927 0.17538294196128845 -0.09267772734165192 0.11032174527645111 -0.12940613925457 0.5651524662971497
润滑油组合物、和润滑油组合物的使用方法	-0.08157477527856827 -0.05138956382870674 0.1256234347820282 -0.04447939991950989 0.09062936902046204 0.21035920083522797 -0.3850501775741577 -0.011525006964802742 -0.43642598390579224 -0.06035633012652397 -0.2793303430080414 -0.11642665416002274 0.1995268017053604 -0.11553062498569489 -0.4593757688999176 0.2939331531524658 -0.14201322197914124 -0.18546552956104279 0.19933484494686127 0.21978335082530975 0.09688624739646912 -0.0381004624068737 0.1370433121919632 -0.09424194693565369 0.17168031632900238 0.17042386531829834 -0.11104176938533783 -0.05352450907230377 -0.09384115040302277 -0.07142207026481628 -0.16150635480880737 0.04059987887740135
一种结合希尔伯特曲线和集成学习的心电磁信号分类方法	-0.02609996683895588 -0.24047844111919403 -0.11758138984441757 0.08887974917888641 0.09180986881256104 0.046610381454229355 0.09004204720258713 0.015993159264326096 0.17820176482200623 -0.015158644877374172 -0.10369981080293655 0.02262185513973236 -0.0984443798661232 -0.49266818165779114 0.07026272267103195 -0.03096076473593712 0.08508887887001038 -0.13255950808525085 -0.3149607181549072 -0.40267127752304077 -0.49286583065986633 0.30185168981552124 0.11245674639940262 -0.08815832436084747 -0.10140183568000793 -0.1982380449771881 0.08172594755887985 0.018181072548031807 -0.03434868901968002 0.13368631899356842 0.07451943308115005 0.04854986071586609
一种双电源电压跨导校准低功耗的低噪声放大器	-0.027404390275478363 -0.14010117948055267 0.13407373428344727 -0.19065053761005402 0.10520029067993164 -0.042325351387262344 0.15643668174743652 -0.0007065366953611374 0.12436261028051376 0.23011861741542816 0.2980366051197052 -0.1133808046579361 -0.5710530877113342 -0.18858759105205536 0.3147056996822357 -0.1573215276002884 0.1132451519370079 -0.16219612956047058 -0.05074898898601532 0.04102903977036476 0.14952006936073303 -0.28961509466171265 -0.12000706046819687 -0.18828319013118744 0.001935255597345531 0.09979798644781113 0.17595155537128448 -0.028326667845249176 0.07329993695020676 -0.20000587403774261 -0.0685674399137497 -0.11376076191663742
一种动态心电图数据分析方法	0.14062827825546265 -0.08914598077535629 0.06270419806241989 0.29769209027290344 -0.12081259489059448 -0.09202555567026138 0.026173505932092667 -0.006999984383583069 0.07968483120203018 0.221499502658844 -0.0772334635257721 -0.056397695094347 0.13796892762184143 0.24412423372268677 -0.01908930018544197 -0.016670621931552887 -0.2367803305387497 0.311117559671402 -0.11342355608940125 -0.04722120985388756 0.01873098500072956 0.17200139164924622 0.1426367610692978 -0.011609796434640884 0.05689704790711403 -0.08156172931194305 0.1670144498348236 -0.007480667904019356 0.07190950214862823 0.04632421210408211 -0.03754664584994316 0.05195445194840431
基于多模型集成的心电信号危急值的预测方法及装置	-0.06697303056716919 0.11549872905015945 0.055918022990226746 0.09736572206020355 -0.3282061517238617 -0.055783960968256 0.27178648114204407 0.051333509385585785 0.13729695975780487 -0.21934181451797485 -2.0128223695792258e-05 0.34601712226867676 -0.4595102369785309 -0.3120983839035034 0.15028545260429382 0.2890619933605194 0.007264196872711182 0.10298416763544083 0.034786637872457504 0.26703301072120667 -0.29892370104789734 0.3890889883041382 0.1915285289287567 0.0695285052061081 0.06641682982444763 -0.39920908212661743 0.039582837373018265 -0.20613422989845276 -0.15360651910305023 0.3213123381137848 -0.016909809783101082 -0.09609457105398178
一种基于多模态注意力融合的高血压老年人活动分析方法	-0.1866885870695114 0.0281646978110075 0.23478105664253235 -0.0489901602268219 -0.301906555891037 -0.1686905175447464 -0.06112738698720932 -0.005713389255106449 -0.013693369925022125 -0.1325235664844513 0.13089391589164734 0.2017192542552948 0.12155083566904068 0.26304322481155396 -0.20490434765815735 0.14336147904396057 0.13685278594493866 -0.14028586447238922 -0.08147802948951721 -0.18632331490516663 -0.07199177891016006 0.5255339741706848 -0.0617445707321167 -0.2361649125814438 0.05852121114730835 0.04908165708184242 0.08003479242324829 -0.1345159262418747 0.16905085742473602 -0.11545013636350632 0.3226330280303955 0.03145794942975044
一种酯类化合物及其制备方法、用途	0.1211780235171318 -0.05302808806300163 -0.00951796118170023 0.005440492182970047 0.08890636265277863 -0.15166833996772766 0.23621265590190887 0.045377667993307114 0.7923117280006409 0.00926725659519434 0.5511611700057983 0.09380073100328445 -0.24334578216075897 -0.7255978584289551 1.0589476823806763 -0.3444415032863617 -0.03974594548344612 -0.742813766002655 0.2839805483818054 -0.21065394580364227 -0.47987714409828186 -0.9240471720695496 -0.32576194405555725 1.1324957609176636 -0.5191253423690796 -0.6825085282325745 0.30434462428092957 0.5414001941680908 0.11635094881057739 0.37641096115112305 0.3431556522846222 -0.1826021671295166
一种清水混凝土用改性油性脱模剂及其制备方法	0.0288521870970726 0.1192910224199295 0.07674583792686462 0.26664355397224426 0.004569638054817915 0.31533369421958923 -0.028916727751493454 0.028710011392831802 -0.2783602178096771 0.12737137079238892 0.061269812285900116 0.12437961250543594 0.09601260721683502 0.12647366523742676 0.0018587136873975396 -0.05705658718943596 -0.03622426092624664 0.2092093974351883 -0.1404913365840912 0.1892888844013214 0.19157879054546356 0.1538960486650467 -0.05851393938064575 0.12855422496795654 0.08552903681993484 0.10876470059156418 -0.07111183553934097 0.19740530848503113 0.027207035571336746 -0.054709915071725845 0.12422450631856918 -0.3073887526988983
高氧化稳定性的气缸润滑油组合物	0.16628119349479675 0.2175104022026062 -0.1339741051197052 -0.22845882177352905 0.05861366167664528 0.05623819679021835 -0.04138472303748131 -0.030219674110412598 0.26710212230682373 -0.027998922392725945 0.13345836102962494 0.01831243559718132 -0.0924801304936409 0.08306441456079483 0.02611657604575157 0.11304756999015808 -0.03233493119478226 0.23376202583312988 0.19340880215168 0.023699816316366196 0.0561198852956295 0.2709982097148895 -0.0700535699725151 0.22493964433670044 -0.1959705352783203 -0.08461888879537582 0.05896040052175522 0.06433893740177155 0.12519851326942444 -0.03299713879823685 0.032244306057691574 0.004924779757857323
超低温重负荷车辆齿轮油组合物	-0.14137722551822662 0.03476842865347862 0.04377153143286705 -0.08515157550573349 -0.05743378773331642 -0.028841258957982063 0.04664287716150284 0.0273820161819458 0.11309824883937836 0.07826244086027145 -0.0406184159219265 -0.14735861122608185 -0.13656772673130035 -0.07475542277097702 -0.21371892094612122 0.06746288388967514 -0.07408683001995087 0.16233503818511963 -0.0435514971613884 0.1376025527715683 0.009679616428911686 0.1358209103345871 0.07805199921131134 -0.03695515915751457 -0.06797686219215393 0.012865819968283176 -0.01317846029996872 -0.15906593203544617 0.11632133275270462 0.06369061022996902 0.09657562524080276 -0.0655633881688118
一种包含共模反馈电路的低噪声全差分放大器	-0.025073884055018425 -0.17595630884170532 0.08072406053543091 0.06780550628900528 0.07976656407117844 -0.44597405195236206 0.1940290331840515 -0.06737736612558365 0.10395437479019165 -0.1425296813249588 -0.0176878422498703 0.06515300273895264 0.18790172040462494 0.10838635265827179 -0.097034752368927 -0.06626274436712265 -0.06993956118822098 -0.5012304186820984 0.10036531835794449 0.04005027934908867 -0.3720850646495819 -0.107594795525074 -0.005946108605712652 -0.43082886934280396 -0.02443399839103222 0.06304512172937393 -0.08768456429243088 0.33972662687301636 -0.22547480463981628 0.04693116620182991 0.011285901069641113 0.07831369340419769
一种零间隙无级变速器用牵引油	0.29815107583999634 -0.17466901242733002 0.23556317389011383 0.04274369403719902 -0.11521726101636887 -0.2986675202846527 -0.07120073586702347 0.027248330414295197 -0.4904451072216034 -0.36426177620887756 -0.34933701157569885 -0.11930865049362183 0.25093770027160645 0.09516459703445435 -0.3325332701206207 -0.3069414496421814 -0.6111544966697693 0.06172274425625801 -0.31195691227912903 0.3926811218261719 -0.04568386450409889 -0.3496853709220886 -0.27154484391212463 0.2701004445552826 0.0705268457531929 -0.33365321159362793 0.22082437574863434 0.15890857577323914 0.2738783359527588 0.17758938670158386 0.07680977135896683 0.16957156360149384
一种心电数据处理方法及装置	0.118817999958992 -0.012993834912776947 0.018714746460318565 0.03281771391630173 0.09555617719888687 0.20228250324726105 -0.1075451523065567 -0.02936447411775589 0.014475306496024132 -0.04827332869172096 -0.03150048479437828 -0.26262229681015015 0.06539436429738998 -0.0021226145327091217 -0.10367544740438461 -0.008527642115950584 -0.06706877797842026 0.2109224796295166 -0.2898090183734894 -0.07401636242866516 -0.16387563943862915 -0.023968521505594254 -0.06136758625507355 -0.0793663039803505 0.13523194193840027 0.060889486223459244 -0.006503568962216377 -0.13045139610767365 0.030596822500228882 -0.060019489377737045 0.16344736516475677 -0.017368387430906296
存储介质的供电系统及方法	-0.16456691920757294 -0.28704336285591125 0.23763789236545563 0.226806640625 -0.2240181714296341 0.1847916692495346 0.1548081487417221 -0.01827893778681755 0.2632744014263153 -0.13014128804206848 -0.01781991682946682 0.01736713945865631 0.04383502155542374 -0.1035424992442131 -0.08468548953533173 0.002521640621125698 0.03086845763027668 -0.24667856097221375 0.03236129879951477 -0.16174395382404327 0.10310223698616028 0.07205302268266678 -0.09676104784011841 -0.06101671978831291 0.21328984200954437 0.09020780771970749 -0.22818222641944885 -0.0631546676158905 0.03654821217060089 -0.02830936387181282 0.23098060488700867 0.01701006293296814
一种润滑油及其制备方法	0.00971481204032898 0.05438193678855896 -0.006054948084056377 -0.0824892595410347 -0.000806162366643548 -0.027706602588295937 -0.031054355204105377 0.00657084584236145 0.07567458599805832 -0.035826705396175385 0.02881862409412861 0.03354492038488388 -0.05715003237128258 0.021388186141848564 0.110305055975914 0.07596547156572342 0.07076819986104965 0.0035485567059367895 -0.004345412366092205 -0.03160048648715019 -0.1139211654663086 0.030930867418646812 0.0514802485704422 0.023856641724705696 -0.12190698087215424 -0.11208883672952652 -0.0364798866212368 -0.01695236749947071 -0.12163905054330826 0.08593305945396423 -0.0335269421339035 0.035296063870191574
掉电保护方法、装置、电源监控组件以及服务器	0.05130225792527199 -0.0662718340754509 0.05410447344183922 0.037683047354221344 -0.04381328448653221 0.010258362628519535 -0.18718066811561584 -0.0015330296009778976 -0.006325350608676672 0.04135872423648834 -0.28221407532691956 -0.23545363545417786 0.08580811321735382 -0.23479914665222168 -0.24255256354808807 -0.16950735449790955 -0.1294836401939392 0.1997501254081726 -0.21704965829849243 -0.21318747103214264 -0.2331911027431488 0.32649511098861694 -0.0662568211555481 -0.023339617997407913 0.060003384947776794 -0.06647935509681702 0.11460540443658829 -0.22062720358371735 0.2272716611623764 0.15469609200954437 0.16478164494037628 0.1488717794418335
一种GPU服务器的电源冗余控制系统、方法及介质	0.0792471170425415 -0.003126702504232526 0.07194292545318604 0.36781129240989685 -0.14238935708999634 -0.041901811957359314 0.08119528740644455 -0.042847227305173874 -0.2015647441148758 -0.1296042650938034 0.02641628496348858 0.024689825251698494 0.17002007365226746 0.030731547623872757 0.08189280331134796 -0.07554987818002701 -0.15607790648937225 -0.16360998153686523 0.10888371616601944 0.23613092303276062 0.04229617118835449 0.028980020433664322 -0.12347429245710373 0.07226023823022842 0.005355475470423698 -0.11474665999412537 0.025579841807484627 0.19567902386188507 0.09498918801546097 0.01790488511323929 -0.14282359182834625 -0.2774813175201416
一种基于多元递归网络的心脏疾病识别方法	0.22941337525844574 -0.05598043277859688 -0.06618001312017441 0.2694855332374573 0.266926646232605 0.28705722093582153 0.06882436573505402 0.002017778344452381 -0.03783898428082466 0.004609610885381699 -0.19820529222488403 0.045534469187259674 -0.0128431161865592 -0.05318406596779823 0.006649090442806482 -0.21342459321022034 -0.1026044562458992 0.1369062066078186 -0.023464001715183258 0.02763243392109871 -0.24394218623638153 0.41727256774902344 0.01339750550687313 0.018451545387506485 0.20294785499572754 -0.03245340287685394 0.03424273803830147 -0.03853178024291992 -0.13789252936840057 0.03058859333395958 -0.03701609745621681 0.0017657983116805553
一种供电电源和服务器	0.042466312646865845 -0.09180058538913727 -0.04659862443804741 -0.040178172290325165 0.044903796166181564 -0.11030009388923645 -0.10717099159955978 -0.06413880735635757 -0.1633991301059723 0.009368273429572582 -0.16396521031856537 -0.11662765592336655 0.12676171958446503 -0.007591326255351305 -0.10657308995723724 0.162673220038414 0.02311510033905506 0.12152859568595886 -0.01527855172753334 -0.04818587750196457 -0.060464680194854736 0.19831083714962006 -0.28492414951324463 -0.031295813620090485 0.0999438539147377 -0.010754573158919811 -0.046275459229946136 0.012404078617691994 0.044880468398332596 0.048124466091394424 -0.054976362735033035 -0.10026010125875473
重构心源性猝死风险因子的系统及方法	0.01123290229588747 -0.027361540123820305 -0.16576850414276123 -0.16884168982505798 0.09028635174036026 -0.07016655057668686 -0.16508261859416962 -0.04957295209169388 -0.17941027879714966 -0.16260045766830444 -0.1369403451681137 0.1421496570110321 0.46757036447525024 0.1454026997089386 0.14233003556728363 -0.04583047330379486 0.11856383085250854 0.4953165650367737 0.09217685461044312 -0.12710562348365784 0.033530764281749725 0.12915785610675812 -0.05374526232481003 0.024522848427295685 0.08605384826660156 0.034488361328840256 0.33617836236953735 -0.025192247703671455 -0.19442732632160187 0.057323943823575974 0.03364994004368782 0.25935718417167664
一种基于Kernel-CNN的心电信号识别分类方法	-0.14030161499977112 -0.02304670214653015 -0.043803684413433075 -0.07852867245674133 0.14044611155986786 0.054754797369241714 0.10673306882381439 0.019399777054786682 -0.07795485854148865 -0.11434075981378555 0.10484150052070618 -0.06905179470777512 -0.23693101108074188 0.02576334960758686 0.23435640335083008 0.09114870429039001 -0.06586335599422455 0.16070738434791565 -0.1821528673171997 -0.12953484058380127 -0.39853137731552124 -0.11814051121473312 0.10841955244541168 -0.11556506901979446 -0.24434947967529297 -0.031678684055805206 0.25279659032821655 -0.10762853175401688 0.060484226793050766 -0.03786902502179146 0.08759292215108871 -0.3334673345088959
一种基于旁路模式的低噪声放大器电路	0.029498714953660965 0.012446390464901924 -0.07058553397655487 -0.1147795021533966 -0.11062998324632645 0.09703872352838516 0.043884020298719406 0.08972155302762985 0.24737179279327393 0.23963724076747894 -0.11237810552120209 0.09477939456701279 -0.059658002108335495 -0.08502529561519623 0.22497962415218353 0.2778130769729614 0.26745373010635376 -0.03338400647044182 0.044218022376298904 0.2682930529117584 0.16923080384731293 0.009488232433795929 0.11610682308673859 0.09098193049430847 0.10844387114048004 -0.11935564875602722 -0.1010422334074974 -0.21357382833957672 0.2720126211643219 -0.04294299706816673 0.07492117583751678 -0.11335422098636627
运算放大器	0.10616301000118256 0.07047881931066513 -0.1837531328201294 0.07674779742956161 0.04511094093322754 -0.342019647359848 0.09656529873609543 0.012344473041594028 0.1254814863204956 -0.2209376096725464 -0.1455322951078415 -0.1884944587945938 0.2954023480415344 -0.5342838168144226 -0.24760107696056366 -0.25135889649391174 -0.0726018100976944 0.21668486297130585 -0.0626315250992775 -0.33806777000427246 -0.35235947370529175 -0.08769453316926956 -0.3000577390193939 0.3554759621620178 0.003538711927831173 0.1598401516675949 0.271893709897995 -0.019719287753105164 -0.05232055485248566 -0.07085661590099335 0.024338658899068832 0.1661837100982666
一种心搏组合特征散点图生成方法、终端设备及存储介质	0.08351227641105652 -0.16590215265750885 -0.2065313756465912 0.07296784967184067 -0.18326623737812042 -0.02348789945244789 -0.320762574672699 0.021957021206617355 0.005921802017837763 0.06490235775709152 -0.1424092799425125 -0.0430174320936203 -0.0440918393433094 -0.04096439480781555 -0.20309783518314362 -0.1751173436641693 0.10332699865102768 0.15577472746372223 -0.2982354760169983 -0.18914452195167542 0.18610142171382904 -0.03745841607451439 0.08372355997562408 -0.10627573728561401 -0.054422590881586075 0.258942186832428 -0.1903270184993744 0.11394689977169037 -0.17954838275909424 -0.130284383893013 -0.19572339951992035 -0.15155108273029327
基于CNN神经网络的急性心肌梗死定性自动判别系统	0.09205811470746994 0.010391777381300926 0.04056316241621971 0.043714411556720734 -0.03714713454246521 -0.08174639940261841 0.06041603162884712 0.03497936204075813 0.23557069897651672 0.05582428723573685 0.1737539917230606 -0.1606665998697281 -0.29682692885398865 0.06761080771684647 0.31806543469429016 -0.29021045565605164 0.11101698875427246 0.18541327118873596 -0.16559961438179016 0.20470193028450012 -0.10048685222864151 0.028803328052163124 0.12046239525079727 0.17243123054504395 -0.10235778242349625 -0.1985355168581009 0.023314988240599632 0.06146124750375748 -0.04716167226433754 0.18980400264263153 -0.027743155136704445 -0.09308957308530807
一种应用于包络跟踪电源调制器的降频采样与控制电路	0.043123114854097366 0.1679256409406662 0.06330028921365738 -0.08734438568353653 0.14114241302013397 0.2580989897251129 0.004103359766304493 0.031044162809848785 0.07975583523511887 0.10874173045158386 -0.010520165786147118 -0.26051145792007446 -0.35809126496315 0.14432430267333984 0.19422473013401031 0.3617028295993805 0.04279068112373352 0.012166188098490238 -0.10277888923883438 0.0796816498041153 0.330030232667923 0.3950625956058502 0.3812749683856964 0.07151961326599121 -0.24665138125419617 -0.02097473107278347 0.03807095065712929 -0.08588588237762451 -0.1680975705385208 0.282020628452301 0.07306281477212906 -0.1738666296005249
一种空气压缩机油组合物及其制备方法	0.01378018967807293 -0.008857940323650837 -0.05673791095614433 -0.05666960030794144 0.10212427377700806 -0.014293664135038853 0.06750384718179703 0.011347991414368153 0.08430558443069458 0.05002238601446152 -0.03337378799915314 -0.10507361590862274 -0.016631217673420906 -0.09647565335035324 0.11559222638607025 0.09384734183549881 0.08507251739501953 0.20842458307743073 -0.08993126451969147 -0.037967901676893234 -0.22619658708572388 -0.0074735223315656185 -0.0016081236535683274 0.05390295758843422 -0.10651903599500656 -0.22106927633285522 0.06774946302175522 -0.07288059592247009 0.022498182952404022 0.10699210315942764 0.056084491312503815 0.03991605341434479
一种基于物联网的建筑结构应变无线监测系统	-0.1733577847480774 0.13561512529850006 0.42692485451698303 0.2973240613937378 0.015281470492482185 0.06500385701656342 -0.26010197401046753 0.030589208006858826 0.06421500444412231 0.0381939671933651 0.1126248687505722 0.1289571225643158 0.012884332798421383 0.15571658313274384 0.2419716715812683 -0.015800325199961662 0.1935548037290573 -0.28816309571266174 0.20612655580043793 0.42665135860443115 -0.08319295942783356 0.16280101239681244 0.14598077535629272 -0.5392052531242371 -0.21191731095314026 -0.09198945760726929 -0.555271327495575 -0.003696108004078269 0.11781623959541321 0.059564922004938126 0.05760574713349342 -0.4487636685371399
一种服务器对外供电符合受限制电源的系统	0.017540590837597847 -0.11696799099445343 0.10208643227815628 -0.02180522121489048 0.03654373809695244 -0.09673541784286499 0.17337392270565033 0.01071159727871418 -0.1371818482875824 0.04281917214393616 -0.04601271450519562 0.033997174352407455 0.10291091352701187 0.06193471699953079 -0.08880604058504105 0.0966104194521904 -0.09285677969455719 0.121580109000206 -0.20758210122585297 -0.02959628216922283 -0.06972102075815201 0.1389138102531433 -0.048008546233177185 -0.030832355841994286 -0.07340236008167267 -0.12757793068885803 0.1620991826057434 -0.05437448248267174 0.19734074175357819 0.1826043426990509 -0.09013725072145462 -0.10182405263185501
一种工业齿轮箱清洗油组合物	0.14732632040977478 -0.08784232288599014 0.22864457964897156 0.224298357963562 0.06987516582012177 -0.184529110789299 0.26659971475601196 -0.011238745413720608 -0.25165417790412903 -0.33656045794487 -0.001797600882127881 0.18524417281150818 0.10300762951374054 -0.18348892033100128 0.06135121360421181 -0.1552228182554245 -0.2711429297924042 -0.1725216656923294 0.03934371471405029 -0.12217091023921967 -0.14001046121120453 0.12232840061187744 0.0034035956487059593 0.07592839002609253 0.14454500377178192 -0.05695746839046478 -0.17237871885299683 0.3264691233634949 -0.18820573389530182 0.18158341944217682 0.20644733309745789 0.06657552719116211
一种基于多通道动态监测的呼吸指数提取系统及工作方法	-0.3217247724533081 -0.31880244612693787 0.4070921540260315 0.2705414295196533 -0.10513830929994583 -0.014255112037062645 -0.1391482949256897 0.04589433595538139 -0.4246351718902588 0.22392044961452484 0.01603834517300129 0.01063021644949913 -0.21531647443771362 -0.30939218401908875 -0.27388712763786316 -0.11837626993656158 0.1018916442990303 0.16847482323646545 -0.11064420640468597 -0.37975013256073 -0.3129420876502991 -0.30051466822624207 0.14018584787845612 -0.19947849214076996 -0.08056072145700455 -0.08927624672651291 -0.11902322620153427 -0.009830864146351814 0.09561892598867416 -0.08535975217819214 -0.1536027491092682 -0.18083569407463074
一种面向LNA提升增益且降噪的电路	0.0924282968044281 -0.22228671610355377 0.04444199427962303 -0.11745792627334595 0.007122125010937452 -0.3353930711746216 0.02372441068291664 -0.015330357477068901 -0.07474096119403839 -0.03479086980223656 -0.05354022607207298 -0.03694463148713112 -0.051797643303871155 0.09478402137756348 -0.03982315585017204 -0.009189523756504059 0.04833025485277176 0.05617279186844826 -0.2084072381258011 -0.23598086833953857 -0.2085454761981964 -0.20953714847564697 0.03545929491519928 -0.07163528352975845 0.0021915147081017494 0.1316329389810562 0.07357064634561539 0.025678927078843117 0.2444240152835846 0.047469351440668106 0.1278892308473587 0.16185076534748077
一种润滑油组合物及其应用	0.00922507792711258 0.23968909680843353 0.08520372956991196 -0.03885971009731293 0.2871773838996887 -0.15710361301898956 0.3479357361793518 0.08170764148235321 0.11314614117145538 -0.008526446297764778 -0.12399416416883469 0.08845003694295883 -0.4307935833930969 -0.050298817455768585 0.39135411381721497 -0.12388927489519119 -0.06755168735980988 -0.06570331007242203 0.14783808588981628 0.48222509026527405 -0.03321493789553642 0.4438941180706024 0.15138955414295197 0.1498337984085083 -0.21699258685112 -0.22615067660808563 -0.01545997615903616 -0.19283448159694672 0.020741872489452362 0.3371153771877289 0.12749065458774567 -0.3189450800418854
一种钙基润滑脂及其制备方法	-0.01336472388356924 -0.3119015395641327 0.2688978612422943 -0.054006852209568024 -0.25029289722442627 -0.3417016267776489 0.008741315454244614 0.05167490616440773 0.011709794402122498 0.276469349861145 0.24923771619796753 0.19732926785945892 0.058241572231054306 0.0673774853348732 0.4591086208820343 0.054018981754779816 0.38630422949790955 0.1442279815673828 -0.08999314904212952 -0.6163434386253357 -0.5163636207580566 -0.3329026401042938 0.058035336434841156 0.1646631807088852 -0.25518637895584106 -0.5700759291648865 -0.03698040544986725 0.6005534529685974 -0.023959286510944366 0.24388553202152252 0.18851277232170105 0.02914869412779808
一种基于图总变分约束的无创心脏电生理反演方法	-0.24020332098007202 0.21319815516471863 0.12237195670604706 -0.17921797931194305 0.14066122472286224 0.05367589369416237 0.028621159493923187 0.10178384929895401 -0.0355188362300396 -0.09750737249851227 -0.30714213848114014 0.11046618223190308 -0.014805023558437824 -0.08533402532339096 -0.14471721649169922 0.06087994948029518 0.10468604415655136 -0.051646918058395386 0.16981221735477448 -0.06838159263134003 0.127060666680336 0.09110355377197266 -0.18728041648864746 -0.28149503469467163 0.15876565873622894 -0.17622627317905426 -0.04359346628189087 -0.01627715304493904 0.1407584697008133 -0.1334610879421234 0.23215988278388977 0.09548898786306381
一种基于贝叶斯先验概率的心率融合标注方法及其系统	-0.26158222556114197 -0.2974432706832886 -0.07997474074363708 -0.09197144955396652 -0.05925194174051285 0.06259077042341232 -0.021328415721654892 -0.02341194450855255 -0.04696892946958542 -0.06175679340958595 -0.009002936072647572 0.07792674005031586 0.2391601800918579 0.3897404968738556 -0.34401237964630127 -0.13295423984527588 0.17767433822155 0.18177896738052368 -0.07178189605474472 -0.118721142411232 0.22942984104156494 0.1485062837600708 0.3027169704437256 -0.4396090805530548 -0.16354264318943024 0.20850688219070435 0.19082002341747284 0.1272747814655304 -0.021663948893547058 0.1522757112979889 -0.3192417323589325 0.3818146884441376
一种环保无钡型薄层防锈油及其制备方法和应用	-0.02695968933403492 0.038986921310424805 0.13324570655822754 -0.14540566504001617 -0.04245395213365555 -0.2254592776298523 -0.13027411699295044 -0.09041187912225723 0.1830940693616867 0.017532382160425186 -0.07324952632188797 -0.28913381695747375 -0.0028238468803465366 -0.17795489728450775 0.2281496375799179 -0.17207865417003632 0.22161659598350525 -0.02424943633377552 0.06827961653470993 -0.29123926162719727 0.10373315215110779 0.24750185012817383 0.10581647604703903 0.23770171403884888 -0.3595927357673645 0.11677823215723038 0.014354688115417957 0.27886444330215454 -0.11801540851593018 0.1295606940984726 0.07777927070856094 -0.2999942898750305
一种宽带、高线性度射频低噪声放大器	0.03478841483592987 0.10808732360601425 0.14670482277870178 -0.0855618417263031 -0.051609404385089874 -0.07599014043807983 0.13257278501987457 -0.05997086316347122 0.287955105304718 -0.2740509808063507 0.01493922807276249 0.13993707299232483 -0.16826565563678741 -0.05894062668085098 0.22620625793933868 0.10471831262111664 -0.111810103058815 -0.07357995212078094 0.11368058621883392 -0.009648889303207397 0.10597148537635803 0.20794574916362762 0.026724226772785187 -0.13910841941833496 0.008827400393784046 0.06220424547791481 0.2328575700521469 -0.0889124870300293 -0.2030080109834671 0.12584273517131805 -0.1517786979675293 0.03866387903690338
透平油以及透平油的使用方法	0.07693450152873993 -0.5080292224884033 0.27531373500823975 0.36475059390068054 0.17994067072868347 0.030265308916568756 -0.11531886458396912 -0.08099345117807388 0.021287674084305763 0.4147294759750366 0.010632727295160294 0.03721994906663895 0.18024449050426483 0.33593258261680603 0.10084925591945648 0.07852350175380707 -0.39534953236579895 -0.20667733252048492 0.010371312499046326 0.053602516651153564 -0.004264223389327526 -0.01776917278766632 -0.15787220001220703 -0.07639802247285843 0.25407716631889343 -0.244532510638237 0.20654051005840302 0.18453195691108704 0.016952451318502426 0.18542811274528503 0.15023411810398102 0.27609020471572876
离子液体组合物及其制备方法	-0.07490266114473343 0.12203583866357803 0.09599312394857407 -0.05274365842342377 0.11198026686906815 -0.09629227966070175 0.0018863240256905556 -0.039960965514183044 0.23156949877738953 0.09686532616615295 -0.025043442845344543 -0.13507017493247986 -0.22396965324878693 -0.13633224368095398 -0.025372294709086418 0.09086508303880692 0.07673557102680206 -0.4898294508457184 0.27167198061943054 0.09483636170625687 -0.17844398319721222 0.034794554114341736 0.10545876622200012 0.0025007689837366343 -0.2172577679157257 -0.2444484382867813 0.017815478146076202 0.02355579473078251 0.04893891140818596 -0.13005509972572327 0.15041467547416687 0.01839320734143257
基于心脏标测激动序列图的房颤分析预测方法	0.20968391001224518 0.11493508517742157 0.10077878087759018 -0.14667415618896484 -0.06644777953624725 -0.15884678065776825 0.00681143905967474 -0.003012659028172493 -0.10438733547925949 -0.06002888083457947 0.14181236922740936 0.19391050934791565 0.09932513535022736 0.037112731486558914 0.11388839781284332 -0.1464104801416397 0.22718973457813263 -0.14730165898799896 0.26568230986595154 0.25755107402801514 -0.1136646568775177 -0.21225842833518982 -0.1421303153038025 0.1954062581062317 0.169962078332901 -0.2777860164642334 0.04991777986288071 0.33087819814682007 0.3704066574573517 -0.08684985339641571 0.34472912549972534 0.03727918118238449
一种血压分类方法和装置	-0.0808287262916565 -0.26800402998924255 0.20702339708805084 0.05743805319070816 -0.1301673948764801 -0.0963829979300499 -0.03193163499236107 0.036369938403367996 0.012378068640828133 -0.05968528985977173 -0.09048032015562057 0.14679443836212158 0.23266376554965973 0.03091604635119438 0.03455779328942299 -0.11810218542814255 -0.06672313064336777 0.3377530872821808 -0.07971389591693878 -0.10416871309280396 -0.15720373392105103 -0.12963271141052246 -0.09548304229974747 -0.008635817095637321 -0.06289266794919968 0.09983035176992416 -0.18179385364055634 -0.12810643017292023 0.0639977902173996 0.010315457358956337 0.0022054892033338547 -0.06442122161388397
计算机系统及电源管理方法	0.051089994609355927 -0.14270535111427307 -0.10481725633144379 0.08527284115552902 -0.053919244557619095 0.05716412514448166 -0.057410601526498795 0.03710736334323883 0.12191847711801529 0.118142269551754 -0.0391790047287941 -0.017019350081682205 0.02163146808743477 0.015469906851649284 0.019077861681580544 0.05551024526357651 -0.028857272118330002 0.06529735773801804 0.10457620024681091 -0.06903005391359329 0.1308353990316391 -0.05634693801403046 -0.09473027288913727 0.0552758052945137 0.1849164068698883 0.11388857662677765 0.02475077658891678 0.2274317592382431 0.008028710260987282 0.00018879014533013105 0.08705687522888184 0.3508075773715973
一种用于天然气泄漏激光检测系统的多源噪声抑制电路	0.013337158598005772 0.004510574974119663 -0.03491189703345299 0.2958412170410156 0.31234538555145264 0.3325338661670685 0.02361895516514778 -0.022568900138139725 0.27834033966064453 -0.1392093300819397 0.17513011395931244 -0.1772972196340561 -0.11022499948740005 0.16064979135990143 -0.15756434202194214 -0.4009547233581543 -0.24069350957870483 0.005500110797584057 -0.38676396012306213 -0.0945267379283905 -0.009522284381091595 -0.24177859723567963 -0.07916874438524246 0.283132940530777 -0.391594797372818 0.48030737042427063 0.10305099189281464 0.15053100883960724 -0.3076956272125244 -0.2789740264415741 0.05204647779464722 -0.19785627722740173
X波段400W功放	0.08284751325845718 0.2578841745853424 0.22046928107738495 -0.04305552318692207 0.005742399021983147 -0.06484939903020859 -0.03154747188091278 -0.01499154418706894 -0.018173107877373695 0.05205890163779259 0.00853031873703003 -0.10325462371110916 0.03015548549592495 0.11968530714511871 0.004332021344453096 0.0538947619497776 0.07263410091400146 0.04868626222014427 0.0068472870625555515 0.16858075559139252 -0.05888958275318146 0.0237855426967144 -0.1340118646621704 -0.1084190383553505 0.01422574557363987 -0.18007704615592957 -0.1465398222208023 0.03496681898832321 0.08708233386278152 0.16798293590545654 0.04398154467344284 -0.04048289358615875
一种螺杆压缩机油及其制备方法	0.04965563118457794 0.003633605083450675 -0.05921190232038498 0.11429940164089203 -0.25086623430252075 0.11752013862133026 0.17185771465301514 0.05575253814458847 0.1443859040737152 0.03530456870794296 0.15267038345336914 -0.04931474104523659 0.11295989155769348 -0.0278144720941782 0.41323110461235046 0.11197075247764587 0.02060856483876705 -0.0922091156244278 -0.03088793158531189 -0.18802829086780548 0.08497278392314911 0.20121534168720245 -0.12757909297943115 0.22449278831481934 0.013700010254979134 -0.10228794813156128 -0.033773768693208694 -0.016381392255425453 0.1352466344833374 -0.06499310582876205 0.45393142104148865 0.12217067927122116
一种基于单导联的心电信号自动分类方法	-0.15882264077663422 -0.062155891209840775 -0.10796314477920532 0.0034010857343673706 0.2257569283246994 0.37815919518470764 0.2694966495037079 -0.003219276200979948 0.09477955847978592 -0.06406084448099136 0.0516446977853775 0.13649658858776093 -0.2367434948682785 0.3056580722332001 0.29115861654281616 0.10066423565149307 -0.11251614987850189 0.06938642263412476 -0.030594058334827423 0.04265477508306503 0.02471225894987583 0.18070124089717865 0.24304550886154175 -0.1144418716430664 -0.28043681383132935 -0.012021687813103199 0.06956450641155243 -0.19364091753959656 0.06440871953964233 0.09568586945533752 -0.04369277134537697 0.13280892372131348
心电信号实时分类方法、装置及可读存储介质	0.011530155315995216 0.06226230040192604 0.07713890075683594 -0.23329894244670868 0.20418430864810944 0.12755060195922852 0.12035764008760452 -0.027110464870929718 0.021073997020721436 0.04952806979417801 -0.028826063498854637 -0.38437092304229736 -0.05488147586584091 0.06899924576282501 0.14813928306102753 0.17763425409793854 -0.1255115121603012 0.3012164831161499 0.1390775740146637 0.005296492017805576 0.1106049045920372 -0.17845496535301208 0.03986184671521187 -0.025135716423392296 -0.19119615852832794 0.10845907777547836 0.15803079307079315 -0.1636263132095337 0.1947617381811142 0.034776847809553146 -0.023706117644906044 0.16512919962406158
基于改进EMD与阈值法融合的心电信号去噪方法	-0.10015777498483658 -0.19282251596450806 -0.24983364343643188 -0.05484890565276146 -0.18982794880867004 0.4861496090888977 0.07651447504758835 0.013172541745007038 -0.10342586040496826 -0.15125277638435364 -0.1912916749715805 0.1702994406223297 -0.23611994087696075 -0.1279866099357605 -0.07146866619586945 0.017834234982728958 0.19061970710754395 -0.26461514830589294 0.17599768936634064 -0.2152928113937378 0.436009019613266 0.2990244925022125 0.04810455068945885 -0.1555045247077942 0.18599022924900055 -0.013578055426478386 -0.14971382915973663 0.1970752477645874 -0.03966052085161209 0.03806580975651741 0.14852651953697205 0.35484936833381653
射频接收系统和输出三阶交调点OIP3校准方法	0.019858676940202713 -0.32322391867637634 0.029498908668756485 -0.01572665385901928 -0.0605173222720623 0.031455110758543015 0.32169294357299805 0.018493082374334335 0.23688481748104095 0.2025574892759323 0.14467363059520721 0.02578544430434704 -0.1673596054315567 -0.2425810843706131 -0.09438718855381012 -0.004631374962627888 0.04200589284300804 0.04759668558835983 -0.024633124470710754 -0.16787947714328766 0.06453632563352585 -0.3349451720714569 0.08838645368814468 -0.3152526915073395 -0.012845969758927822 -0.018513258546590805 -0.0035265893675386906 0.10629668086767197 -0.1263207495212555 -0.22073175013065338 -0.31015974283218384 0.2497624158859253
润滑剂及其制备方法，以及降低流体粘度的方法	0.07780235260725021 0.20841237902641296 -0.056517042219638824 -0.19452503323554993 -0.005745816044509411 -0.22984278202056885 -0.15226326882839203 -0.025715269148349762 -0.025865675881505013 0.043289534747600555 -0.22078412771224976 -0.23888574540615082 0.0034930468536913395 0.009407173842191696 -0.48209598660469055 0.04965981841087341 0.07091445475816727 0.1622508317232132 0.17200972139835358 -0.2166813760995865 -0.08393118530511856 -0.08597690612077713 -0.03316724672913551 0.13438226282596588 -0.05773047357797623 -0.0016377281863242388 0.08062992990016937 0.05778986215591431 -0.23906315863132477 -0.08151202648878098 -0.02442990615963936 0.20545989274978638
一种光电微电子信号补偿设备	-0.1176006942987442 0.1826838254928589 -0.20881181955337524 0.1666947901248932 0.10745558142662048 0.2250518500804901 -0.11580643057823181 -0.0892811194062233 -0.11506471037864685 -0.36087191104888916 -0.19575756788253784 -0.16898448765277863 -0.22235344350337982 -0.06633075326681137 -0.2959502637386322 -0.14465725421905518 -0.07586447149515152 -0.24069206416606903 0.21131174266338348 0.4488857090473175 0.4098464548587799 0.47841712832450867 0.024257468059659004 -0.21278530359268188 -0.09770642220973969 0.2639821767807007 0.05500065162777901 -0.03699450567364693 -0.26343950629234314 -0.12901675701141357 -0.4406682252883911 -0.2603580951690674
一种待刷新设备的供电电路及服务器	0.1988496333360672 0.005145086906850338 -0.10329404473304749 -0.05543306842446327 -0.10363557189702988 -0.09542135149240494 0.028033215552568436 0.011485624127089977 0.00798756629228592 0.0006185573292896152 0.1285123974084854 0.23408548533916473 0.11618531495332718 0.010760691948235035 -0.056734561920166016 -0.05987344682216644 -0.11303291469812393 -0.11980847269296646 0.0372968390583992 -0.18442608416080475 -0.06808216869831085 -0.19363363087177277 -0.13951526582241058 0.14401397109031677 0.1957455426454544 0.043451737612485886 0.14234669506549835 0.12256386131048203 0.06546434015035629 -0.18389177322387695 0.03420640155673027 0.0984266921877861
一种5G通信抗失配宽带低噪声放大器	-0.02565060369670391 0.07414596527814865 0.09176933020353317 -0.08623909950256348 0.05754997208714485 -0.07984790951013565 -0.11142700910568237 0.037479106336832047 -0.2406049221754074 0.18038877844810486 -0.04438488930463791 -0.29952114820480347 -0.04600238800048828 -0.0011968497419729829 -0.15971779823303223 -0.03581724688410759 0.036625225096940994 0.15488597750663757 0.09606041759252548 0.16900275647640228 -0.03634373098611832 0.18134695291519165 0.18574939668178558 -0.13767430186271667 -0.08824189007282257 -0.09960424154996872 0.19681812822818756 0.07272055000066757 -0.0875808522105217 0.07148943096399307 -0.012376928701996803 -0.12649831175804138
高效大功率隔离调光信号放大电路	0.1824224889278412 -0.0009067433420568705 0.0018036102410405874 -0.1289501041173935 -0.004248938988894224 -0.016085918992757797 0.24193984270095825 0.01615283638238907 0.2828478217124939 -0.23209692537784576 0.04216662421822548 -0.18140093982219696 0.33939144015312195 -0.2716105282306671 0.2967468798160553 -0.14219535887241364 -0.1012403592467308 -0.10746315866708755 -0.2976359724998474 -0.4412437677383423 -0.23019634187221527 0.1481126844882965 0.16647998988628387 -0.06620083004236221 -0.038566309958696365 -0.07424965500831604 0.35286781191825867 0.06902318447828293 -0.05278811603784561 0.09757596254348755 0.6155593991279602 0.09612307697534561
一种应用于生物电势处理的自反馈低噪声放大器	-0.18163351714611053 -0.083405040204525 -0.13312390446662903 0.004368537105619907 0.1996454894542694 0.09083621203899384 -0.1806425154209137 -0.05173053592443466 0.06467979401350021 0.07434692233800888 -0.0880468338727951 -0.21334804594516754 -0.07844148576259613 0.08969071507453918 -0.4052300751209259 -0.0007294305833056569 -0.2106853723526001 0.24966159462928772 0.20129327476024628 0.3290005922317505 0.17869026958942413 0.16270415484905243 0.2619750201702118 -0.06573032587766647 -0.20435228943824768 0.2990240752696991 -0.07925698161125183 -0.33225879073143005 0.15966585278511047 -0.023317940533161163 -0.4164067506790161 0.058461762964725494
基于高频心电的心脏交感活性检测装置	0.17829646170139313 0.03061099164187908 0.08318105340003967 0.1709752231836319 -0.21712245047092438 -0.27003493905067444 0.16938117146492004 -0.041187502443790436 0.36806216835975647 0.2647920548915863 0.2668790817260742 -0.2859726846218109 0.22021439671516418 -0.034320466220378876 0.37952399253845215 0.23604896664619446 0.08016970008611679 -0.26157456636428833 0.10101405531167984 -0.14856278896331787 -0.09142466634511948 -0.01766929216682911 0.2961009740829468 0.10248330235481262 -0.16138052940368652 -0.5043184757232666 0.09743830561637878 0.14705292880535126 -0.06354212015867233 0.2551043927669525 0.1748303771018982 0.08359349519014359
一种多频段信号放大器	-0.03486417606472969 0.10789570957422256 -0.05624529719352722 -0.135700985789299 0.16644372045993805 0.07062889635562897 0.0837487056851387 -0.00034159887582063675 0.1980620175600052 -0.02930271625518799 -0.021950649097561836 -0.008343763649463654 -0.11055898666381836 0.07452016323804855 0.10856600850820541 0.12572598457336426 -0.03480781987309456 0.09742690622806549 0.020891990512609482 -0.21007952094078064 -0.19599808752536774 0.16864898800849915 0.1653747260570526 -0.17681042850017548 -0.19858887791633606 0.009881609119474888 0.05603766441345215 -0.17554408311843872 -0.2739872336387634 0.09221573173999786 -0.0278414748609066 0.21697856485843658
一种高效加工长寿命高清高压液压油的装置及方法	-0.06680294871330261 -0.30387890338897705 -0.0167317483574152 0.09904588758945465 -0.05214586853981018 0.047236714512109756 -0.07565969228744507 -0.010562470182776451 0.07331375032663345 -0.06632492691278458 0.012805945239961147 0.230112686753273 0.2767294943332672 -0.20994989573955536 -0.04097743704915047 -0.09405588358640671 0.006261815316975117 -0.10472685843706131 -0.023807547986507416 -0.14291594922542572 0.1870642602443695 -0.06899359077215195 -0.17127956449985504 -0.023872915655374527 0.12006912380456924 0.12414729595184326 -0.04836374893784523 -0.16977567970752716 -0.03544793277978897 -0.13367776572704315 0.08059844374656677 0.08181018382310867
一种面向心电数据的数据处理系统	-0.007032065186649561 0.11286021023988724 -0.14337661862373352 0.02625058963894844 -0.00803976971656084 0.08415298908948898 0.0007378878071904182 0.004648330621421337 0.009769914671778679 -0.015537017025053501 -0.03176464885473251 0.022117607295513153 -0.14621633291244507 -0.09808067232370377 0.029531503096222878 0.1332961469888687 -0.025775523856282234 -0.05962870270013809 0.07049538195133209 0.11605501919984818 0.13913679122924805 0.12485311180353165 0.018364526331424713 -0.012501463294029236 -0.033059753477573395 0.06185005605220795 0.018968673422932625 -0.02074814960360527 -0.09453429281711578 0.011127141304314137 -0.07080123573541641 0.01709398627281189
一种抗微点蚀风电齿轮油及其制备方法	0.03975508734583855 -0.02754623256623745 0.017485806718468666 -0.14061352610588074 -0.15468436479568481 -0.18048253655433655 -0.05953969806432724 -0.007604940328747034 -0.05556036904454231 -0.091422900557518 0.08779076486825943 -0.05835521221160889 0.15406553447246552 0.2643919289112091 -0.08576281368732452 0.2231055200099945 0.09437539428472519 0.15589216351509094 0.1387609839439392 -0.09231426566839218 -0.284567654132843 -0.18912844359874725 -0.11540796607732773 0.2640305757522583 -0.21591737866401672 -0.026630230247974396 -0.05853310972452164 0.13143131136894226 0.0009269120637327433 0.004188447259366512 0.20240077376365662 -0.02773198112845421
心肌病的辅助诊断设备、装置和计算机可读存储介质	0.1600629687309265 0.1330144852399826 -0.1037251353263855 -0.049124255776405334 -0.07543040066957474 0.07270212471485138 0.33870938420295715 0.030248865485191345 0.025474125519394875 0.027976078912615776 -0.04283862188458443 0.17127615213394165 0.3262350559234619 0.02831607311964035 0.015224040485918522 0.05215120688080788 0.012169691734015942 0.23132607340812683 -0.1753576248884201 -0.08191899955272675 -0.2932495176792145 0.059941668063402176 -0.20484532415866852 0.024616684764623642 -0.02832743711769581 -0.12273721396923065 0.12074064463376999 -0.04240647703409195 0.04858395457267761 0.015172070823609829 0.0925922691822052 -0.033049676567316055
一种车用低温举升油及其制备方法	-0.023813148960471153 0.05796755105257034 0.05103990063071251 -0.10948126018047333 0.033571768552064896 -0.15033717453479767 0.04772891104221344 -0.0448157861828804 0.04106656461954117 0.05759461224079132 -0.10251664370298386 -0.025237973779439926 0.0817561149597168 0.01964106410741806 -0.19785262644290924 0.048067063093185425 -0.01620587706565857 0.17244946956634521 0.12241161614656448 -0.22841520607471466 -0.07472686469554901 -0.012455884367227554 -0.12625236809253693 -0.17900410294532776 0.088763527572155 -0.036206431686878204 0.04215818643569946 0.006127003580331802 -0.07929124683141708 -0.06309516727924347 0.0007218068931251764 0.03853275626897812
一种数据处理方法、装置及计算机存储介质和电子设备	-0.004341262858361006 0.134344220161438 0.08704818785190582 0.005098776891827583 0.09059327840805054 -0.10648926347494125 0.026097893714904785 -0.0772850513458252 0.03813157230615616 0.029586926102638245 -0.05496286228299141 -0.1598416417837143 0.3103194832801819 -0.1869942992925644 -0.28161901235580444 -0.23188073933124542 -0.19076581299304962 0.007344060577452183 -0.06690321117639542 0.15334594249725342 -0.12135255336761475 0.06275603175163269 -0.054706402122974396 -0.15118242800235748 0.04638218507170677 -0.05754740908741951 -0.36445602774620056 0.05720321089029312 0.2633029520511627 -0.06453511118888855 -0.0029097208753228188 -0.22179768979549408
